\data\
ngram 1=30
ngram 2=714
ngram 3=5794
ngram 4=14705

\1-grams:
-1.4771213	#	0.0
-1.4771213	+	0.0
-1.4771213	</s>	0.0
-1.4771213	<s>	0.0
-1.4771213	a	0.0
-1.4771213	b	0.0
-1.4771213	c	0.0
-1.4771213	d	0.0
-1.4771213	e	0.0
-1.4771213	f	0.0
-1.4771213	g	0.0
-1.4771213	h	0.0
-1.4771213	i	0.0
-1.4771213	j	0.0
-1.4771213	k	0.0
-1.4771213	l	0.0
-1.4771213	m	0.0
-1.4771213	n	0.0
-1.4771213	o	0.0
-1.4771213	p	0.0
-1.4771213	q	0.0
-1.4771213	r	0.0
-1.4771213	s	0.0
-1.4771213	t	0.0
-1.4771213	u	0.0
-1.4771213	v	0.0
-1.4771213	w	0.0
-1.4771213	x	0.0
-1.4771213	y	0.0
-1.4771213	z	0.0

\2-grams:
-0.5086383	# #	-0.5228787
-0.5086383	# </s>	-0.5228787
-0.9586073	# x	-0.5228787
-1.0818213	+ +	-0.6734159
-0.5531554	+ </s>	-0.6734159
-1.1695604	+ a	-0.6734159
-0.9464172	+ c	-0.6734159
-1.4274335	+ d	-0.6734159
-1.6532125	+ e	-0.6734159
-1.6532125	+ h	-0.6734159
-1.1695604	+ j	-0.6734159
-1.4274335	+ m	-0.6734159
-1.2796319	+ p	-0.6734159
-1.4274335	+ t	-0.6734159
-1.6532125	+ u	-0.6734159
-1.6532125	+ w	-0.6734159
-1.6532125	+ z	-0.6734159
-6.85e-05	</s> <s>	-3.7873896
-3.6667696	<s> #	-2.8027973
-3.2666454	<s> +	-2.8027973
-0.1767414	<s> <s>	-2.8027973
-1.6168678	<s> a	-2.8027973
-1.8941891	<s> b	-2.8027973
-1.504798	<s> c	-2.8027973
-1.7573844	<s> d	-2.8027973
-1.8306796	<s> e	-2.8027973
-1.9409815	<s> f	-2.8027973
-1.9842377	<s> g	-2.8027973
-2.0247293	<s> h	-2.8027973
-1.7454111	<s> i	-2.8027973
-2.1789542	<s> j	-2.8027973
-2.3732863	<s> k	-2.8027973
-1.9842377	<s> l	-2.8027973
-1.6149202	<s> m	-2.8027973
-2.0247293	<s> n	-2.8027973
-1.9535121	<s> o	-2.8027973
-1.6358197	<s> p	-2.8027973
-2.5411927	<s> q	-2.8027973
-1.890508	<s> r	-2.8027973
-1.4700339	<s> s	-2.8027973
-1.7520221	<s> t	-2.8027973
-2.2876241	<s> u	-2.8027973
-2.1222847	<s> v	-2.8027973
-2.0666299	<s> w	-2.8027973
-2.5842558	<s> x	-2.8027973
-2.8032968	<s> y	-2.8027973
-2.7341424	<s> z	-2.8027973
-3.0113493	a +	-2.0315527
-0.9616029	a </s>	-2.0315527
-2.2014837	a a	-2.0315527
-1.5445491	a b	-2.0315527
-1.1566294	a c	-2.0315527
-1.3649902	a d	-2.0315527
-2.1791308	a e	-2.0315527
-1.9744665	a f	-2.0315527
-1.5345572	a g	-2.0315527
-2.7855703	a h	-2.0315527
-1.6278604	a i	-2.0315527
-2.7855703	a j	-2.0315527
-2.0819304	a k	-2.0315527
-1.0194188	a l	-2.0315527
-1.3616605	a m	-2.0315527
-0.9832589	a n	-2.0315527
-2.401949	a o	-2.0315527
-1.2535738	a p	-2.0315527
-2.705412	a q	-2.0315527
-1.0379066	a r	-2.0315527
-1.1545655	a s	-2.0315527
-0.9273421	a t	-2.0315527
-1.8561514	a u	-2.0315527
-1.6466278	a v	-2.0315527
-1.9480842	a w	-2.0315527
-1.988284	a x	-2.0315527
-1.8459161	a y	-2.0315527
-2.5276972	a z	-2.0315527
-2.2931642	b +	-1.452865
-0.9304691	b </s>	-1.452865
-0.9024102	b a	-1.452865
-1.6828316	b b	-1.452865
-1.607767	b c	-1.452865
-1.741214	b d	-1.452865
-1.0335825	b e	-1.452865
-2.4218308	b f	-1.452865
-1.6563421	b g	-1.452865
-2.6054752	b h	-1.452865
-0.9604668	b i	-1.452865
-1.9866017	b j	-1.452865
-2.6054752	b k	-1.452865
-1.0855781	b l	-1.452865
-1.8086818	b m	-1.452865
-2.6054752	b n	-1.452865
-0.9983024	b o	-1.452865
-1.741214	b p	-1.452865
-2.2931642	b q	-1.452865
-1.2942792	b r	-1.452865
-1.2517715	b s	-1.452865
-1.8468023	b t	-1.452865
-1.2130559	b u	-1.452865
-2.1940327	b v	-1.452865
-2.1940327	b w	-1.452865
-2.1133768	b x	-1.452865
-1.8086818	b y	-1.452865
-3.0390036	c #	-1.8781523
-2.2865578	c +	-1.8781523
-0.8585416	c </s>	-1.8781523
-0.9810491	c a	-1.8781523
-2.0716494	c b	-1.8781523
-1.5062053	c c	-1.8781523
-1.8348837	c d	-1.8781523
-1.0606499	c e	-1.8781523
-2.0965679	c f	-1.8781523
-2.2485486	c g	-1.8781523
-1.1379777	c h	-1.8781523
-1.2763509	c i	-1.8781523
-2.7305496	c j	-1.8781523
-1.4868811	c k	-1.8781523
-1.5062053	c l	-1.8781523
-1.6727417	c m	-1.8781523
-2.1230037	c n	-1.8781523
-0.8876655	c o	-1.8781523
-1.6015811	c p	-1.8781523
-2.4258547	c q	-1.8781523
-1.3043969	c r	-1.8781523
-1.3388372	c s	-1.8781523
-1.0849276	c t	-1.8781523
-1.6098642	c u	-1.8781523
-2.3282154	c v	-1.8781523
-2.7305496	c w	-1.8781523
-2.857949	c x	-1.8781523
-2.1812553	c y	-1.8781523
-2.650207	d +	-1.6812412
-0.6473709	d </s>	-1.6812412
-1.1262812	d a	-1.6812412
-1.5455786	d b	-1.6812412
-1.6369338	d c	-1.6812412
-1.7164057	d d	-1.6812412
-0.8205706	d e	-1.6812412
-1.9112079	d f	-1.6812412
-1.9112079	d g	-1.6812412
-2.1169698	d h	-1.6812412
-0.9225536	d i	-1.6812412
-2.4224089	d j	-1.6812412
-2.0020153	d k	-1.6812412
-1.7924587	d l	-1.6812412
-1.4701405	d m	-1.6812412
-2.0751785	d n	-1.6812412
-1.2681278	d o	-1.6812412
-1.7342071	d p	-1.6812412
-2.5215404	d q	-1.6812412
-1.3891493	d r	-1.6812412
-1.3730327	d s	-1.6812412
-1.859752	d t	-1.6812412
-1.4603587	d u	-1.6812412
-2.0020153	d v	-1.6812412
-1.9112079	d w	-1.6812412
-2.1169698	d x	-1.6812412
-1.8847183	d y	-1.6812412
-3.254273	e +	-2.0934217
-0.6936656	e </s>	-2.0934217
-1.3977733	e a	-2.0934217
-1.7348524	e b	-2.0934217
-1.2551724	e c	-2.0934217
-1.3393647	e d	-2.0934217
-1.6544652	e e	-2.0934217
-2.0644246	e f	-2.0934217
-1.8880111	e g	-2.0934217
-2.4288692	e h	-2.0934217
-2.1615765	e i	-2.0934217
-2.5018271	e j	-2.0934217
-2.4638179	e k	-2.0934217
-1.3001969	e l	-2.0934217
-1.4009105	e m	-2.0934217
-1.0221535	e n	-2.0934217
-1.8880111	e o	-2.0934217
-1.6836495	e p	-2.0934217
-2.3382731	e q	-2.0934217
-0.8010601	e r	-2.0934217
-1.0904333	e s	-2.0934217
-1.2903224	e t	-2.0934217
-2.2869187	e u	-2.0934217
-1.9502581	e v	-2.0934217
-1.9392442	e w	-2.0934217
-1.5964262	e x	-2.0934217
-2.1102896	e y	-2.0934217
-2.945819	e z	-2.0934217
-1.0	f </s>	-1.3891661
-1.1587172	f a	-1.3891661
-2.5141048	f b	-1.3891661
-1.5707202	f c	-1.3891661
-2.0059493	f d	-1.3891661
-1.1694943	f e	-1.3891661
-1.2404606	f f	-1.3891661
-2.5141048	f g	-1.3891661
-0.7327484	f i	-1.3891661
-2.3222193	f k	-1.3891661
-1.2404606	f l	-1.3891661
-1.7359536	f m	-1.3891661
-2.5141048	f n	-1.3891661
-0.856624	f o	-1.3891661
-1.6621674	f p	-1.3891661
-2.5141048	f q	-1.3891661
-1.148201	f r	-1.3891661
-1.544068	f s	-1.3891661
-1.2277981	f t	-1.3891661
-1.3749256	f u	-1.3891661
-2.5141048	f v	-1.3891661
-2.3222193	f w	-1.3891661
-2.0881361	f x	-1.3891661
-2.3222193	f y	-1.3891661
-0.4831439	g </s>	-1.5731395
-1.1828386	g a	-1.5731395
-1.8786468	g b	-1.5731395
-1.8158992	g c	-1.5731395
-1.9939424	g d	-1.5731395
-0.8646968	g e	-1.5731395
-2.1513669	g f	-1.5731395
-1.8158992	g g	-1.5731395
-1.5924953	g h	-1.5731395
-1.1315853	g i	-1.5731395
-2.5307356	g j	-1.5731395
-1.6103211	g l	-1.5731395
-1.5753724	g m	-1.5731395
-1.5129261	g n	-1.5731395
-1.3559931	g o	-1.5731395
-1.8158992	g p	-1.5731395
-2.7170461	g q	-1.5731395
-1.0857473	g r	-1.5731395
-1.8158992	g s	-1.5731395
-2.0923221	g t	-1.5731395
-1.5588991	g u	-1.5731395
-2.7170461	g v	-1.5731395
-2.4007761	g w	-1.5731395
-2.7170461	g x	-1.5731395
-1.8786468	g y	-1.5731395
-2.3008812	g z	-1.5731395
-0.8721816	h </s>	-1.4557582
-0.8458083	h a	-1.4557582
-1.8609975	h b	-1.4557582
-1.6541259	h c	-1.4557582
-1.8609975	h d	-1.4557582
-0.8632114	h e	-1.4557582
-2.1694515	h f	-1.4557582
-2.4014005	h g	-1.4557582
-0.8632114	h i	-1.4557582
-2.5904568	h j	-1.4557582
-2.4014005	h k	-1.4557582
-2.0877814	h l	-1.4557582
-1.8189361	h m	-1.4557582
-1.6824595	h n	-1.4557582
-0.8544226	h o	-1.4557582
-1.6541259	h p	-1.4557582
-2.4014005	h q	-1.4557582
-1.4415178	h r	-1.4557582
-1.8189361	h s	-1.4557582
-1.3508161	h t	-1.4557582
-1.6541259	h u	-1.4557582
-2.5904568	h v	-1.4557582
-2.5904568	h w	-1.4557582
-1.4586632	h y	-1.4557582
-2.0877814	h z	-1.4557582
-1.222003	i </s>	-2.0182689
-1.4206549	i a	-2.0182689
-1.8171754	i b	-2.0182689
-1.0057441	i c	-2.0182689
-1.4330171	i d	-2.0182689
-1.520725	i e	-2.0182689
-1.7973863	i f	-2.0182689
-1.5258707	i g	-2.0182689
-2.858568	i h	-2.0182689
-2.1731708	i i	-2.0182689
-2.9872347	i j	-2.0182689
-2.1731708	i k	-2.0182689
-1.3600808	i l	-2.0182689
-1.4633089	i m	-2.0182689
-0.7015222	i n	-2.0182689
-1.0432628	i o	-2.0182689
-1.4047011	i p	-2.0182689
-2.5520056	i q	-2.0182689
-1.5809882	i r	-2.0182689
-1.1466527	i s	-2.0182689
-1.0714165	i t	-2.0182689
-2.2764464	i u	-2.0182689
-1.4500672	i v	-2.0182689
-2.6787806	i w	-2.0182689
-1.8945382	i x	-2.0182689
-2.858568	i y	-2.0182689
-2.0198804	i z	-2.0182689
-1.2482643	j </s>	-0.939935
-0.7313146	j a	-0.939935
-1.4876374	j b	-0.939935
-1.8729883	j c	-0.939935
-1.2867225	j d	-0.939935
-0.9816898	j e	-0.939935
-1.7403627	j f	-0.939935
-1.8729883	j h	-0.939935
-1.1802672	j i	-0.939935
-2.0648738	j j	-0.939935
-1.8729883	j k	-0.939935
-1.8729883	j l	-0.939935
-1.7403627	j m	-0.939935
-1.7403627	j n	-0.939935
-1.1802672	j o	-0.939935
-1.4876374	j p	-0.939935
-1.4280517	j q	-0.939935
-1.638905	j r	-0.939935
-0.9816898	j s	-0.939935
-1.8729883	j t	-0.939935
-1.3289202	j u	-0.939935
-1.7403627	j v	-0.939935
-1.8729883	j w	-0.939935
-2.0648738	j y	-0.939935
-2.3881802	k +	-1.2632414
-0.5137628	k </s>	-1.2632414
-1.2153179	k a	-1.2632414
-1.8109438	k b	-1.2632414
-2.3881802	k c	-1.2632414
-1.9622114	k d	-1.2632414
-0.7580915	k e	-1.2632414
-1.8800247	k f	-1.2632414
-1.9622114	k g	-1.2632414
-0.8968185	k i	-1.2632414
-2.0636691	k k	-1.2632414
-1.7513581	k l	-1.2632414
-1.8800247	k m	-1.2632414
-2.0636691	k n	-1.2632414
-1.5362427	k o	-1.2632414
-1.7513581	k p	-1.2632414
-2.0636691	k r	-1.2632414
-1.1994079	k s	-1.2632414
-1.6522266	k t	-1.2632414
-1.5715707	k u	-1.2632414
-1.8109438	k v	-1.2632414
-2.0636691	k w	-1.2632414
-2.3881802	k x	-1.2632414
-1.7513581	k y	-1.2632414
-2.5039399	l +	-1.7761981
-0.6560462	l </s>	-1.7761981
-0.9793392	l a	-1.7761981
-2.3544255	l b	-1.7761981
-1.8930465	l c	-1.7761981
-1.6245376	l d	-1.7761981
-0.7814637	l e	-1.7761981
-2.5039399	l f	-1.7761981
-2.1168427	l g	-1.7761981
-2.9201047	l h	-1.7761981
-0.8992109	l i	-1.7761981
-2.9201047	l j	-1.7761981
-2.0189579	l k	-1.7761981
-1.2049971	l l	-1.7761981
-1.9906858	l m	-1.7761981
-2.6038347	l n	-1.7761981
-1.0392911	l o	-1.7761981
-1.8930465	l p	-1.7761981
-2.6038347	l r	-1.7761981
-1.5490368	l s	-1.7761981
-1.4762831	l t	-1.7761981
-1.4518629	l u	-1.7761981
-2.1168427	l v	-1.7761981
-2.7337943	l w	-1.7761981
-2.6038347	l x	-1.7761981
-1.6364804	l y	-1.7761981
-0.7735057	m </s>	-1.7519061
-0.796058	m a	-1.7519061
-1.6281754	m b	-1.7519061
-1.5610558	m c	-1.7519061
-1.9553831	m d	-1.7519061
-0.8198459	m e	-1.7519061
-2.1876346	m f	-1.7519061
-2.0726801	m g	-1.7519061
-2.7208718	m h	-1.7519061
-1.0798082	m i	-1.7519061
-2.9045162	m j	-1.7519061
-2.4930738	m k	-1.7519061
-1.6660739	m l	-1.7519061
-1.4681025	m m	-1.7519061
-2.2338798	m n	-1.7519061
-1.0972661	m o	-1.7519061
-1.1750957	m p	-1.7519061
-2.1876346	m q	-1.7519061
-2.1458433	m r	-1.7519061
-1.2647153	m s	-1.7519061
-1.8428257	m t	-1.7519061
-1.512097	m u	-1.7519061
-2.040255	m v	-1.7519061
-2.1876346	m w	-1.7519061
-2.4930738	m x	-1.7519061
-1.9818727	m y	-1.7519061
-2.9045162	m z	-1.7519061
-0.7665066	n </s>	-1.9008727
-1.2022245	n a	-1.9008727
-2.2948099	n b	-1.9008727
-1.2719164	n c	-1.9008727
-1.2152968	n d	-1.9008727
-1.0424246	n e	-1.9008727
-1.8713386	n f	-1.9008727
-0.8495057	n g	-1.9008727
-2.6420403	n h	-1.9008727
-1.2054558	n i	-1.9008727
-2.4933873	n j	-1.9008727
-1.76521	n k	-1.9008727
-2.2216467	n l	-1.9008727
-2.2216467	n m	-1.9008727
-1.777142	n n	-1.9008727
-1.4940172	n o	-1.9008727
-2.0120901	n p	-1.9008727
-2.8698384	n q	-1.9008727
-2.5613844	n r	-1.9008727
-1.1833254	n s	-1.9008727
-0.8899135	n t	-1.9008727
-1.8020367	n u	-1.9008727
-1.8565652	n v	-1.9008727
-2.5613844	n w	-1.9008727
-2.3828464	n x	-1.9008727
-2.1308393	n y	-1.9008727
-2.7411718	n z	-1.9008727
-3.0931801	o +	-1.9323288
-1.1124716	o </s>	-1.9323288
-1.6988492	o a	-1.9323288
-1.6988492	o b	-1.9323288
-1.3754522	o c	-1.9323288
-1.5348026	o d	-1.9323288
-2.1258258	o e	-1.9323288
-1.7080054	o f	-1.9323288
-1.5048118	o g	-1.9323288
-2.4284733	o h	-1.9323288
-1.7569274	o i	-1.9323288
-2.4284733	o j	-1.9323288
-2.1022597	o k	-1.9323288
-1.3078502	o l	-1.9323288
-1.1893419	o m	-1.9323288
-0.747097	o n	-1.9323288
-1.4660262	o o	-1.9323288
-1.2657662	o p	-1.9323288
-2.9121254	o q	-1.9323288
-0.8532337	o r	-1.9323288
-1.2007017	o s	-1.9323288
-1.3797764	o t	-1.9323288
-1.3841442	o u	-1.9323288
-1.9827065	o v	-1.9323288
-1.6241202	o w	-1.9323288
-2.0190196	o x	-1.9323288
-2.302725	o y	-1.9323288
-2.9121254	o z	-1.9323288
-2.6165698	p +	-1.7762706
-0.7292122	p </s>	-1.7762706
-1.0232269	p a	-1.7762706
-2.1702079	p b	-1.7762706
-1.5272989	p c	-1.7762706
-1.9087813	p d	-1.7762706
-0.9983875	p e	-1.7762706
-2.2582444	p f	-1.7762706
-1.9547813	p g	-1.7762706
-1.3050876	p h	-1.7762706
-1.3449068	p i	-1.7762706
-2.9288808	p j	-1.7762706
-2.3687853	p k	-1.7762706
-1.195219	p l	-1.7762706
-1.5751771	p m	-1.7762706
-2.3100073	p n	-1.7762706
-1.1435509	p o	-1.7762706
-1.3509055	p p	-1.7762706
-2.3687853	p q	-1.7762706
-1.0289451	p r	-1.7762706
-1.4089837	p s	-1.7762706
-1.3757646	p t	-1.7762706
-1.5959111	p u	-1.7762706
-2.1702079	p v	-1.7762706
-2.5174383	p w	-1.7762706
-2.4367824	p x	-1.7762706
-1.7176759	p y	-1.7762706
-0.9146279	q </s>	-0.94939
-1.3125679	q a	-0.94939
-1.6861486	q b	-0.94939
-1.2651433	q c	-0.94939
-2.0285713	q d	-0.94939
-1.3658134	q e	-0.94939
-1.8244513	q f	-0.94939
-2.0285713	q g	-0.94939
-2.0285713	q h	-0.94939
-1.5814132	q i	-0.94939
-0.9566892	q l	-0.94939
-1.4265113	q m	-0.94939
-2.0285713	q n	-0.94939
-1.5814132	q o	-0.94939
-1.5814132	q p	-0.94939
-2.0285713	q q	-0.94939
-1.6861486	q s	-0.94939
-1.5814132	q t	-0.94939
-0.4820286	q u	-0.94939
-2.0285713	q z	-0.94939
-0.7934648	r </s>	-1.9581226
-0.8932808	r a	-1.9581226
-2.1460667	r b	-1.9581226
-1.4988075	r c	-1.9581226
-1.5414395	r d	-1.9581226
-0.7832953	r e	-1.9581226
-2.1460667	r f	-1.9581226
-2.0974008	r g	-1.9581226
-2.3789255	r h	-1.9581226
-1.0211709	r i	-1.9581226
-3.1020292	r j	-1.9581226
-1.5887165	r k	-1.9581226
-2.1460667	r l	-1.9581226
-1.5414395	r m	-1.9581226
-1.7948389	r n	-1.9581226
-1.0211709	r o	-1.9581226
-1.6417759	r p	-1.9581226
-2.6858644	r q	-1.9581226
-2.0333134	r r	-1.9581226
-1.5478863	r s	-1.9581226
-1.312902	r t	-1.9581226
-1.5959109	r u	-1.9581226
-1.7512276	r v	-1.9581226
-2.4253356	r w	-1.9581226
-2.7857593	r x	-1.9581226
-1.528826	r y	-1.9581226
-2.6426154	s +	-1.9821036
-0.5332829	s </s>	-1.9821036
-1.4226847	s a	-1.9821036
-2.3760409	s b	-1.9821036
-1.3456529	s c	-1.9821036
-1.7612211	s d	-1.9821036
-1.0557231	s e	-1.9821036
-2.1370056	s f	-1.9821036
-2.3028777	s g	-1.9821036
-1.4182711	s h	-1.9821036
-1.1632915	s i	-1.9821036
-1.8348282	s k	-1.9821036
-2.0730233	s l	-1.9821036
-1.7422946	s m	-1.9821036
-2.2402811	s n	-1.9821036
-1.3100058	s o	-1.9821036
-1.3724697	s p	-1.9821036
-2.0172681	s q	-1.9821036
-2.2704526	s r	-1.9821036
-1.1910111	s s	-1.9821036
-0.9278879	s t	-1.9821036
-1.5389856	s u	-1.9821036
-2.4178322	s v	-1.9821036
-2.1370056	s w	-1.9821036
-2.6426154	s x	-1.9821036
-1.8832677	s y	-1.9821036
-2.9510694	s z	-1.9821036
-2.9379849	t +	-1.9581883
-0.7580286	t </s>	-1.9581883
-1.0730426	t a	-1.9581883
-2.3665938	t b	-1.9581883
-1.6983443	t c	-1.9581883
-2.2030397	t d	-1.9581883
-0.8455195	t e	-1.9581883
-2.1766039	t f	-1.9581883
-2.4082514	t g	-1.9581883
-1.4918857	t h	-1.9581883
-0.782166	t i	-1.9581883
-2.5644043	t j	-1.9581883
-2.2936359	t k	-1.9581883
-1.8877107	t l	-1.9581883
-1.7725518	t m	-1.9581883
-2.1516853	t n	-1.9581883
-1.0895159	t o	-1.9581883
-1.7069558	t p	-1.9581883
-2.8105856	t q	-1.9581883
-1.122196	t r	-1.9581883
-1.405636	t s	-1.9581883
-1.7247087	t t	-1.9581883
-1.5136231	t u	-1.9581883
-2.2030397	t v	-1.9581883
-2.008566	t w	-1.9581883
-2.7122059	t x	-1.9581883
-1.5669171	t y	-1.9581883
-2.9379849	t z	-1.9581883
-1.2137993	u </s>	-1.5598623
-1.2931255	u a	-1.5598623
-1.4125869	u b	-1.5598623
-1.2845083	u c	-1.5598623
-1.4012765	u d	-1.5598623
-1.3200532	u e	-1.5598623
-2.093599	u f	-1.5598623
-1.738373	u g	-1.5598623
-2.5288281	u h	-1.5598623
-1.1658	u i	-1.5598623
-2.7124725	u j	-1.5598623
-2.30103	u k	-1.5598623
-1.1593563	u l	-1.5598623
-1.2066088	u m	-1.5598623
-1.0279106	u n	-1.5598623
-2.4001615	u o	-1.5598623
-1.3902532	u p	-1.5598623
-2.7124725	u q	-1.5598623
-0.9582046	u r	-1.5598623
-1.0522063	u s	-1.5598623
-1.0094075	u t	-1.5598623
-2.5288281	u u	-1.5598623
-2.30103	u v	-1.5598623
-2.5288281	u w	-1.5598623
-1.8482113	u x	-1.5598623
-2.4001615	u y	-1.5598623
-2.30103	u z	-1.5598623
-2.2989814	v +	-1.3533391
-0.9600564	v </s>	-1.3533391
-0.8830266	v a	-1.3533391
-1.9166465	v b	-1.3533391
-1.525109	v c	-1.3533391
-1.9166465	v d	-1.3533391
-0.5422111	v e	-1.3533391
-2.1677025	v f	-1.3533391
-2.2989814	v g	-1.3533391
-2.2989814	v h	-1.3533391
-0.7266566	v i	-1.3533391
-2.0670324	v l	-1.3533391
-1.525109	v m	-1.3533391
-2.1677025	v n	-1.3533391
-1.2765773	v o	-1.3533391
-1.6429396	v p	-1.3533391
-1.7585783	v r	-1.3533391
-1.6429396	v s	-1.3533391
-1.9853623	v t	-1.3533391
-2.0670324	v u	-1.3533391
-2.2989814	v v	-1.3533391
-2.2989814	v w	-1.3533391
-2.4880377	v x	-1.3533391
-2.2989814	v y	-1.3533391
-2.4880377	v z	-1.3533391
-0.8271377	w </s>	-1.2767614
-0.7886605	w a	-1.2767614
-2.1965324	w b	-1.2767614
-1.6956548	w c	-1.2767614
-2.0625321	w d	-1.2767614
-0.7590111	w e	-1.2767614
-2.0625321	w f	-1.2767614
-2.3913346	w g	-1.2767614
-1.8081145	w h	-1.2767614
-0.8271377	w i	-1.2767614
-2.1965324	w k	-1.2767614
-1.8081145	w l	-1.2767614
-1.8775644	w m	-1.2767614
-1.7482546	w n	-1.2767614
-0.9593643	w o	-1.2767614
-1.6956548	w p	-1.2767614
-1.6956548	w r	-1.2767614
-1.3651021	w s	-1.2767614
-1.8775644	w t	-1.2767614
-2.3913346	w u	-1.2767614
-2.3913346	w v	-1.2767614
-2.0625321	w w	-1.2767614
-1.8775644	w x	-1.2767614
-2.2710668	x +	-1.146128
-0.3870901	x </s>	-1.146128
-1.4544573	x a	-1.146128
-1.9465557	x b	-1.146128
-1.3276822	x c	-1.146128
-1.845098	x d	-1.146128
-1.30103	x e	-1.146128
-1.9465557	x f	-1.146128
-2.2710668	x g	-1.146128
-2.2710668	x h	-1.146128
-1.30103	x i	-1.146128
-1.845098	x l	-1.146128
-1.6342447	x m	-1.146128
-2.0791812	x n	-1.146128
-1.9465557	x o	-1.146128
-1.1318876	x p	-1.146128
-2.2710668	x q	-1.146128
-2.2710668	x r	-1.146128
-1.5351132	x s	-1.146128
-1.1318876	x t	-1.146128
-1.845098	x u	-1.146128
-1.845098	x w	-1.146128
-1.30103	x x	-1.146128
-1.7629113	x y	-1.146128
-2.4279032	y +	-1.2839967
-0.3208145	y </s>	-1.2839967
-1.4719407	y a	-1.2839967
-1.4984843	y b	-1.2839967
-1.7047995	y c	-1.2839967
-2.1116333	y d	-1.2839967
-1.4984843	y e	-1.2839967
-2.4279032	y f	-1.2839967
-2.2415928	y g	-1.2839967
-2.1116333	y h	-1.2839967
-1.9305786	y i	-1.2839967
-2.4279032	y j	-1.2839967
-2.4279032	y k	-1.2839967
-1.7047995	y l	-1.2839967
-1.5569979	y m	-1.2839967
-1.3795169	y n	-1.2839967
-1.4984843	y o	-1.2839967
-1.2094803	y p	-1.2839967
-2.2415928	y q	-1.2839967
-2.0117384	y r	-1.2839967
-1.1691976	y s	-1.2839967
-1.3795169	y t	-1.2839967
-1.8031793	y u	-1.2839967
-1.8031793	y w	-1.2839967
-2.4279032	y y	-1.2839967
-2.1116333	y z	-1.2839967
-0.9715115	z </s>	-0.8166095
-0.8263693	z a	-0.8166095
-1.5155795	z b	-0.8166095
-1.867762	z d	-0.8166095
-0.663642	z e	-0.8166095
-1.6569087	z f	-0.8166095
-1.0465761	z h	-0.8166095
-1.0896108	z i	-0.8166095
-1.6569087	z k	-0.8166095
-1.867762	z l	-0.8166095
-1.1910684	z o	-0.8166095
-1.867762	z s	-0.8166095
-1.6569087	z t	-0.8166095
-1.5155795	z u	-0.8166095
-1.867762	z v	-0.8166095
-1.867762	z x	-0.8166095
-1.6569087	z y	-0.8166095
-1.867762	z z	-0.8166095

\3-grams:
-0.489455	# # #	-0.39794
-0.2806687	# # </s>	-0.39794
-1.71e-05	# </s> <s>	-0.60206
-0.1517742	# x </s>	-0.30103
-0.1861717	+ + </s>	-0.544068
-0.8137916	+ + t	-0.544068
-3.6e-06	+ </s> <s>	-1.2787536
-0.7767304	+ a j	-0.4771213
-0.2851749	+ a p	-0.4771213
-0.8480497	+ c </s>	-0.6532125
-0.1695067	+ c s	-0.6532125
-0.1508834	+ d i	-0.4771213
-0.2209602	+ e </s>	-0.30103
-0.2463326	+ h </s>	-0.30103
-0.4373779	+ j a	-0.3679768
-0.7990082	+ j q	-0.3679768
-0.7268602	+ j s	-0.3679768
-0.1738331	+ m y	-0.4771213
-0.3852309	+ p c	-0.39794
-0.6579446	+ p h	-0.39794
-0.4930091	+ t e	-0.30103
-0.5365746	+ t o	-0.30103
-0.2723509	+ u i	-0.30103
-0.2312967	+ w e	-0.30103
-0.2739224	+ z o	-0.30103
-2.37e-05	</s> <s> <s>	-3.7873896
-0.2806687	<s> # #	-0.39794
-0.6126102	<s> # x	-0.39794
-1.0055184	<s> + +	-0.3590219
-1.0356999	<s> + a	-0.3590219
-0.7582171	<s> + c	-0.3590219
-1.0356999	<s> + j	-0.3590219
-0.8297976	<s> + p	-0.3590219
-1.1413292	<s> + u	-0.3590219
-1.1413292	<s> + w	-0.3590219
-3.6114213	<s> <s> #	-2.6270479
-3.1344467	<s> <s> +	-2.6270479
-0.3006905	<s> <s> <s>	-2.6270479
-1.441378	<s> <s> a	-2.6270479
-1.7195438	<s> <s> b	-2.6270479
-1.3290935	<s> <s> c	-2.6270479
-1.5822554	<s> <s> d	-2.6270479
-1.6557908	<s> <s> e	-2.6270479
-1.7665401	<s> <s> f	-2.6270479
-1.8100054	<s> <s> g	-2.6270479
-1.8507126	<s> <s> h	-2.6270479
-1.5702466	<s> <s> i	-2.6270479
-2.0059717	<s> <s> j	-2.6270479
-2.2022632	<s> <s> k	-2.6270479
-1.8100054	<s> <s> l	-2.6270479
-1.4394262	<s> <s> m	-2.6270479
-1.8507126	<s> <s> n	-2.6270479
-1.7791291	<s> <s> o	-2.6270479
-1.460372	<s> <s> p	-2.6270479
-2.3727465	<s> <s> q	-2.6270479
-1.7158477	<s> <s> r	-2.6270479
-1.2942734	<s> <s> s	-2.6270479
-1.5768771	<s> <s> t	-2.6270479
-2.1156276	<s> <s> u	-2.6270479
-1.9488786	<s> <s> v	-2.6270479
-1.8928586	<s> <s> w	-2.6270479
-2.4166506	<s> <s> x	-2.6270479
-2.6415809	<s> <s> y	-2.6270479
-2.5702286	<s> <s> z	-2.6270479
-2.6607223	<s> a +	-1.2732328
-1.8817895	<s> a a	-1.2732328
-1.503457	<s> a b	-1.2732328
-0.9573208	<s> a c	-1.2732328
-1.0172003	<s> a d	-1.2732328
-1.8159261	<s> a e	-1.2732328
-1.7539227	<s> a f	-1.2732328
-1.566341	<s> a g	-1.2732328
-1.5071488	<s> a i	-1.2732328
-2.6537384	<s> a j	-1.2732328
-2.5894588	<s> a k	-1.2732328
-1.2497223	<s> a l	-1.2732328
-1.307803	<s> a m	-1.2732328
-1.1197442	<s> a n	-1.2732328
-1.8199707	<s> a o	-1.2732328
-1.054232	<s> a p	-1.2732328
-2.6502881	<s> a q	-1.2732328
-1.0151605	<s> a r	-1.2732328
-1.1694106	<s> a s	-1.2732328
-1.3711151	<s> a t	-1.2732328
-1.1749607	<s> a u	-1.2732328
-1.4265484	<s> a v	-1.2732328
-1.7035432	<s> a w	-1.2732328
-1.7047103	<s> a x	-1.2732328
-2.1834446	<s> a z	-1.2732328
-2.3621311	<s> b +	-1.0658173
-0.8672313	<s> b a	-1.0658173
-1.6713132	<s> b b	-1.0658173
-1.7509145	<s> b c	-1.0658173
-1.6021131	<s> b d	-1.0658173
-0.9452988	<s> b e	-1.0658173
-2.0128474	<s> b g	-1.0658173
-0.8017548	<s> b i	-1.0658173
-2.3194333	<s> b j	-1.0658173
-1.1339314	<s> b l	-1.0658173
-1.6805543	<s> b m	-1.0658173
-0.8869892	<s> b o	-1.0658173
-1.4351483	<s> b p	-1.0658173
-2.0835439	<s> b q	-1.0658173
-1.1748064	<s> b r	-1.0658173
-1.4927285	<s> b s	-1.0658173
-1.6080004	<s> b t	-1.0658173
-1.1216264	<s> b u	-1.0658173
-2.3510567	<s> b v	-1.0658173
-2.3510567	<s> b w	-1.0658173
-2.3402577	<s> b x	-1.0658173
-1.7705726	<s> b y	-1.0658173
-2.7690079	<s> c #	-1.3482327
-2.1626408	<s> c +	-1.3482327
-0.8409746	<s> c a	-1.3482327
-1.769766	<s> c b	-1.3482327
-1.3844151	<s> c c	-1.3482327
-1.5922198	<s> c d	-1.3482327
-1.4710729	<s> c e	-1.3482327
-1.815046	<s> c f	-1.3482327
-2.0675919	<s> c g	-1.3482327
-1.2887239	<s> c h	-1.3482327
-1.1949381	<s> c i	-1.3482327
-2.7583192	<s> c j	-1.3482327
-2.5054386	<s> c k	-1.3482327
-1.3195756	<s> c l	-1.3482327
-1.4456735	<s> c m	-1.3482327
-1.815648	<s> c n	-1.3482327
-0.5279655	<s> c o	-1.3482327
-1.4641353	<s> c p	-1.3482327
-2.0719176	<s> c q	-1.3482327
-1.3121427	<s> c r	-1.3482327
-1.5431236	<s> c s	-1.3482327
-1.6583511	<s> c t	-1.3482327
-1.6440511	<s> c u	-1.3482327
-2.1639822	<s> c v	-1.3482327
-2.7583192	<s> c w	-1.3482327
-2.4705102	<s> c x	-1.3482327
-2.1586413	<s> c y	-1.3482327
-1.0638523	<s> d a	-1.1411361
-1.5517761	<s> d b	-1.1411361
-1.4754885	<s> d c	-1.1411361
-1.5187014	<s> d d	-1.1411361
-0.6830791	<s> d e	-1.1411361
-1.6196469	<s> d f	-1.1411361
-2.4228959	<s> d g	-1.1411361
-1.8238274	<s> d h	-1.1411361
-0.8148982	<s> d i	-1.1411361
-2.0484826	<s> d j	-1.1411361
-2.4425684	<s> d k	-1.1411361
-2.0071933	<s> d l	-1.1411361
-1.4654737	<s> d m	-1.1411361
-1.9147669	<s> d n	-1.1411361
-1.071492	<s> d o	-1.1411361
-1.8018012	<s> d p	-1.1411361
-2.0511983	<s> d q	-1.1411361
-1.140781	<s> d r	-1.1411361
-1.4953591	<s> d s	-1.1411361
-1.5243333	<s> d t	-1.1411361
-1.5913422	<s> d u	-1.1411361
-1.7432765	<s> d v	-1.1411361
-1.9049302	<s> d w	-1.1411361
-2.0351531	<s> d x	-1.1411361
-1.6186395	<s> d y	-1.1411361
-2.4640565	<s> e +	-1.0896108
-1.3920774	<s> e a	-1.0896108
-1.7340686	<s> e b	-1.0896108
-1.1018395	<s> e c	-1.0896108
-1.106236	<s> e d	-1.0896108
-2.0663931	<s> e e	-1.0896108
-1.9637349	<s> e f	-1.0896108
-2.1060974	<s> e g	-1.0896108
-1.9799477	<s> e h	-1.0896108
-1.7567149	<s> e i	-1.0896108
-2.4381809	<s> e j	-1.0896108
-1.9809206	<s> e k	-1.0896108
-1.1042909	<s> e l	-1.0896108
-1.1283191	<s> e m	-1.0896108
-0.910147	<s> e n	-1.0896108
-1.8352844	<s> e o	-1.0896108
-1.3085368	<s> e p	-1.0896108
-1.9770423	<s> e q	-1.0896108
-1.3627997	<s> e r	-1.0896108
-1.0905374	<s> e s	-1.0896108
-1.2871234	<s> e t	-1.0896108
-2.142675	<s> e u	-1.0896108
-1.6083399	<s> e v	-1.0896108
-0.8720409	<s> e x	-1.0896108
-1.0305968	<s> f a	-1.1026623
-1.7063009	<s> f c	-1.1026623
-2.0199665	<s> f d	-1.1026623
-1.2050851	<s> f e	-1.1026623
-1.87582	<s> f f	-1.1026623
-0.6737126	<s> f i	-1.1026623
-1.0561521	<s> f l	-1.1026623
-1.7213855	<s> f m	-1.1026623
-0.6998845	<s> f o	-1.1026623
-1.6261981	<s> f p	-1.1026623
-2.3346404	<s> f q	-1.1026623
-0.9064617	<s> f r	-1.1026623
-1.9575202	<s> f s	-1.1026623
-1.871461	<s> f t	-1.1026623
-1.1085118	<s> f u	-1.1026623
-2.03868	<s> f w	-1.1026623
-2.2983946	<s> f x	-1.1026623
-2.3222193	<s> f y	-1.1026623
-0.97601	<s> g a	-0.9666518
-1.5287534	<s> g b	-0.9666518
-1.4620083	<s> g c	-0.9666518
-1.6096097	<s> g d	-0.9666518
-0.7585291	<s> g e	-0.9666518
-1.8283744	<s> g f	-0.9666518
-2.1975887	<s> g g	-0.9666518
-1.9154482	<s> g h	-0.9666518
-1.3889202	<s> g i	-0.9666518
-2.2999048	<s> g j	-0.9666518
-1.3045444	<s> g l	-0.9666518
-1.345591	<s> g m	-0.9666518
-1.5019164	<s> g n	-0.9666518
-1.0058855	<s> g o	-0.9666518
-1.4066192	<s> g p	-0.9666518
-0.9152827	<s> g r	-0.9666518
-1.4620083	<s> g s	-0.9666518
-1.6135509	<s> g t	-0.9666518
-1.3445243	<s> g u	-0.9666518
-2.0079423	<s> g w	-0.9666518
-2.3096272	<s> g x	-0.9666518
-2.2130536	<s> g y	-0.9666518
-2.2810894	<s> g z	-0.9666518
-0.7451813	<s> h a	-0.914255
-1.657925	<s> h b	-0.914255
-1.4794059	<s> h c	-0.914255
-1.493026	<s> h d	-0.914255
-1.0567085	<s> h e	-0.914255
-1.9595171	<s> h f	-0.914255
-2.2549577	<s> h g	-0.914255
-0.9463851	<s> h i	-0.914255
-2.2684952	<s> h j	-0.914255
-1.9732328	<s> h k	-0.914255
-1.9528184	<s> h l	-0.914255
-1.7675914	<s> h m	-0.914255
-2.1187807	<s> h n	-0.914255
-0.9450771	<s> h o	-0.914255
-1.5515673	<s> h p	-0.914255
-2.2549577	<s> h q	-0.914255
-1.1524415	<s> h r	-0.914255
-1.5649657	<s> h s	-0.914255
-1.1781897	<s> h t	-0.914255
-1.3152725	<s> h u	-0.914255
-2.2684952	<s> h v	-0.914255
-2.2684952	<s> h w	-0.914255
-1.1860794	<s> h y	-0.914255
-1.9528184	<s> h z	-0.914255
-1.652495	<s> i a	-1.20412
-1.6256289	<s> i b	-1.20412
-1.1632464	<s> i c	-1.20412
-1.1883847	<s> i d	-1.20412
-1.7228545	<s> i e	-1.20412
-1.7437155	<s> i f	-1.20412
-1.5189701	<s> i g	-1.20412
-2.5335078	<s> i h	-1.20412
-1.9287399	<s> i i	-1.20412
-2.4867308	<s> i k	-1.20412
-1.771285	<s> i l	-1.20412
-1.1031696	<s> i m	-1.20412
-0.5116167	<s> i n	-1.20412
-1.4006813	<s> i o	-1.20412
-1.0297904	<s> i p	-1.20412
-2.0605774	<s> i q	-1.20412
-1.5652976	<s> i r	-1.20412
-1.1388199	<s> i s	-1.20412
-1.227095	<s> i t	-1.20412
-1.8670722	<s> i v	-1.20412
-2.2356171	<s> i w	-1.20412
-2.1885185	<s> i x	-1.20412
-0.6109588	<s> j a	-0.7966347
-1.5845252	<s> j b	-0.7966347
-1.7951015	<s> j c	-0.7966347
-1.1951171	<s> j d	-0.7966347
-1.1413691	<s> j e	-0.7966347
-1.6245673	<s> j f	-0.7966347
-1.7951015	<s> j h	-0.7966347
-1.282222	<s> j i	-0.7966347
-2.0798745	<s> j j	-0.7966347
-2.0417103	<s> j k	-0.7966347
-1.7951015	<s> j l	-0.7966347
-1.6245673	<s> j m	-0.7966347
-1.6245673	<s> j n	-0.7966347
-1.1364021	<s> j o	-0.7966347
-1.5845252	<s> j p	-0.7966347
-1.3221414	<s> j q	-0.7966347
-1.502434	<s> j r	-0.7966347
-1.0649743	<s> j s	-0.7966347
-1.7951015	<s> j t	-0.7966347
-1.2003499	<s> j u	-0.7966347
-1.6245673	<s> j v	-0.7966347
-1.7951015	<s> j w	-0.7966347
-2.0798745	<s> j y	-0.7966347
-0.8997652	<s> k a	-0.6857417
-1.8698019	<s> k b	-0.6857417
-1.9526175	<s> k c	-0.6857417
-1.4791612	<s> k d	-0.6857417
-0.7439594	<s> k e	-0.6857417
-1.8851496	<s> k f	-0.6857417
-1.9010596	<s> k g	-0.6857417
-0.8552697	<s> k i	-0.6857417
-1.9175747	<s> k k	-0.6857417
-1.6319651	<s> k m	-0.6857417
-1.485339	<s> k n	-0.6857417
-0.9622114	<s> k o	-0.6857417
-1.6148647	<s> k p	-0.6857417
-1.9175747	<s> k r	-0.6857417
-1.6319651	<s> k s	-0.6857417
-1.5984121	<s> k t	-0.6857417
-1.3300639	<s> k u	-0.6857417
-1.2617516	<s> k v	-0.6857417
-1.9175747	<s> k w	-0.6857417
-1.6148647	<s> k y	-0.6857417
-0.7655461	<s> l a	-1.0020632
-2.0035438	<s> l b	-1.0020632
-1.6025838	<s> l c	-1.0020632
-1.5840367	<s> l d	-1.0020632
-0.8127546	<s> l e	-1.0020632
-2.2596509	<s> l g	-1.0020632
-2.3134563	<s> l h	-1.0020632
-0.6372125	<s> l i	-1.0020632
-2.3134563	<s> l j	-1.0020632
-1.8044739	<s> l l	-1.0020632
-1.8171619	<s> l m	-1.0020632
-2.0120446	<s> l n	-1.0020632
-0.7812287	<s> l o	-1.0020632
-2.2209436	<s> l p	-1.0020632
-2.3021487	<s> l r	-1.0020632
-1.6621695	<s> l s	-1.0020632
-1.49812	<s> l t	-1.0020632
-1.3826757	<s> l u	-1.0020632
-1.8245317	<s> l v	-1.0020632
-2.0120446	<s> l x	-1.0020632
-2.1525569	<s> l y	-1.0020632
-0.6641862	<s> m a	-1.2918866
-1.926634	<s> m b	-1.2918866
-1.4251217	<s> m c	-1.2918866
-1.8108044	<s> m d	-1.2918866
-0.8169796	<s> m e	-1.2918866
-2.1729879	<s> m f	-1.2918866
-2.0485368	<s> m g	-1.2918866
-2.6527159	<s> m h	-1.2918866
-0.931758	<s> m i	-1.2918866
-2.1839542	<s> m k	-1.2918866
-2.1258304	<s> m l	-1.2918866
-1.7790696	<s> m m	-1.2918866
-2.3416708	<s> m n	-1.2918866
-0.7860675	<s> m o	-1.2918866
-1.478871	<s> m p	-1.2918866
-2.0534429	<s> m q	-1.2918866
-1.8164854	<s> m r	-1.2918866
-1.3237023	<s> m s	-1.2918866
-1.6573818	<s> m t	-1.2918866
-1.2449673	<s> m u	-1.2918866
-1.954531	<s> m v	-1.2918866
-2.1729879	<s> m w	-1.2918866
-2.1839542	<s> m x	-1.2918866
-1.8117461	<s> m y	-1.2918866
-0.978107	<s> n a	-1.0045476
-1.7924483	<s> n b	-1.0045476
-1.3282937	<s> n c	-1.0045476
-1.7839814	<s> n d	-1.0045476
-0.6045719	<s> n e	-1.0045476
-1.7706816	<s> n f	-1.0045476
-1.2971174	<s> n g	-1.0045476
-1.9729643	<s> n h	-1.0045476
-1.1019192	<s> n i	-1.0045476
-1.9581853	<s> n l	-1.0045476
-1.574536	<s> n m	-1.0045476
-0.8422479	<s> n o	-1.0045476
-1.4919767	<s> n p	-1.0045476
-1.6553476	<s> n s	-1.0045476
-1.356539	<s> n t	-1.0045476
-1.1594587	<s> n u	-1.0045476
-1.6534478	<s> n v	-1.0045476
-2.2612179	<s> n w	-1.0045476
-1.965512	<s> n x	-1.0045476
-1.618823	<s> o a	-0.994298
-1.3364889	<s> o b	-0.994298
-1.243123	<s> o c	-0.994298
-1.4711561	<s> o d	-0.994298
-1.8546724	<s> o e	-0.994298
-1.2972003	<s> o f	-0.994298
-2.1206717	<s> o g	-0.994298
-2.2091131	<s> o i	-0.994298
-2.0172214	<s> o k	-0.994298
-1.4458241	<s> o l	-0.994298
-1.1660514	<s> o m	-0.994298
-1.0979282	<s> o n	-0.994298
-1.5243797	<s> o o	-0.994298
-0.6379622	<s> o p	-0.994298
-2.343966	<s> o q	-0.994298
-0.8756633	<s> o r	-0.994298
-1.2273404	<s> o s	-0.994298
-1.4037521	<s> o t	-0.994298
-1.5140602	<s> o u	-0.994298
-2.0059052	<s> o v	-0.994298
-1.9500784	<s> o w	-0.994298
-2.2696145	<s> o x	-0.994298
-2.3089255	<s> o y	-0.994298
-0.8054454	<s> p a	-1.2720351
-2.0329252	<s> p b	-1.2720351
-1.4559953	<s> p c	-1.2720351
-1.6839458	<s> p d	-1.2720351
-1.1692452	<s> p e	-1.2720351
-2.0360415	<s> p f	-1.2720351
-2.0221913	<s> p g	-1.2720351
-1.1870295	<s> p h	-1.2720351
-1.3081551	<s> p i	-1.2720351
-2.1605113	<s> p k	-1.2720351
-1.1969284	<s> p l	-1.2720351
-1.7158174	<s> p m	-1.2720351
-2.6039813	<s> p n	-1.2720351
-0.9735051	<s> p o	-1.2720351
-1.570546	<s> p p	-1.2720351
-2.1605113	<s> p q	-1.2720351
-0.6873023	<s> p r	-1.2720351
-1.5404498	<s> p s	-1.2720351
-1.748598	<s> p t	-1.2720351
-1.4319145	<s> p u	-1.2720351
-2.0329252	<s> p v	-1.2720351
-2.621684	<s> p w	-1.2720351
-2.3325602	<s> p x	-1.2720351
-1.5232089	<s> p y	-1.2720351
-1.256669	<s> q a	-0.5898255
-1.7081282	<s> q b	-0.5898255
-1.3712422	<s> q c	-0.5898255
-1.7774547	<s> q d	-0.5898255
-1.4017911	<s> q e	-0.5898255
-1.4891367	<s> q f	-0.5898255
-1.7774547	<s> q g	-0.5898255
-1.7774547	<s> q h	-0.5898255
-1.6772168	<s> q i	-0.5898255
-1.3696064	<s> q l	-0.5898255
-1.0911967	<s> q m	-0.5898255
-1.7774547	<s> q n	-0.5898255
-1.3045296	<s> q o	-0.5898255
-1.4520654	<s> q p	-0.5898255
-1.7774547	<s> q q	-0.5898255
-1.7081282	<s> q s	-0.5898255
-1.4520654	<s> q t	-0.5898255
-0.3989869	<s> q u	-0.5898255
-0.9527747	<s> r a	-1.1277866
-1.849938	<s> r c	-1.1277866
-1.590554	<s> r d	-1.1277866
-0.3766316	<s> r e	-1.1277866
-1.6959377	<s> r f	-1.1277866
-2.3451524	<s> r g	-1.1277866
-1.499161	<s> r h	-1.1277866
-1.1809828	<s> r i	-1.1277866
-2.2334062	<s> r k	-1.1277866
-1.7488962	<s> r m	-1.1277866
-1.7725943	<s> r n	-1.1277866
-0.9782498	<s> r o	-1.1277866
-1.4805329	<s> r p	-1.1277866
-2.3361437	<s> r r	-1.1277866
-1.663179	<s> r s	-1.1277866
-1.3681433	<s> r t	-1.1277866
-1.4780535	<s> r u	-1.1277866
-2.3766072	<s> r w	-1.1277866
-2.3932323	<s> r x	-1.1277866
-1.1588973	<s> s a	-1.413635
-2.3194894	<s> s b	-1.413635
-1.1291777	<s> s c	-1.413635
-1.5701971	<s> s d	-1.413635
-0.9074063	<s> s e	-1.413635
-1.9553077	<s> s f	-1.413635
-2.1962069	<s> s g	-1.413635
-1.2439104	<s> s h	-1.413635
-1.1809792	<s> s i	-1.413635
-1.5245421	<s> s k	-1.413635
-2.0183919	<s> s l	-1.413635
-1.522599	<s> s m	-1.413635
-1.8504499	<s> s n	-1.413635
-1.11066	<s> s o	-1.413635
-1.1208439	<s> s p	-1.413635
-1.6285828	<s> s q	-1.413635
-2.1011092	<s> s r	-1.413635
-1.5418197	<s> s s	-1.413635
-0.8980178	<s> s t	-1.413635
-1.2125363	<s> s u	-1.413635
-1.9605906	<s> s v	-1.413635
-1.7258435	<s> s w	-1.413635
-2.498356	<s> s x	-1.413635
-1.5254085	<s> s y	-1.413635
-2.7995897	<s> s z	-1.413635
-2.5324738	<s> t +	-1.1303338
-1.065336	<s> t a	-1.1303338
-2.0522977	<s> t b	-1.1303338
-1.5232604	<s> t c	-1.1303338
-1.832413	<s> t d	-1.1303338
-0.6777767	<s> t e	-1.1303338
-1.9248453	<s> t f	-1.1303338
-2.2227654	<s> t g	-1.1303338
-1.1680428	<s> t h	-1.1303338
-1.1780731	<s> t i	-1.1303338
-2.5155633	<s> t j	-1.1303338
-2.0494532	<s> t k	-1.1303338
-2.1767013	<s> t l	-1.1303338
-1.6737951	<s> t m	-1.1303338
-2.2061832	<s> t n	-1.1303338
-0.9208629	<s> t o	-1.1303338
-1.6696368	<s> t p	-1.1303338
-2.2356312	<s> t q	-1.1303338
-0.7974111	<s> t r	-1.1303338
-1.5443643	<s> t s	-1.1303338
-1.8930533	<s> t t	-1.1303338
-1.4735428	<s> t u	-1.1303338
-2.045221	<s> t v	-1.1303338
-1.7490852	<s> t w	-1.1303338
-2.5239362	<s> t x	-1.1303338
-1.6055491	<s> t y	-1.1303338
-1.2774262	<s> u a	-0.7558749
-1.16629	<s> u b	-0.7558749
-1.151715	<s> u c	-0.7558749
-1.4778215	<s> u d	-0.7558749
-1.4595231	<s> u e	-0.7558749
-1.5298803	<s> u g	-0.7558749
-2.0319336	<s> u h	-0.7558749
-1.3273103	<s> u i	-0.7558749
-2.0155122	<s> u k	-0.7558749
-1.4148645	<s> u l	-0.7558749
-1.4292464	<s> u m	-0.7558749
-0.7372678	<s> u n	-0.7558749
-1.1640156	<s> u p	-0.7558749
-1.3407311	<s> u r	-0.7558749
-0.9860004	<s> u s	-0.7558749
-1.0172075	<s> u t	-0.7558749
-2.0319336	<s> u u	-0.7558749
-1.7346856	<s> u v	-0.7558749
-1.7432098	<s> u w	-0.7558749
-1.9484503	<s> u x	-0.7558749
-0.9059979	<s> v a	-0.8976271
-1.571054	<s> v b	-0.8976271
-1.4507075	<s> v c	-0.8976271
-1.6878016	<s> v d	-0.8976271
-0.805279	<s> v e	-0.8976271
-1.7022902	<s> v f	-0.8976271
-2.1570778	<s> v g	-0.8976271
-2.1570778	<s> v h	-0.8976271
-0.5676909	<s> v i	-0.8976271
-2.1299538	<s> v l	-0.8976271
-1.3793154	<s> v m	-0.8976271
-1.0208921	<s> v o	-0.8976271
-1.4618557	<s> v p	-0.8976271
-1.5602977	<s> v r	-0.8976271
-1.3887553	<s> v s	-0.8976271
-1.5746995	<s> v t	-0.8976271
-1.6974068	<s> v u	-0.8976271
-2.1570778	<s> v v	-0.8976271
-2.1570778	<s> v w	-0.8976271
-2.1713027	<s> v x	-0.8976271
-0.7817155	<s> w a	-0.9877655
-1.9178339	<s> w b	-0.9877655
-1.7163424	<s> w c	-0.9877655
-2.180132	<s> w d	-0.9877655
-0.6395129	<s> w e	-0.9877655
-2.180132	<s> w f	-0.9877655
-2.2123965	<s> w g	-0.9877655
-0.6027554	<s> w i	-0.9877655
-1.7271642	<s> w l	-0.9877655
-1.732678	<s> w m	-0.9877655
-1.0131886	<s> w o	-0.9877655
-1.6032769	<s> w p	-0.9877655
-1.6032769	<s> w r	-0.9877655
-1.4120293	<s> w s	-0.9877655
-1.8930575	<s> w t	-0.9877655
-2.2123965	<s> w u	-0.9877655
-1.9094171	<s> w w	-0.9877655
-1.5238211	<s> w x	-0.9877655
-1.1471314	<s> x a	-0.5576409
-1.4697862	<s> x b	-0.5576409
-1.2278557	<s> x c	-0.5576409
-1.4593543	<s> x d	-0.5576409
-1.3505154	<s> x e	-0.5576409
-1.4697862	<s> x f	-0.5576409
-1.772933	<s> x h	-0.5576409
-1.2218487	<s> x i	-0.5576409
-1.7135287	<s> x l	-0.5576409
-1.0790858	<s> x m	-0.5576409
-1.7522155	<s> x n	-0.5576409
-1.0116077	<s> x p	-0.5576409
-1.772933	<s> x q	-0.5576409
-1.772933	<s> x r	-0.5576409
-0.9364069	<s> x s	-0.5576409
-1.4458238	<s> x t	-0.5576409
-1.0420613	<s> x x	-0.5576409
-1.6954053	<s> x y	-0.5576409
-0.9504772	<s> y a	-0.5496719
-1.2201693	<s> y e	-0.5496719
-1.2719447	<s> y h	-0.5496719
-1.2628753	<s> y i	-0.5496719
-1.5735861	<s> y j	-0.5496719
-1.5735861	<s> y k	-0.5496719
-0.6202964	<s> y o	-0.5496719
-1.5645041	<s> y q	-0.5496719
-1.3492526	<s> y s	-0.5496719
-0.9706093	<s> y u	-0.5496719
-1.5735861	<s> y y	-0.5496719
-0.8921214	<s> z a	-0.60206
-1.5177785	<s> z b	-0.60206
-0.5167876	<s> z e	-0.60206
-1.2927448	<s> z f	-0.60206
-0.7990914	<s> z h	-0.60206
-1.1818168	<s> z i	-0.60206
-1.5492007	<s> z k	-0.60206
-1.0742574	<s> z o	-0.60206
-1.5492007	<s> z t	-0.60206
-1.5177785	<s> z u	-0.60206
-1.583075	<s> z x	-0.60206
-0.1192249	a + </s>	-0.4771213
-2e-07	a </s> <s>	-2.5171959
-0.5873096	a a </s>	-0.4771213
-1.4074562	a a a	-0.4771213
-1.219843	a a c	-0.4771213
-1.2888567	a a d	-0.4771213
-1.3478531	a a i	-0.4771213
-1.1617004	a a l	-0.4771213
-1.1445997	a a n	-0.4771213
-0.6808177	a a s	-0.4771213
-1.3510781	a a v	-0.4771213
-0.8937823	a b </s>	-0.8495072
-0.925496	a b a	-0.8495072
-1.1969431	a b b	-0.8495072
-1.4711831	a b c	-0.8495072
-1.8973214	a b d	-0.8495072
-1.2717018	a b e	-0.8495072
-0.8642276	a b i	-0.8495072
-0.6127251	a b l	-0.8495072
-1.2628007	a b o	-0.8495072
-1.2334014	a b s	-0.8495072
-1.5396976	a b u	-0.8495072
-1.9583856	a b v	-0.8495072
-1.9511609	a b x	-0.8495072
-1.6497728	a b y	-0.8495072
-1.1639327	a c </s>	-1.0791812
-1.4556739	a c a	-1.0791812
-1.0442298	a c c	-1.0791812
-0.9007745	a c e	-1.0791812
-2.0250684	a c f	-1.0791812
-2.0342286	a c g	-1.0791812
-1.0935219	a c h	-1.0791812
-1.2785529	a c i	-1.0791812
-0.8444608	a c k	-1.0791812
-1.5388973	a c l	-1.0791812
-1.7141214	a c m	-1.0791812
-1.5476441	a c o	-1.0791812
-2.1889886	a c p	-1.0791812
-2.0416984	a c q	-1.0791812
-1.4579687	a c r	-1.0791812
-1.5892379	a c s	-1.0791812
-0.6627815	a c t	-1.0791812
-2.1916408	a c u	-1.0791812
-2.3067169	a c y	-1.0791812
-1.8625454	a d +	-0.8721563
-0.6353089	a d </s>	-0.8721563
-0.9302631	a d a	-0.8721563
-1.9774403	a d b	-0.8721563
-1.5237132	a d c	-0.8721563
-1.53129	a d d	-0.8721563
-0.8716539	a d e	-0.8721563
-1.0463917	a d i	-0.8721563
-2.0517805	a d l	-0.8721563
-1.1874245	a d m	-0.8721563
-1.1697816	a d o	-0.8721563
-2.0368377	a d p	-0.8721563
-1.9139848	a d r	-0.8721563
-1.2784703	a d s	-0.8721563
-2.0672558	a d t	-0.8721563
-1.6058186	a d u	-0.8721563
-1.3808594	a d v	-0.8721563
-1.8218983	a d w	-0.8721563
-1.8401871	a d x	-0.8721563
-1.8189236	a d y	-0.8721563
-0.5579758	a e </s>	-0.462398
-1.388995	a e b	-0.462398
-1.0548909	a e c	-0.462398
-1.2987128	a e d	-0.462398
-1.3754753	a e e	-0.462398
-1.2860289	a e l	-0.462398
-1.0826804	a e m	-0.462398
-1.409544	a e o	-0.462398
-0.9083901	a e r	-0.462398
-1.0133796	a e s	-0.462398
-0.9191768	a f </s>	-0.5295093
-1.3642328	a f a	-0.5295093
-1.5133378	a f c	-0.5295093
-1.0546286	a f e	-0.5295093
-0.6545693	a f f	-0.5295093
-1.1112792	a f i	-0.5295093
-1.6173671	a f k	-0.5295093
-1.4010904	a f l	-0.5295093
-1.6265046	a f n	-0.5295093
-1.0626983	a f o	-0.5295093
-1.5352283	a f p	-0.5295093
-0.8823229	a f t	-0.5295093
-1.5996495	a f x	-0.5295093
-1.0955461	a g </s>	-0.9164539
-1.4172634	a g a	-0.9164539
-0.2743305	a g e	-0.9164539
-1.2810246	a g g	-0.9164539
-0.9587537	a g i	-0.9164539
-1.8835843	a g l	-0.9164539
-1.6303319	a g m	-0.9164539
-1.4682186	a g n	-0.9164539
-1.5927423	a g o	-0.9164539
-1.2979705	a g r	-0.9164539
-1.9225218	a g s	-0.9164539
-1.9857504	a g v	-0.9164539
-0.7651684	a h m	-0.4771213
-0.2623244	a h o	-0.4771213
-1.0932045	a i </s>	-0.7090703
-1.5170364	a i a	-0.7090703
-1.1853496	a i c	-0.7090703
-1.52002	a i d	-0.7090703
-1.539407	a i e	-0.7090703
-1.8353538	a i f	-0.7090703
-1.5404518	a i g	-0.7090703
-0.9084366	a i l	-0.7090703
-1.5270623	a i m	-0.7090703
-0.5350263	a i n	-0.7090703
-1.5348884	a i o	-0.7090703
-1.0675887	a i r	-0.7090703
-1.2224466	a i s	-0.7090703
-1.5517339	a i t	-0.7090703
-1.9243197	a i w	-0.7090703
-1.5938073	a i x	-0.7090703
-1.8741661	a i z	-0.7090703
-0.4373779	a j a	-0.3679768
-0.76661	a j i	-0.3679768
-0.7268602	a j s	-0.3679768
-0.9143997	a k </s>	-0.763428
-1.0998127	a k a	-0.763428
-0.2617464	a k e	-0.763428
-0.7964334	a k i	-0.763428
-1.444038	a k k	-0.763428
-0.333581	a l </s>	-1.1861084
-1.4044447	a l a	-1.1861084
-2.1673182	a l b	-1.1861084
-1.6908521	a l c	-1.1861084
-2.3184111	a l d	-1.1861084
-1.2488913	a l e	-1.1861084
-2.1727077	a l f	-1.1861084
-1.5255833	a l g	-1.1861084
-1.0975749	a l i	-1.1861084
-1.5737772	a l k	-1.1861084
-0.9923234	a l l	-1.1861084
-1.863441	a l m	-1.1861084
-1.593543	a l o	-1.1861084
-2.1338284	a l p	-1.1861084
-1.5064567	a l s	-1.1861084
-1.6024588	a l t	-1.1861084
-1.7307618	a l u	-1.1861084
-2.4253759	a l v	-1.1861084
-2.1781649	a l w	-1.1861084
-1.5111599	a l y	-1.1861084
-0.6527457	a m </s>	-0.8750613
-1.2123653	a m a	-0.8750613
-1.5257041	a m b	-0.8750613
-1.6259231	a m c	-0.8750613
-1.6680143	a m d	-0.8750613
-0.698562	a m e	-0.8750613
-2.1230758	a m f	-0.8750613
-2.1598802	a m h	-0.8750613
-1.0405051	a m i	-0.8750613
-1.3050162	a m l	-0.8750613
-1.290693	a m m	-0.8750613
-2.1281465	a m n	-0.8750613
-1.2953526	a m o	-0.8750613
-1.1617222	a m p	-0.8750613
-1.3916728	a m s	-0.8750613
-1.6592634	a m t	-0.8750613
-1.9678967	a m u	-0.8750613
-2.1033654	a m v	-0.8750613
-1.8477451	a m w	-0.8750613
-2.0938358	a m y	-0.8750613
-0.7327026	a n </s>	-1.2410744
-0.9858947	a n a	-1.2410744
-2.19836	a n b	-1.2410744
-1.0882091	a n c	-1.2410744
-0.8847734	a n d	-1.2410744
-1.4152325	a n e	-1.2410744
-2.4210064	a n f	-1.2410744
-0.9673194	a n g	-1.2410744
-1.2601421	a n i	-1.2410744
-2.4941105	a n j	-1.2410744
-1.7934069	a n k	-1.2410744
-1.5505331	a n n	-1.2410744
-1.7709296	a n o	-1.2410744
-2.446189	a n p	-1.2410744
-1.0250371	a n s	-1.2410744
-1.0974325	a n t	-1.2410744
-1.795575	a n u	-1.2410744
-2.1648834	a n v	-1.2410744
-1.6660947	a n y	-1.2410744
-0.6909832	a o </s>	-0.4522977
-1.1325829	a o c	-0.4522977
-1.1870834	a o i	-0.4522977
-0.7086082	a o p	-0.4522977
-0.8542438	a o s	-0.4522977
-1.1334519	a o t	-0.4522977
-0.6953183	a p </s>	-0.9519386
-1.2745646	a p a	-0.9519386
-2.2165262	a p b	-0.9519386
-1.8552568	a p c	-0.9519386
-2.1741037	a p d	-0.9519386
-1.1566277	a p e	-0.9519386
-2.2265438	a p f	-0.9519386
-1.9252606	a p g	-0.9519386
-0.8585129	a p h	-0.9519386
-1.1619182	a p i	-0.9519386
-2.2367981	a p k	-0.9519386
-1.5466428	a p l	-0.9519386
-1.7228879	a p m	-0.9519386
-1.6200846	a p o	-0.9519386
-0.6951054	a p p	-0.9519386
-2.2367981	a p q	-0.9519386
-1.4985765	a p r	-0.9519386
-1.440443	a p s	-0.9519386
-1.3255491	a p t	-0.9519386
-1.8706108	a p u	-0.9519386
-2.1273188	a p y	-0.9519386
-0.5585857	a q </s>	-0.3521825
-0.8688704	a q c	-0.3521825
-0.8852094	a q e	-0.3521825
-0.5890631	a q u	-0.3521825
-0.9878927	a r </s>	-1.1303338
-1.1983026	a r a	-1.1303338
-1.9734592	a r b	-1.1303338
-1.0149107	a r c	-1.1303338
-1.0639674	a r d	-1.1303338
-0.8534179	a r e	-1.1303338
-2.4093611	a r f	-1.1303338
-2.4024225	a r g	-1.1303338
-1.1485702	a r i	-1.1303338
-2.4652674	a r j	-1.1303338
-1.1595821	a r k	-1.1303338
-1.8539592	a r l	-1.1303338
-1.590096	a r m	-1.1303338
-1.6697882	a r n	-1.1303338
-1.5975832	a r p	-1.1303338
-1.9891195	a r q	-1.1303338
-2.129593	a r r	-1.1303338
-1.807826	a r s	-1.1303338
-0.8000091	a r t	-1.1303338
-1.9425417	a r v	-1.1303338
-2.4573841	a r x	-1.1303338
-1.3375912	a r y	-1.1303338
-0.7422775	a s </s>	-1.1026623
-2.1325936	a s a	-1.1026623
-1.285607	a s c	-1.1026623
-2.2400255	a s d	-1.1026623
-0.819069	a s e	-1.1026623
-1.2902292	a s h	-1.1026623
-1.121501	a s i	-1.1026623
-1.5611319	a s k	-1.1026623
-1.9913587	a s m	-1.1026623
-1.461321	a s o	-1.1026623
-1.4678779	a s p	-1.1026623
-2.288643	a s q	-1.1026623
-2.3179005	a s r	-1.1026623
-0.765098	a s s	-1.1026623
-0.9088404	a s t	-1.1026623
-1.3792824	a s u	-1.1026623
-1.8479924	a s y	-1.1026623
-2.3492722	a s z	-1.1026623
-1.053591	a t </s>	-1.3652539
-1.1167854	a t a	-1.3652539
-1.7686251	a t c	-1.3652539
-0.7750009	a t e	-1.3652539
-2.245804	a t f	-1.3652539
-1.5475437	a t h	-1.3652539
-0.3828636	a t i	-1.3652539
-1.9453798	a t l	-1.3652539
-1.9389331	a t m	-1.3652539
-2.5229441	a t n	-1.3652539
-1.1175571	a t o	-1.3652539
-2.0489992	a t p	-1.3652539
-1.77645	a t r	-1.3652539
-1.68692	a t s	-1.3652539
-1.5564698	a t t	-1.3652539
-1.6404489	a t u	-1.3652539
-1.2941747	a u </s>	-0.7871061
-0.7702006	a u d	-0.7871061
-1.3585416	a u g	-0.7871061
-1.4986652	a u l	-0.7871061
-1.2508312	a u n	-0.7871061
-1.2306805	a u r	-0.7871061
-1.1208938	a u s	-0.7871061
-0.3520812	a u t	-0.7871061
-1.0365414	a v </s>	-0.9265711
-0.462874	a v a	-0.9265711
-0.5889466	a v e	-0.9265711
-0.7138264	a v i	-0.9265711
-1.8485464	a v l	-0.9265711
-1.8550285	a v n	-0.9265711
-1.7999032	a v p	-0.9265711
-1.5469806	a v r	-0.9265711
-1.7999032	a v s	-0.9265711
-0.4980935	a w </s>	-0.6690068
-0.8127387	a w a	-0.6690068
-1.5906583	a w d	-0.6690068
-0.8775823	a w e	-0.6690068
-0.9857596	a w i	-0.6690068
-1.309964	a w k	-0.6690068
-1.5508599	a w p	-0.6690068
-0.9809554	a w s	-0.6690068
-1.6076583	a w v	-0.6690068
-0.2988382	a x </s>	-0.60206
-1.0768609	a x a	-0.60206
-1.5555277	a x b	-0.60206
-1.544068	a x d	-0.60206
-1.20412	a x i	-0.60206
-1.2771409	a x o	-0.60206
-1.3619864	a x t	-0.60206
-1.2710668	a x u	-0.60206
-1.544068	a x w	-0.60206
-1.532903	a x y	-0.60206
-0.3984135	a y </s>	-0.7160033
-0.7949762	a y a	-0.7160033
-0.9154696	a y e	-0.7160033
-1.2112154	a y l	-0.7160033
-1.3585767	a y m	-0.7160033
-1.1952142	a y o	-0.7160033
-1.5072038	a y p	-0.7160033
-1.6756648	a y r	-0.7160033
-1.491384	a y s	-0.7160033
-1.6525449	a y u	-0.7160033
-0.9336846	a z </s>	-0.3309932
-1.1367108	a z d	-0.3309932
-0.9803323	a z i	-0.3309932
-1.1137962	a z k	-0.3309932
-1.0144695	a z o	-0.3309932
-0.8310001	a z u	-0.3309932
-1.1137962	a z y	-0.3309932
-0.2907986	b + </s>	-0.39794
-0.6438389	b + a	-0.39794
-8e-07	b </s> <s>	-1.9542425
-0.7695648	b a </s>	-0.8912985
-2.0007845	b a a	-0.8912985
-1.3940175	b a b	-0.8912985
-1.0843383	b a c	-0.8912985
-1.6701055	b a i	-0.8912985
-1.4000589	b a l	-0.8912985
-1.8309271	b a m	-0.8912985
-0.9085421	b a n	-0.8912985
-1.2754366	b a p	-0.8912985
-2.0256076	b a q	-0.8912985
-1.3145472	b a r	-0.8912985
-0.6063723	b a s	-0.8912985
-1.0098749	b a t	-0.8912985
-1.6950781	b a y	-0.8912985
-0.7720848	b b </s>	-0.4259687
-1.2931178	b b c	-0.4259687
-1.3145136	b b d	-0.4259687
-0.682479	b b i	-0.4259687
-0.9172857	b b o	-0.4259687
-1.2167369	b b r	-0.4259687
-1.2029498	b b s	-0.4259687
-1.327876	b b t	-0.4259687
-1.189587	b b u	-0.4259687
-0.2719502	b c </s>	-0.60206
-1.1978546	b c e	-0.60206
-1.3281061	b c m	-0.60206
-1.1304955	b c o	-0.60206
-1.0477394	b c p	-0.60206
-1.2747051	b c s	-0.60206
-0.5623155	b d </s>	-0.3881802
-1.1189484	b d a	-0.3881802
-1.2731555	b d d	-0.3881802
-0.969434	b d e	-0.3881802
-0.9797779	b d m	-0.3881802
-1.1705744	b d o	-0.3881802
-1.2757345	b d p	-0.3881802
-1.2915383	b d t	-0.3881802
-1.2245532	b d u	-0.3881802
-0.8489055	b e </s>	-0.7533277
-0.9471373	b e a	-0.7533277
-1.666132	b e c	-0.7533277
-1.7023976	b e d	-0.7533277
-1.4066653	b e e	-0.7533277
-1.6164221	b e h	-0.7533277
-1.6064973	b e i	-0.7533277
-1.2525937	b e l	-0.7533277
-1.1215185	b e n	-0.7533277
-1.8118918	b e p	-0.7533277
-0.525072	b e r	-0.7533277
-1.0146512	b e s	-0.7533277
-1.6817595	b e t	-0.7533277
-1.8619007	b e v	-0.7533277
-1.8816149	b e y	-0.7533277
-0.5547984	b f f	-0.30103
-0.4954505	b f o	-0.30103
-0.1872867	b g </s>	-0.6232493
-1.1989576	b g a	-0.6232493
-1.1857192	b g i	-0.6232493
-1.2719769	b g l	-0.6232493
-1.2902472	b g p	-0.6232493
-0.2463326	b h </s>	-0.30103
-1.1543116	b i </s>	-0.7490489
-1.3337685	b i a	-0.7490489
-1.8990774	b i b	-0.7490489
-1.4272492	b i c	-0.7490489
-1.5990289	b i e	-0.7490489
-1.3476203	b i g	-0.7490489
-1.9547895	b i k	-0.7490489
-0.6280076	b i l	-0.7490489
-1.5861213	b i m	-0.7490489
-1.0708895	b i n	-0.7490489
-0.9778154	b i o	-0.7490489
-1.7716104	b i p	-0.7490489
-1.4636951	b i r	-0.7490489
-1.4878968	b i s	-0.7490489
-0.873118	b i t	-0.7490489
-1.7898576	b i v	-0.7490489
-1.4951895	b i x	-0.7490489
-1.6674723	b i z	-0.7490489
-0.9077791	b j </s>	-0.6532125
-0.161248	b j e	-0.6532125
-0.2491761	b k i	-0.30103
-1.2691928	b l </s>	-0.9420081
-1.2608824	b l a	-0.9420081
-1.7695832	b l d	-0.9420081
-0.239543	b l e	-0.9420081
-0.9415213	b l i	-0.9420081
-1.0868827	b l o	-0.9420081
-1.3288753	b l u	-0.9420081
-1.5056942	b l y	-0.9420081
-0.6404968	b m </s>	-0.3756636
-0.9209187	b m a	-0.3756636
-1.1924638	b m c	-0.3756636
-0.9341101	b m e	-0.3756636
-1.2744463	b m j	-0.3756636
-1.2096074	b m l	-0.3756636
-0.8922751	b m s	-0.3756636
-1.2567649	b m w	-0.3756636
-0.2633273	b n e	-0.30103
-1.9711159	b o +	-0.69897
-1.1670543	b o </s>	-0.69897
-1.2469328	b o a	-0.69897
-1.4487933	b o b	-0.69897
-1.7861152	b o d	-0.69897
-1.6468617	b o e	-0.69897
-1.9479989	b o h	-0.69897
-1.5100863	b o l	-0.69897
-1.4687089	b o m	-0.69897
-1.1714492	b o n	-0.69897
-0.7563166	b o o	-0.69897
-1.6701514	b o p	-0.69897
-0.9925706	b o r	-0.69897
-1.0640748	b o s	-0.69897
-1.1456965	b o t	-0.69897
-1.7261998	b o u	-0.69897
-1.5882962	b o w	-0.69897
-0.9698965	b o x	-0.69897
-1.9384563	b o y	-0.69897
-0.7790985	b p </s>	-0.4191293
-1.0771168	b p a	-0.4191293
-0.9724427	b p c	-0.4191293
-0.8745999	b p e	-0.4191293
-1.1881818	b p i	-0.4191293
-0.8153395	b p m	-0.4191293
-1.1249858	b p o	-0.4191293
-1.1897666	b p p	-0.4191293
-0.3480544	b q </s>	-0.39794
-0.6767749	b q p	-0.39794
-0.4860057	b r a	-0.7596678
-0.9370394	b r e	-0.7596678
-0.8326867	b r i	-0.7596678
-1.6386208	b r l	-0.7596678
-0.6732218	b r o	-0.7596678
-1.631716	b r r	-0.7596678
-1.2845029	b r t	-0.7596678
-1.5825457	b r u	-0.7596678
-0.4203269	b s </s>	-0.6532125
-1.5700039	b s a	-0.6532125
-1.1832172	b s c	-0.6532125
-1.1083231	b s d	-0.6532125
-1.1243494	b s e	-0.6532125
-1.5686222	b s h	-0.6532125
-1.28154	b s i	-0.6532125
-1.531618	b s o	-0.6532125
-1.3328944	b s p	-0.6532125
-1.2894465	b s s	-0.6532125
-0.9250786	b s t	-0.6532125
-1.695951	b s w	-0.6532125
-0.5969412	b t </s>	-0.4259687
-0.8777487	b t c	-0.4259687
-1.1716207	b t l	-0.4259687
-0.8144488	b t r	-0.4259687
-1.1121772	b t s	-0.4259687
-1.1880928	b t v	-0.4259687
-0.7751603	b u </s>	-0.6842467
-1.5978627	b u b	-0.6842467
-1.5530385	b u c	-0.6842467
-1.5942456	b u d	-0.6842467
-0.9049399	b u g	-0.6842467
-0.7292335	b u i	-0.6842467
-1.3114224	b u l	-0.6842467
-1.4360065	b u n	-0.6842467
-1.3977108	b u r	-0.6842467
-0.980663	b u s	-0.6842467
-0.9728413	b u t	-0.6842467
-1.2794479	b u y	-0.6842467
-0.4779471	b v </s>	-0.3679768
-0.5753947	b v e	-0.3679768
-0.6511548	b v i	-0.3679768
-0.4565232	b w </s>	-0.3679768
-0.6724817	b w a	-0.3679768
-0.7214341	b w o	-0.3679768
-0.0449444	b x </s>	-0.7781513
-0.2201356	b y </s>	-0.6690068
-1.1361675	b y d	-0.6690068
-0.6512502	b y t	-0.6690068
-0.1837587	c # </s>	-0.30103
-0.6604281	c + +	-0.4259687
-0.5339866	c + </s>	-0.4259687
-1.0561159	c + a	-0.4259687
-1.1497623	c + e	-0.4259687
-1.1497623	c + h	-0.4259687
-1.1162526	c + m	-0.4259687
-2e-07	c </s> <s>	-2.4668676
-1.0762774	c a </s>	-1.1213045
-1.7623987	c a a	-1.1213045
-1.8308103	c a b	-1.1213045
-1.45986	c a c	-1.1213045
-1.1267245	c a d	-1.1213045
-2.3276836	c a e	-1.1213045
-2.3007016	c a f	-1.1213045
-1.7586279	c a k	-1.1213045
-0.6800346	c a l	-1.1213045
-1.2068223	c a m	-1.1213045
-1.0783629	c a n	-1.1213045
-1.2625027	c a p	-1.1213045
-1.1551744	c a r	-1.1213045
-1.0918987	c a s	-1.1213045
-0.7840915	c a t	-1.1213045
-2.2794305	c a u	-1.1213045
-2.3028872	c a x	-1.1213045
-2.2773595	c a y	-1.1213045
-0.7043095	c b </s>	-0.49485
-0.920592	c b a	-0.49485
-1.0560331	c b c	-0.49485
-1.3390702	c b d	-0.49485
-1.3273476	c b g	-0.49485
-1.0165963	c b r	-0.49485
-0.8603675	c b s	-0.49485
-1.0017725	c b u	-0.49485
-0.6291983	c c </s>	-0.6638056
-1.1496798	c c a	-0.6638056
-1.8573904	c c b	-0.6638056
-1.7256377	c c c	-0.6638056
-1.4054261	c c d	-0.6638056
-1.0402468	c c e	-0.6638056
-1.860609	c c f	-0.6638056
-1.3221926	c c i	-0.6638056
-1.7256377	c c l	-0.6638056
-1.3898517	c c m	-0.6638056
-1.422757	c c n	-0.6638056
-0.8280676	c c o	-0.6638056
-1.2706696	c c p	-0.6638056
-1.6419161	c c r	-0.6638056
-1.6578237	c c s	-0.6638056
-1.3774634	c c t	-0.6638056
-1.382269	c c u	-0.6638056
-1.904778	c c w	-0.6638056
-0.6370791	c d </s>	-0.4771213
-1.1588453	c d a	-0.4771213
-1.4987632	c d b	-0.4771213
-1.0151163	c d c	-0.4771213
-1.5432311	c d d	-0.4771213
-1.5798506	c d g	-0.4771213
-1.6061	c d h	-0.4771213
-1.2071689	c d i	-0.4771213
-1.5591265	c d l	-0.4771213
-0.9992188	c d m	-0.4771213
-1.6016134	c d n	-0.4771213
-1.5471507	c d p	-0.4771213
-1.2361947	c d r	-0.4771213
-1.2323632	c d s	-0.4771213
-1.5714419	c d t	-0.4771213
-0.3693597	c e </s>	-1.0705811
-1.8728529	c e a	-1.0705811
-1.9368473	c e b	-1.0705811
-1.8319945	c e c	-1.0705811
-1.5392384	c e d	-1.0705811
-1.9250575	c e e	-1.0705811
-2.2416321	c e f	-1.0705811
-2.2529049	c e i	-1.0705811
-1.2272518	c e l	-1.0705811
-1.6312145	c e m	-1.0705811
-0.9662656	c e n	-1.0705811
-2.2146674	c e o	-1.0705811
-1.4981053	c e p	-1.0705811
-1.1646979	c e r	-1.0705811
-0.7907473	c e s	-1.0705811
-2.0289058	c e t	-1.0705811
-2.2644781	c e u	-1.0705811
-0.627088	c f </s>	-0.4436975
-1.187223	c f a	-0.4436975
-0.8871489	c f c	-0.4436975
-1.3610017	c f d	-0.4436975
-1.1913344	c f e	-0.4436975
-1.0453638	c f o	-0.4436975
-1.3202385	c f p	-0.4436975
-1.044381	c f s	-0.4436975
-1.2581894	c f u	-0.4436975
-0.3208156	c g </s>	-0.50515
-1.0808583	c g a	-0.50515
-0.8294991	c g i	-0.50515
-1.1538776	c g l	-0.50515
-1.1955752	c g w	-0.50515
-0.6910071	c h </s>	-1.1383027
-0.6770108	c h a	-1.1383027
-1.8819727	c h b	-1.1383027
-2.1510588	c h d	-1.1383027
-0.690573	c h e	-1.1383027
-2.1835649	c h f	-1.1383027
-0.7604464	c h i	-1.1383027
-2.1448397	c h m	-1.1383027
-1.1663585	c h n	-1.1383027
-1.3322431	c h o	-1.1383027
-1.4823504	c h r	-1.1383027
-1.8622036	c h u	-1.1383027
-1.066065	c i </s>	-0.8553172
-0.9437658	c i a	-0.8553172
-2.0053457	c i b	-0.8553172
-1.2795939	c i c	-0.8553172
-1.0482829	c i e	-0.8553172
-1.4784359	c i f	-0.8553172
-1.784088	c i i	-0.8553172
-2.0610578	c i k	-0.8553172
-1.3482426	c i l	-0.8553172
-1.3609006	c i m	-0.8553172
-0.8188013	c i n	-0.8553172
-1.4450713	c i o	-0.8553172
-1.2839398	c i p	-0.8553172
-1.7174759	c i r	-0.8553172
-1.0984208	c i s	-0.8553172
-0.9195005	c i t	-0.8553172
-1.6892219	c i v	-0.8553172
-2.0945124	c i w	-0.8553172
-0.6525066	c j </s>	-0.39794
-0.3840349	c j p	-0.39794
-0.4790438	c k </s>	-0.69897
-1.3235265	c k a	-0.69897
-1.2997314	c k b	-0.69897
-1.855534	c k d	-0.69897
-0.6749368	c k e	-0.69897
-1.8416053	c k f	-0.69897
-1.855534	c k g	-0.69897
-1.1401267	c k i	-0.69897
-1.8150203	c k l	-0.69897
-1.8416053	c k m	-0.69897
-1.7549098	c k o	-0.69897
-1.8150203	c k p	-0.69897
-1.8699244	c k r	-0.69897
-1.2240607	c k s	-0.69897
-1.5530909	c k t	-0.69897
-1.2804826	c k u	-0.69897
-1.8699244	c k w	-0.69897
-0.7972331	c l </s>	-1.0731071
-0.8247564	c l a	-1.0731071
-0.6753871	c l e	-1.0731071
-0.745519	c l i	-1.0731071
-0.7526804	c l o	-1.0731071
-0.993204	c l u	-1.0731071
-0.5797677	c m </s>	-0.5947608
-0.9647388	c m a	-0.5947608
-1.6395174	c m b	-0.5947608
-1.3884511	c m c	-0.5947608
-1.704068	c m d	-0.5947608
-1.2561519	c m e	-0.5947608
-1.7304961	c m f	-0.5947608
-1.7189723	c m g	-0.5947608
-1.4190177	c m i	-0.5947608
-1.4046894	c m l	-0.5947608
-1.0296617	c m m	-0.5947608
-1.2658355	c m o	-0.5947608
-1.1685429	c m p	-0.5947608
-0.93736	c m s	-0.5947608
-1.6861293	c m t	-0.5947608
-0.8311144	c n </s>	-0.4259687
-0.8281565	c n a	-0.4259687
-1.2095974	c n c	-0.4259687
-0.9305416	c n e	-0.4259687
-1.0236631	c n g	-0.4259687
-1.3193816	c n n	-0.4259687
-0.8906002	c n p	-0.4259687
-1.17879	c n s	-0.4259687
-1.0458267	c n t	-0.4259687
-1.1758612	c o </s>	-1.1658376
-1.823404	c o a	-1.1658376
-1.823404	c o b	-1.1658376
-1.6316518	c o c	-1.1658376
-1.4030184	c o d	-1.1658376
-2.134491	c o e	-1.1658376
-2.0881493	c o f	-1.1658376
-1.9075013	c o g	-1.1658376
-1.9418192	c o i	-1.1658376
-2.4031436	c o k	-1.1658376
-1.3212232	c o l	-1.1658376
-0.5959182	c o m	-1.1658376
-0.6567668	c o n	-1.1658376
-1.4381371	c o o	-1.1658376
-1.5085625	c o p	-1.1658376
-1.0723438	c o r	-1.1658376
-1.3443281	c o s	-1.1658376
-2.2034285	c o t	-1.1658376
-1.2408914	c o u	-1.1658376
-1.9606164	c o v	-1.1658376
-0.4316546	c p </s>	-0.6499835
-0.9555606	c p a	-0.6499835
-1.784144	c p b	-0.6499835
-1.4377172	c p c	-0.6499835
-1.4866117	c p d	-0.6499835
-1.4271666	c p e	-0.6499835
-1.2604714	c p i	-0.6499835
-1.1308635	c p l	-0.6499835
-1.4460543	c p m	-0.6499835
-1.5084699	c p o	-0.6499835
-1.3997865	c p p	-0.6499835
-1.2941764	c p r	-0.6499835
-1.4136252	c p s	-0.6499835
-1.6860865	c p u	-0.6499835
-1.7163772	c p y	-0.6499835
-0.8758126	c q </s>	-0.3357921
-1.0026355	c q a	-0.3357921
-0.9914514	c q c	-0.3357921
-1.0141153	c q e	-0.3357921
-1.0633334	c q s	-0.3357921
-0.5143301	c q u	-0.3357921
-1.230121	c r </s>	-1.0193052
-1.2540831	c r a	-1.0193052
-1.6898505	c r c	-1.0193052
-0.9530895	c r e	-1.0193052
-0.5975866	c r i	-1.0193052
-1.1964126	c r m	-1.0193052
-0.6128012	c r o	-1.0193052
-1.9429181	c r s	-1.0193052
-1.8745417	c r t	-1.0193052
-1.1986308	c r u	-1.0193052
-1.0467863	c r y	-1.0193052
-2.0247569	c s +	-0.9234831
-0.2606695	c s </s>	-0.9234831
-1.3850641	c s a	-0.9234831
-1.8369781	c s c	-0.9234831
-1.411571	c s d	-0.9234831
-1.2490136	c s e	-0.9234831
-1.8624317	c s h	-0.9234831
-1.5761397	c s i	-0.9234831
-1.9456489	c s m	-0.9234831
-1.8467003	c s p	-0.9234831
-1.7215104	c s r	-0.9234831
-0.8377426	c s s	-0.9234831
-1.3808671	c s t	-0.9234831
-0.6993393	c t </s>	-1.0483047
-1.8919278	c t a	-1.0483047
-2.1514899	c t c	-1.0483047
-1.9551891	c t d	-1.0483047
-1.2606269	c t e	-1.0483047
-0.5243497	c t i	-1.0483047
-1.9677738	c t j	-1.0483047
-2.1691716	c t m	-1.0483047
-2.2295803	c t n	-1.0483047
-0.8916602	c t o	-1.0483047
-1.910689	c t p	-1.0483047
-1.0411325	c t r	-1.0483047
-1.2934144	c t s	-1.0483047
-1.0878343	c t u	-1.0483047
-2.2347964	c t v	-1.0483047
-2.2118019	c t w	-1.0483047
-2.2646619	c t x	-1.0483047
-1.0431571	c u </s>	-0.6922366
-1.2617702	c u b	-0.6922366
-1.5821123	c u c	-0.6922366
-1.6254749	c u d	-0.6922366
-1.3875236	c u e	-0.6922366
-1.5303048	c u i	-0.6922366
-0.9085136	c u l	-0.6922366
-0.9731695	c u m	-0.6922366
-1.6216913	c u p	-0.6922366
-0.6780611	c u r	-0.6922366
-1.0171103	c u s	-0.6922366
-0.9445176	c u t	-0.6922366
-1.7788304	c u z	-0.6922366
-0.6128711	c v </s>	-0.39794
-0.9243409	c v a	-0.39794
-0.8485512	c v i	-0.39794
-1.1205123	c v p	-0.39794
-0.8463833	c v s	-0.39794
-1.1499435	c v t	-0.39794
-0.6177828	c w </s>	-0.30103
-0.6055349	c w a	-0.30103
-0.7526571	c w c	-0.30103
-0.3419318	c x </s>	-0.30103
-0.5923461	c x f	-0.30103
-0.3322212	c y </s>	-0.6283889
-1.1785507	c y b	-0.6283889
-0.6199023	c y c	-0.6283889
-0.8946034	c y t	-0.6283889
-0.5354894	d + +	-0.30103
-0.4090479	d + </s>	-0.30103
-2e-07	d </s> <s>	-2.4653829
-0.6992532	d a </s>	-0.763428
-1.511693	d a b	-0.763428
-1.5336895	d a c	-0.763428
-2.0104568	d a e	-0.763428
-1.9809155	d a f	-0.763428
-1.8967977	d a i	-0.763428
-1.9979029	d a k	-0.763428
-1.2926837	d a l	-0.763428
-1.3769558	d a m	-0.763428
-1.2806544	d a n	-0.763428
-2.0313299	d a o	-0.763428
-1.1551446	d a p	-0.763428
-2.0476707	d a q	-0.763428
-1.229857	d a r	-0.763428
-1.09128	d a s	-0.763428
-0.5966395	d a t	-0.763428
-1.9027204	d a v	-0.763428
-1.9761816	d a w	-0.763428
-1.983302	d a x	-0.763428
-1.7055382	d a y	-0.763428
-0.3867433	d b </s>	-0.6307052
-0.9415454	d b a	-0.6307052
-1.1573629	d b c	-0.6307052
-1.5777353	d b g	-0.6307052
-1.6035826	d b m	-0.6307052
-1.0588579	d b o	-0.6307052
-1.5930584	d b p	-0.6307052
-1.2544506	d b s	-0.6307052
-1.4484725	d b u	-0.6307052
-1.6367779	d b x	-0.6307052
-1.6035826	d b y	-0.6307052
-0.4179357	d c </s>	-0.5336026
-1.10043	d c a	-0.5336026
-1.4747687	d c c	-0.5336026
-1.5425582	d c d	-0.5336026
-1.5843318	d c g	-0.5336026
-1.3401578	d c h	-0.5336026
-1.3992441	d c i	-0.5336026
-0.9543687	d c o	-0.5336026
-1.49873	d c p	-0.5336026
-1.2062477	d c s	-0.5336026
-1.3146175	d c t	-0.5336026
-1.5889722	d c v	-0.5336026
-0.5673721	d d </s>	-0.5026754
-1.425739	d d b	-0.5026754
-1.4458464	d d c	-0.5026754
-1.4608011	d d d	-0.5026754
-0.980263	d d e	-0.5026754
-0.9091136	d d i	-0.5026754
-1.0419972	d d l	-0.5026754
-1.5056405	d d n	-0.5026754
-1.341774	d d o	-0.5026754
-1.0063752	d d r	-0.5026754
-1.3779423	d d s	-0.5026754
-0.7981294	d e </s>	-0.9602329
-1.6449302	d e a	-0.9602329
-1.6928719	d e b	-0.9602329
-1.3261908	d e c	-0.9602329
-1.4892703	d e d	-0.9602329
-2.1552428	d e e	-0.9602329
-1.4826949	d e f	-0.9602329
-2.2229743	d e g	-0.9602329
-2.3032564	d e h	-0.9602329
-2.273955	d e i	-0.9602329
-2.308803	d e j	-0.9602329
-2.3060208	d e k	-0.9602329
-0.974913	d e l	-0.9602329
-1.4398882	d e m	-0.9602329
-1.1028842	d e n	-0.9602329
-1.7059065	d e o	-0.9602329
-1.5277155	d e p	-0.9602329
-0.7298428	d e r	-0.9602329
-1.0628613	d e s	-0.9602329
-1.8312478	d e t	-0.9602329
-1.15663	d e v	-0.9602329
-2.2345809	d e w	-0.9602329
-1.9241642	d e x	-0.9602329
-2.3287938	d e z	-0.9602329
-0.79588	d f </s>	-0.39794
-1.2007063	d f l	-0.39794
-1.3247081	d f m	-0.39794
-1.019332	d f o	-0.39794
-1.3124043	d f p	-0.39794
-1.1647194	d f r	-0.39794
-0.8813102	d f s	-0.39794
-1.1960415	d f t	-0.39794
-1.0138073	d f u	-0.39794
-1.3638602	d f x	-0.39794
-0.5622974	d g </s>	-0.9294189
-0.1784053	d g e	-0.9294189
-0.7358402	d h </s>	-0.3590219
-0.9034449	d h a	-0.3590219
-1.141452	d h c	-0.3590219
-0.9120522	d h e	-0.3590219
-1.1922208	d h g	-0.3590219
-1.1799671	d h l	-0.3590219
-0.840115	d h t	-0.3590219
-1.1199893	d i </s>	-0.9395193
-0.9233379	d i a	-0.9395193
-2.1250427	d i b	-0.9395193
-1.2875767	d i c	-0.9395193
-1.8031275	d i d	-0.9395193
-1.8250779	d i e	-0.9395193
-2.12034	d i f	-0.9395193
-1.684744	d i g	-0.9395193
-2.185847	d i i	-0.9395193
-1.9680418	d i l	-0.9395193
-1.6737336	d i m	-0.9395193
-0.749516	d i n	-0.9395193
-1.2067087	d i o	-0.9395193
-1.6621803	d i p	-0.9395193
-1.1094165	d i r	-0.9395193
-0.909591	d i s	-0.9395193
-0.9461551	d i t	-0.9395193
-1.7483724	d i u	-0.9395193
-1.3535221	d i v	-0.9395193
-2.2286834	d i y	-0.9395193
-0.8146571	d j </s>	-0.30103
-0.6618963	d j a	-0.30103
-0.7516512	d j e	-0.30103
-0.8013035	d j i	-0.30103
-0.0238136	d k </s>	-1.1139434
-0.4453403	d l </s>	-0.6368221
-1.0975882	d l c	-0.6368221
-0.512296	d l e	-0.6368221
-1.1702686	d l i	-0.6368221
-1.2769097	d l l	-0.6368221
-1.3828566	d l p	-0.6368221
-0.5605781	d m </s>	-0.6910011
-0.5937981	d m a	-0.6910011
-1.3066137	d m e	-0.6910011
-1.6937541	d m g	-0.6910011
-0.7822556	d m i	-0.6910011
-1.6399147	d m l	-0.6910011
-1.594293	d m m	-0.6910011
-1.4930902	d m p	-0.6910011
-1.6995241	d m r	-0.6910011
-1.1763366	d m s	-0.6910011
-1.7264822	d m z	-0.6910011
-0.4084917	d n </s>	-0.4771213
-1.0575399	d n a	-0.4771213
-1.0136862	d n e	-0.4771213
-1.1478289	d n f	-0.4771213
-0.8091406	d n s	-0.4771213
-0.9668853	d o </s>	-0.6842467
-1.8059484	d o a	-0.6842467
-1.3000228	d o b	-0.6842467
-0.8691761	d o c	-0.6842467
-1.8846288	d o e	-0.6842467
-1.5749636	d o i	-0.6842467
-1.9113093	d o j	-0.6842467
-1.3500191	d o l	-0.6842467
-1.0276195	d o m	-0.6842467
-1.0808395	d o n	-0.6842467
-1.3813478	d o o	-0.6842467
-1.1250249	d o r	-0.6842467
-1.2290727	d o s	-0.6842467
-1.365401	d o t	-0.6842467
-1.6981624	d o u	-0.6842467
-1.5996085	d o v	-0.6842467
-1.0138095	d o w	-0.6842467
-1.602602	d o x	-0.6842467
-0.3837403	d p </s>	-0.4900862
-1.0482176	d p a	-0.4900862
-1.5003398	d p b	-0.4900862
-1.4087198	d p c	-0.4900862
-1.4762115	d p d	-0.4900862
-1.3562141	d p i	-0.4900862
-1.4200281	d p m	-0.4900862
-1.2785311	d p o	-0.4900862
-1.3581969	d p p	-0.4900862
-1.2241805	d p r	-0.4900862
-1.3764612	d p s	-0.4900862
-0.642965	d q </s>	-0.30103
-0.7189411	d q a	-0.30103
-0.7253752	d q e	-0.30103
-1.0381787	d r </s>	-0.7579479
-0.5113954	d r a	-0.7579479
-1.7664872	d r b	-0.7579479
-0.9660821	d r e	-0.7579479
-1.7627513	d r g	-0.7579479
-0.9512954	d r i	-0.7579479
-1.6800207	d r m	-0.7579479
-0.7972755	d r o	-0.7579479
-1.7020947	d r p	-0.7579479
-1.1680062	d r u	-0.7579479
-1.432822	d r y	-0.7579479
-0.302373	d s </s>	-0.6627578
-1.4294622	d s a	-0.6627578
-1.8122737	d s b	-0.6627578
-1.6143767	d s c	-0.6627578
-1.7384998	d s d	-0.6627578
-1.4734782	d s e	-0.6627578
-1.7937542	d s f	-0.6627578
-1.4284838	d s h	-0.6627578
-1.7526981	d s k	-0.6627578
-1.5111255	d s l	-0.6627578
-1.4825331	d s m	-0.6627578
-1.401946	d s o	-0.6627578
-1.2781965	d s p	-0.6627578
-1.5452149	d s s	-0.6627578
-1.0776027	d s t	-0.6627578
-0.6114549	d t </s>	-0.3832168
-1.1582878	d t a	-0.3832168
-1.4309141	d t d	-0.3832168
-1.4290122	d t f	-0.3832168
-1.3204374	d t h	-0.3832168
-1.3705105	d t p	-0.3832168
-1.182343	d t r	-0.3832168
-1.2946174	d t s	-0.3832168
-1.3263898	d t u	-0.3832168
-1.1453408	d t v	-0.3832168
-1.4524037	d t x	-0.3832168
-1.4564278	d t z	-0.3832168
-0.992852	d u </s>	-0.6419315
-1.3574565	d u b	-0.6419315
-0.5338037	d u c	-0.6419315
-1.5457858	d u e	-0.6419315
-1.6633476	d u g	-0.6419315
-1.1662102	d u i	-0.6419315
-0.9169808	d u l	-0.6419315
-1.3074998	d u m	-0.6419315
-1.4097016	d u n	-0.6419315
-1.5713862	d u p	-0.6419315
-1.1093411	d u r	-0.6419315
-1.2571846	d u s	-0.6419315
-1.6823809	d u x	-0.6419315
-1.0275499	d v </s>	-0.39794
-0.8171174	d v a	-0.39794
-0.9794467	d v b	-0.39794
-1.2608524	d v d	-0.39794
-0.7831076	d v e	-0.39794
-0.6477034	d v i	-0.39794
-1.2080391	d v m	-0.39794
-1.2443233	d v r	-0.39794
-0.8577859	d w </s>	-0.4586378
-0.6373327	d w a	-0.4586378
-0.9827107	d w e	-0.4586378
-1.3107898	d w h	-0.4586378
-1.0210634	d w i	-0.4586378
-1.3179516	d w m	-0.4586378
-0.6734444	d w o	-0.4586378
-1.2968111	d w r	-0.4586378
-0.2200215	d x </s>	-0.60206
-1.0609564	d x l	-0.60206
-0.7325489	d x p	-0.60206
-0.4028023	d y </s>	-0.69897
-1.2460596	d y a	-0.69897
-0.388971	d y n	-0.69897
-1.2051868	d y p	-0.69897
-0.1938886	e + </s>	-0.30103
-1e-07	e </s> <s>	-2.8469553
-1.1151614	e a </s>	-0.9378521
-1.0097124	e a c	-0.9378521
-1.0539778	e a d	-0.9378521
-2.1172493	e a f	-0.9378521
-1.7907476	e a g	-0.9378521
-2.1805017	e a h	-0.9378521
-2.0396008	e a i	-0.9378521
-2.1805017	e a j	-0.9378521
-1.5751756	e a k	-0.9378521
-1.1628776	e a l	-0.9378521
-0.8968384	e a m	-0.9378521
-1.0510249	e a n	-0.9378521
-1.4938143	e a p	-0.9378521
-0.9717221	e a r	-0.9378521
-0.981978	e a s	-0.9378521
-1.0430501	e a t	-0.9378521
-2.0959781	e a u	-0.9378521
-1.5490692	e a v	-0.9378521
-1.8737116	e b +	-0.6350603
-0.9039427	e b </s>	-0.6350603
-0.8211381	e b a	-0.6350603
-1.7468515	e b c	-0.6350603
-1.3387859	e b e	-0.6350603
-1.8836466	e b f	-0.6350603
-1.2684711	e b g	-0.6350603
-1.2078586	e b i	-0.6350603
-1.8938141	e b k	-0.6350603
-1.5055429	e b l	-0.6350603
-1.0157779	e b o	-0.6350603
-1.7851632	e b p	-0.6350603
-1.138212	e b r	-0.6350603
-0.8698978	e b s	-0.6350603
-1.8098851	e b t	-0.6350603
-1.1239994	e b u	-0.6350603
-1.8639989	e b v	-0.6350603
-1.8639989	e b w	-0.6350603
-1.8014872	e b y	-0.6350603
-0.9707804	e c </s>	-1.0896974
-1.4293999	e c a	-1.0896974
-1.9170325	e c c	-1.0896974
-1.6690211	e c e	-1.0896974
-0.8849824	e c h	-1.0896974
-1.3245242	e c i	-1.0896974
-2.1286746	e c k	-1.0896974
-1.5052357	e c l	-1.0896974
-1.6805436	e c m	-1.0896974
-0.9737575	e c o	-1.0896974
-1.9353506	e c p	-1.0896974
-1.553478	e c r	-1.0896974
-1.7427541	e c s	-1.0896974
-0.4604194	e c t	-1.0896974
-1.2625779	e c u	-1.0896974
-2.2867859	e c v	-1.0896974
-1.9954537	e c y	-1.0896974
-0.3222518	e d </s>	-0.9692197
-1.6024919	e d a	-0.9692197
-1.8429733	e d b	-0.9692197
-2.0901091	e d c	-0.9692197
-1.8741336	e d d	-0.9692197
-1.4108907	e d e	-0.9692197
-1.453269	e d g	-0.9692197
-2.1891151	e d h	-0.9692197
-0.7130476	e d i	-0.9692197
-2.1318957	e d l	-0.9692197
-1.8257782	e d m	-0.9692197
-1.7672811	e d o	-0.9692197
-2.1175154	e d p	-0.9692197
-1.9986428	e d r	-0.9692197
-1.6676345	e d s	-0.9692197
-1.1813397	e d u	-0.9692197
-1.7383539	e d w	-0.9692197
-2.1891151	e d x	-0.9692197
-1.8962229	e d y	-0.9692197
-0.5792673	e e </s>	-0.7596678
-1.3308627	e e b	-0.7596678
-1.3739394	e e c	-0.7596678
-1.1356172	e e d	-0.7596678
-1.8319987	e e e	-0.7596678
-1.6500048	e e h	-0.7596678
-1.9405385	e e k	-0.7596678
-1.2824076	e e l	-0.7596678
-1.5429022	e e m	-0.7596678
-0.9417543	e e n	-0.7596678
-1.2369392	e e p	-0.7596678
-0.9019718	e e r	-0.7596678
-1.2395749	e e s	-0.7596678
-1.381728	e e t	-0.7596678
-1.8904271	e e w	-0.7596678
-1.8160427	e e x	-0.7596678
-0.8895875	e f </s>	-0.6255411
-1.0205367	e f a	-0.6255411
-1.0223746	e f e	-0.6255411
-1.0335684	e f f	-0.6255411
-0.594568	e f i	-0.6255411
-1.0335684	e f l	-0.6255411
-1.0676276	e f o	-0.6255411
-1.1582132	e f r	-0.6255411
-1.3943397	e f t	-0.6255411
-0.813974	e g </s>	-0.7323938
-0.6658297	e g a	-0.7323938
-1.0923562	e g e	-0.7323938
-1.6706428	e g g	-0.7323938
-0.9735871	e g i	-0.7323938
-1.6300134	e g m	-0.7323938
-1.3449039	e g o	-0.7323938
-0.6244777	e g r	-0.7323938
-1.3751982	e g u	-0.7323938
-1.4035583	e g y	-0.7323938
-0.801869	e h a	-0.4336556
-1.2160856	e h c	-0.4336556
-0.8075866	e h i	-0.4336556
-0.6790061	e h o	-0.4336556
-0.9259408	e h r	-0.4336556
-1.2349164	e h s	-0.4336556
-1.2160856	e h u	-0.4336556
-1.112301	e i </s>	-0.4423591
-1.197812	e i c	-0.4423591
-1.1619118	e i d	-0.4423591
-0.7509837	e i g	-0.4423591
-1.5505268	e i j	-0.4423591
-1.1468149	e i l	-0.4423591
-0.8949854	e i n	-0.4423591
-1.3767601	e i p	-0.4423591
-1.4288227	e i r	-0.4423591
-1.2713193	e i s	-0.4423591
-1.064538	e i t	-0.4423591
-1.391597	e i v	-0.4423591
-1.5446318	e i w	-0.4423591
-1.0774186	e j </s>	-0.4259687
-0.8790406	e j a	-0.4259687
-0.8626429	e j b	-0.4259687
-1.059181	e j i	-0.4259687
-1.059181	e j o	-0.4259687
-0.5389296	e j s	-0.4259687
-0.5439255	e k </s>	-0.4101745
-1.1010422	e k a	-0.4101745
-1.2233135	e k g	-0.4101745
-0.7947163	e k i	-0.4101745
-0.9280994	e k l	-0.4101745
-1.2044711	e k p	-0.4101745
-1.1923488	e k t	-0.4101745
-0.6477416	e l </s>	-1.0723418
-1.0811723	e l a	-1.0723418
-1.4084158	e l d	-1.0723418
-0.7368036	e l e	-1.0723418
-2.2552148	e l f	-1.0723418
-1.0998513	e l i	-1.0723418
-1.9433843	e l k	-1.0723418
-0.814094	e l l	-1.0723418
-1.7762983	e l m	-1.0723418
-2.2594966	e l n	-1.0723418
-1.0872073	e l o	-1.0723418
-1.6527289	e l p	-1.0723418
-1.5399105	e l s	-1.0723418
-1.6199455	e l t	-1.0723418
-1.8673285	e l u	-1.0723418
-1.6360279	e l y	-1.0723418
-0.847795	e m </s>	-0.9570718
-0.7772686	e m a	-0.9570718
-1.2632313	e m b	-0.9570718
-1.3768124	e m c	-0.9570718
-2.1125605	e m d	-0.9570718
-0.7315502	e m e	-0.9570718
-2.1420567	e m f	-0.9570718
-0.8568103	e m i	-0.9570718
-1.9892603	e m m	-0.9570718
-1.132185	e m o	-0.9570718
-1.2771133	e m p	-0.9570718
-2.1420567	e m q	-0.9570718
-1.3471554	e m s	-0.9570718
-2.0926546	e m t	-0.9570718
-1.5321114	e m u	-0.9570718
-1.8540834	e m v	-0.9570718
-2.1166535	e m y	-0.9570718
-1.1326145	e n </s>	-1.1848148
-1.6747487	e n a	-1.1848148
-2.2208918	e n b	-1.1848148
-0.9529273	e n c	-1.1848148
-1.1416922	e n d	-1.1848148
-1.2225496	e n e	-1.1848148
-1.2620547	e n g	-1.1848148
-2.5243441	e n h	-1.1848148
-1.6205562	e n i	-1.1848148
-1.9365378	e n j	-1.1848148
-2.1672502	e n k	-1.1848148
-2.0498808	e n l	-1.1848148
-2.4903759	e n m	-1.1848148
-1.9046498	e n n	-1.1848148
-1.7180495	e n o	-1.1848148
-2.4588729	e n p	-1.1848148
-1.0915759	e n s	-1.1848148
-0.4163261	e n t	-1.1848148
-2.173112	e n u	-1.1848148
-1.7458249	e n v	-1.1848148
-2.060375	e n w	-1.1848148
-2.4782929	e n y	-1.1848148
-2.2365422	e n z	-1.1848148
-0.7934672	e o </s>	-0.69897
-1.6539811	e o a	-0.69897
-1.3488307	e o c	-0.69897
-1.0124948	e o g	-0.69897
-1.3352845	e o l	-0.69897
-1.170837	e o m	-0.69897
-1.1416568	e o n	-0.69897
-0.9924445	e o p	-0.69897
-0.9246346	e o r	-0.69897
-0.8011964	e o s	-0.69897
-1.202015	e o u	-0.69897
-0.8248542	e p </s>	-0.7140338
-0.8795955	e p a	-0.7140338
-1.8972549	e p b	-0.7140338
-1.7669936	e p c	-0.7140338
-1.2718009	e p e	-0.7140338
-1.869427	e p g	-0.7140338
-1.1092935	e p h	-0.7140338
-1.6969218	e p i	-0.7140338
-1.3333437	e p l	-0.7140338
-1.7824745	e p m	-0.7140338
-0.7915369	e p o	-0.7140338
-1.699518	e p p	-0.7140338
-0.9626464	e p r	-0.7140338
-1.3806545	e p s	-0.7140338
-1.0571117	e p t	-0.7140338
-1.7888248	e p u	-0.7140338
-1.9226144	e p w	-0.7140338
-1.1358221	e q </s>	-0.9294189
-0.0643394	e q u	-0.9294189
-0.3879764	e r </s>	-1.3949083
-1.1775311	e r a	-1.3949083
-1.9667517	e r b	-1.3949083
-1.5079439	e r c	-1.3949083
-1.933088	e r d	-1.3949083
-1.3286926	e r e	-1.3949083
-1.9667517	e r f	-1.3949083
-1.9653812	e r g	-1.3949083
-2.716779	e r h	-1.3949083
-1.1634545	e r i	-1.3949083
-2.5544365	e r k	-1.3949083
-1.8447167	e r l	-1.3949083
-1.6898954	e r m	-1.3949083
-1.4476689	e r n	-1.3949083
-1.6706121	e r o	-1.3949083
-1.4660506	e r p	-1.3949083
-1.7922342	e r r	-1.3949083
-1.1925457	e r s	-1.3949083
-1.4751712	e r t	-1.3949083
-1.2459859	e r v	-1.3949083
-2.2671873	e r w	-1.3949083
-2.7405778	e r x	-1.3949083
-1.6205305	e r y	-1.3949083
-0.4970537	e s </s>	-1.1577876
-1.7993563	e s a	-1.1577876
-2.4432406	e s b	-1.1577876
-1.367822	e s c	-1.1577876
-2.3452201	e s d	-1.1577876
-1.2534812	e s e	-1.1577876
-2.4181083	e s f	-1.1577876
-2.4368199	e s g	-1.1577876
-1.4887107	e s h	-1.1577876
-1.2913069	e s i	-1.1577876
-1.6801718	e s k	-1.1577876
-2.142049	e s l	-1.1577876
-1.3997947	e s o	-1.1577876
-1.7098373	e s p	-1.1577876
-2.4001697	e s q	-1.1577876
-2.4336448	e s r	-1.1577876
-0.7447857	e s s	-1.1577876
-0.7944505	e s t	-1.1577876
-1.9228532	e s u	-1.1577876
-2.1687153	e s x	-1.1577876
-1.9648276	e s y	-1.1577876
-0.5905427	e t </s>	-1.0135025
-0.9998699	e t a	-1.0135025
-1.8034674	e t b	-1.0135025
-1.2760358	e t c	-1.0135025
-1.0692367	e t e	-1.0135025
-1.7971952	e t f	-1.0135025
-1.4719124	e t h	-1.0135025
-1.0583079	e t i	-1.0135025
-1.9408345	e t l	-1.0135025
-1.9266228	e t m	-1.0135025
-2.2376473	e t n	-1.0135025
-1.4145335	e t o	-1.0135025
-1.5620331	e t p	-1.0135025
-1.1640498	e t r	-1.0135025
-1.1235627	e t s	-1.0135025
-1.3701468	e t t	-1.0135025
-1.8802531	e t u	-1.0135025
-1.379169	e t w	-1.0135025
-1.8917121	e t y	-1.0135025
-1.247027	e u c	-0.49485
-1.2781726	e u d	-0.49485
-1.2571627	e u e	-0.49485
-0.9920607	e u i	-0.49485
-0.7450033	e u m	-0.49485
-0.7094475	e u r	-0.49485
-0.9650688	e u s	-0.49485
-0.9534491	e u t	-0.49485
-0.8201218	e v </s>	-0.8653014
-1.1985556	e v a	-0.8653014
-1.5719101	e v c	-0.8653014
-0.371109	e v e	-0.8653014
-0.6380196	e v i	-0.8653014
-1.122658	e v o	-0.8653014
-0.5560854	e w </s>	-0.7269987
-0.6615378	e w a	-0.7269987
-1.34251	e w c	-0.7269987
-0.9355743	e w e	-0.7269987
-1.3120254	e w i	-0.7269987
-1.6243364	e w l	-0.7269987
-1.6322907	e w m	-0.7269987
-0.8368712	e w o	-0.7269987
-1.1512625	e w s	-0.7269987
-0.538047	e x </s>	-0.9867717
-1.3481636	e x a	-0.9867717
-1.0588761	e x c	-0.9867717
-1.1117105	e x e	-0.9867717
-1.1117105	e x i	-0.9867717
-0.8488452	e x p	-0.9867717
-1.8756213	e x s	-0.9867717
-0.6495502	e x t	-0.9867717
-1.9287798	e x u	-0.9867717
-1.8106805	e x x	-0.9867717
-0.3068183	e y </s>	-0.526809
-1.4311432	e y a	-0.526809
-1.4381683	e y e	-0.526809
-1.5327453	e y h	-0.526809
-1.5154821	e y i	-0.526809
-1.452569	e y m	-0.526809
-1.4041266	e y n	-0.526809
-1.4381683	e y o	-0.526809
-1.5240279	e y r	-0.526809
-0.9947422	e y s	-0.526809
-1.2311287	e y w	-0.526809
-0.3639713	e z i	-0.39794
-0.6873494	e z v	-0.39794
-1.2e-06	f </s> <s>	-1.770852
-0.8501362	f a </s>	-0.6661775
-1.5889954	f a b	-0.6661775
-0.3502654	f a c	-0.6661775
-1.6770426	f a e	-0.6661775
-1.3954143	f a l	-0.6661775
-1.5377973	f a m	-0.6661775
-1.210194	f a n	-0.6661775
-1.4047936	f a r	-0.6661775
-1.1311601	f a s	-0.6661775
-1.6568164	f a w	-0.6661775
-1.6610719	f a x	-0.6661775
-0.2558909	f b i	-0.30103
-0.2160208	f c </s>	-0.6766936
-0.8953259	f c a	-0.6766936
-1.0974597	f c o	-0.6766936
-1.1552443	f c t	-0.6766936
-0.3377506	f d </s>	-0.4259687
-0.8787526	f d d	-0.4259687
-0.861058	f d m	-0.4259687
-0.7339078	f e </s>	-0.6575773
-1.1623902	f e a	-0.6575773
-0.8786863	f e c	-0.6575773
-1.521857	f e d	-0.6575773
-1.1879239	f e e	-0.6575773
-1.5083425	f e l	-0.6575773
-1.541513	f e m	-0.6575773
-1.3882139	f e n	-0.6575773
-0.7104497	f e r	-0.6575773
-0.8605477	f e s	-0.6575773
-1.2900979	f e t	-0.6575773
-0.7668702	f f </s>	-0.8808136
-0.7141801	f f e	-0.8808136
-0.3263203	f f i	-0.8808136
-1.2204386	f f l	-0.8808136
-1.5416259	f f m	-0.8808136
-0.1775891	f g </s>	-0.30103
-1.1932009	f i </s>	-0.8250501
-1.6690319	f i a	-0.8250501
-1.744072	f i b	-0.8250501
-0.70804	f i c	-0.8250501
-1.6722743	f i d	-0.8250501
-1.4436183	f i e	-0.8250501
-1.9888768	f i f	-0.8250501
-1.9089879	f i g	-0.8250501
-2.0925235	f i h	-0.8250501
-2.051679	f i i	-0.8250501
-0.8526712	f i l	-0.8250501
-0.7097421	f i n	-0.8250501
-1.6692586	f i o	-0.8250501
-1.8611977	f i p	-0.8250501
-1.0431582	f i r	-0.8250501
-1.4647653	f i s	-0.8250501
-1.3546941	f i t	-0.8250501
-1.3842882	f i x	-0.8250501
-2.0313705	f i z	-0.8250501
-0.3944991	f k </s>	-0.30103
-0.5521375	f k a	-0.30103
-1.05239	f l </s>	-0.756962
-0.7136499	f l a	-0.756962
-0.8126343	f l e	-0.756962
-1.0129093	f l i	-0.756962
-0.5751408	f l o	-0.756962
-0.9739464	f l u	-0.756962
-1.2672715	f l y	-0.756962
-0.3408895	f m </s>	-0.4771213
-1.1201868	f m c	-0.4771213
-0.9313073	f m e	-0.4771213
-1.0509034	f m p	-0.4771213
-1.0716713	f m s	-0.4771213
-0.2633273	f n e	-0.30103
-1.1274939	f o </s>	-0.80618
-1.422139	f o c	-0.80618
-1.8703964	f o f	-0.80618
-1.8152154	f o g	-0.80618
-1.8810327	f o i	-0.80618
-1.4095955	f o l	-0.80618
-1.1571498	f o n	-0.80618
-1.5820894	f o o	-0.80618
-1.7237683	f o p	-0.80618
-0.2911624	f o r	-0.80618
-1.5131995	f o s	-0.80618
-1.7712506	f o t	-0.80618
-1.3176889	f o u	-0.80618
-1.8498747	f o w	-0.80618
-1.3648963	f o x	-0.80618
-0.2794645	f p </s>	-0.5314789
-1.1703251	f p c	-0.5314789
-1.2069962	f p g	-0.5314789
-1.1762259	f p m	-0.5314789
-1.1530889	f p s	-0.5314789
-0.2780629	f q c	-0.30103
-1.1862181	f r </s>	-0.8361432
-0.6058772	f r a	-0.8361432
-0.399006	f r e	-0.8361432
-1.4593851	f r i	-0.8361432
-1.6016208	f r m	-0.8361432
-0.7966331	f r o	-0.8361432
-1.602694	f r s	-0.8361432
-0.136405	f s </s>	-0.8016323
-1.2321204	f s a	-0.8016323
-0.9376663	f s s	-0.8016323
-0.2468843	f t </s>	-0.7676858
-1.3119645	f t e	-0.7676858
-1.5244584	f t h	-0.7676858
-1.2029156	f t o	-0.7676858
-0.9960512	f t p	-0.7676858
-1.5072458	f t s	-0.7676858
-1.1258389	f t w	-0.7676858
-0.9624515	f u </s>	-0.60206
-1.3853825	f u d	-0.60206
-1.3643727	f u e	-0.60206
-1.4984657	f u j	-0.60206
-0.9543976	f u l	-0.60206
-0.4737333	f u n	-0.60206
-0.9358477	f u s	-0.60206
-1.1955198	f u z	-0.60206
-0.2558504	f v </s>	-0.30103
-0.4888597	f w </s>	-0.30103
-0.5661168	f w s	-0.30103
-0.0545197	f x </s>	-0.69897
-0.0830667	f y </s>	-0.4771213
-2e-07	g </s> <s>	-2.50515
-0.8261917	g a </s>	-0.7160033
-1.5812246	g a c	-0.7160033
-1.8509774	g a e	-0.7160033
-1.8279799	g a f	-0.7160033
-1.5050501	g a g	-0.7160033
-1.245259	g a l	-0.7160033
-0.7568896	g a m	-0.7160033
-1.0752602	g a n	-0.7160033
-1.8670147	g a o	-0.7160033
-1.3081482	g a p	-0.7160033
-1.1617463	g a r	-0.7160033
-1.2845523	g a s	-0.7160033
-0.6941758	g a t	-0.7160033
-1.7655003	g a v	-0.7160033
-1.8731847	g a z	-0.7160033
-0.8370281	g b </s>	-0.3679768
-0.9945003	g b a	-0.3679768
-1.2565216	g b d	-0.3679768
-1.05905	g b e	-0.3679768
-1.2435581	g b g	-0.3679768
-0.7307624	g b o	-0.3679768
-1.3027613	g b q	-0.3679768
-1.1449579	g b s	-0.3679768
-1.2698841	g b t	-0.3679768
-0.6259049	g c </s>	-0.4771213
-1.2364939	g c c	-0.4771213
-0.9995081	g c d	-0.4771213
-1.1433942	g c h	-0.4771213
-0.8146037	g c l	-0.4771213
-1.2620068	g c m	-0.4771213
-0.9847215	g c p	-0.4771213
-0.8047668	g d </s>	-0.39794
-0.638447	g d a	-0.39794
-0.8394648	g d b	-0.39794
-1.1197865	g d c	-0.39794
-1.077736	g d s	-0.39794
-1.0940709	g d u	-0.39794
-0.5031612	g e </s>	-1.0182248
-1.7560764	g e a	-1.0182248
-1.535168	g e b	-1.0182248
-1.7426074	g e d	-1.0182248
-1.8007004	g e e	-1.0182248
-2.1456166	g e j	-1.0182248
-1.2860504	g e m	-1.0182248
-0.7277072	g e n	-1.0182248
-1.1158651	g e o	-1.0182248
-2.053745	g e p	-1.0182248
-0.7627207	g e r	-1.0182248
-1.5476854	g e s	-1.0182248
-1.3371469	g e t	-1.0182248
-2.0995126	g e w	-1.0182248
-0.6434527	g f </s>	-0.3424227
-0.7569236	g f i	-0.3424227
-1.0311735	g f k	-0.3424227
-0.9093117	g f r	-0.3424227
-0.928815	g f t	-0.3424227
-0.6886298	g g </s>	-0.4771213
-0.8515332	g g e	-0.4771213
-0.6673667	g g i	-0.4771213
-1.2534019	g g l	-0.4771213
-0.7689942	g g r	-0.4771213
-1.2780895	g g s	-0.4771213
-1.245475	g g u	-0.4771213
-1.1618543	g h </s>	-0.5314789
-1.1465457	g h a	-0.5314789
-1.4754429	g h b	-0.5314789
-1.4444947	g h c	-0.5314789
-1.1566912	g h e	-0.5314789
-1.1515888	g h o	-0.5314789
-1.4701292	g h s	-0.5314789
-0.3426672	g h t	-0.5314789
-1.4444947	g h u	-0.5314789
-1.4973723	g h z	-0.5314789
-1.348565	g i </s>	-0.8398968
-1.756054	g i a	-0.8398968
-0.709986	g i c	-0.8398968
-1.3925075	g i e	-0.8398968
-1.8854373	g i i	-0.8398968
-1.5170366	g i l	-0.8398968
-1.7689586	g i m	-0.8398968
-0.4815505	g i n	-0.8398968
-1.5997177	g i o	-0.8398968
-1.8001805	g i r	-0.8398968
-0.8099686	g i s	-0.8398968
-1.0728623	g i t	-0.8398968
-0.5746811	g j b	-0.30103
-0.5481915	g j i	-0.30103
-0.7304708	g l </s>	-0.5882717
-0.806608	g l a	-0.5882717
-0.6904246	g l e	-0.5882717
-0.8883287	g l i	-0.5882717
-0.8164271	g l o	-0.5882717
-1.4028814	g l s	-0.5882717
-1.3832584	g l u	-0.5882717
-1.4177311	g l y	-0.5882717
-0.7889203	g m </s>	-0.5149098
-0.6664812	g m a	-0.5149098
-1.4562937	g m b	-0.5149098
-1.441615	g m c	-0.5149098
-0.7324692	g m e	-0.5149098
-1.5263469	g m f	-0.5149098
-1.4638235	g m l	-0.5149098
-1.1193426	g m p	-0.5149098
-1.3527346	g m s	-0.5149098
-1.234029	g m v	-0.5149098
-1.5263469	g m w	-0.5149098
-0.5925916	g n </s>	-0.7112045
-0.9089769	g n a	-0.7112045
-0.6735018	g n e	-0.7112045
-0.9092957	g n i	-0.7112045
-1.2090838	g n o	-0.7112045
-1.3922598	g n s	-0.7112045
-1.063483	g n u	-0.7112045
-0.698836	g o </s>	-0.6264193
-1.3862403	g o a	-0.6264193
-1.2115182	g o d	-0.6264193
-1.6418413	g o f	-0.6264193
-1.2080458	g o g	-0.6264193
-0.918203	g o l	-0.6264193
-1.2182749	g o n	-0.6264193
-1.3521644	g o o	-0.6264193
-1.5086433	g o p	-0.6264193
-0.7947623	g o r	-0.6264193
-1.480549	g o s	-0.6264193
-1.1910885	g o t	-0.6264193
-1.4109076	g o v	-0.6264193
-0.6119086	g p </s>	-0.3802112
-1.0906394	g p a	-0.3802112
-1.2054683	g p h	-0.3802112
-1.2182587	g p i	-0.3802112
-1.2777899	g p m	-0.3802112
-0.945876	g p o	-0.3802112
-1.2201171	g p p	-0.3802112
-1.0934127	g p r	-0.3802112
-1.23721	g p s	-0.3802112
-1.2820645	g p u	-0.3802112
-0.2897907	g q i	-0.30103
-1.4394753	g r </s>	-1.0894004
-0.2542084	g r a	-1.0894004
-0.7540018	g r e	-1.0894004
-1.265489	g r i	-1.0894004
-0.9492204	g r o	-1.0894004
-1.6001037	g r p	-1.0894004
-1.8635392	g r u	-1.0894004
-0.5398158	g s </s>	-0.4074853
-1.234603	g s a	-0.4074853
-1.2334787	g s h	-0.4074853
-1.3080165	g s k	-0.4074853
-1.2961817	g s m	-0.4074853
-1.3398128	g s n	-0.4074853
-0.9741965	g s o	-0.4074853
-1.2213001	g s p	-0.4074853
-0.8756428	g s t	-0.4074853
-0.6103052	g t </s>	-0.4393327
-0.5613364	g t k	-0.4393327
-1.0130119	g t m	-0.4393327
-0.9779881	g t s	-0.4393327
-0.9887805	g u </s>	-0.6283889
-0.7248007	g u a	-0.6283889
-1.3907016	g u e	-0.6283889
-0.6537551	g u i	-0.6283889
-0.7149535	g u l	-0.6283889
-1.3562157	g u m	-0.6283889
-1.2571325	g u r	-0.6283889
-1.2803624	g u t	-0.6283889
-0.2558504	g v </s>	-0.30103
-0.6177828	g w </s>	-0.30103
-0.6055349	g w a	-0.30103
-0.7612139	g w t	-0.30103
-0.1517742	g x </s>	-0.30103
-0.1179235	g y </s>	-0.69897
-1.1365978	g y b	-0.69897
-1.1248615	g y n	-0.69897
-0.7244126	g z </s>	-0.3679768
-0.4891695	g z h	-0.3679768
-0.750254	g z i	-0.3679768
-7e-07	h </s> <s>	-1.9822712
-1.304196	h a </s>	-0.8414331
-1.5687349	h a c	-0.8414331
-1.3966905	h a d	-0.8414331
-1.7470765	h a e	-0.8414331
-1.9998916	h a f	-0.8414331
-1.4283813	h a i	-0.8414331
-1.2506528	h a l	-0.8414331
-1.6342511	h a m	-0.8414331
-0.6959111	h a n	-0.8414331
-1.7564627	h a o	-0.8414331
-1.2975004	h a p	-0.8414331
-0.6012083	h a r	-0.8414331
-1.0636685	h a s	-0.8414331
-1.0714658	h a t	-0.8414331
-1.9795986	h a u	-0.8414331
-1.9308874	h a v	-0.8414331
-1.9957565	h a w	-0.8414331
-0.9445764	h b </s>	-0.39794
-0.7365731	h b a	-0.39794
-1.1251152	h b b	-0.39794
-0.6195054	h b o	-0.39794
-1.0605807	h b r	-0.39794
-1.0402075	h b u	-0.39794
-0.8687925	h c </s>	-0.4259687
-0.6864718	h c a	-0.4259687
-1.1291342	h c e	-0.4259687
-1.1614039	h c h	-0.4259687
-1.2110331	h c i	-0.4259687
-1.3042245	h c m	-0.4259687
-0.893384	h c n	-0.4259687
-1.2919872	h c p	-0.4259687
-1.2302282	h c s	-0.4259687
-0.6511172	h d </s>	-0.447158
-1.0883246	h d b	-0.447158
-1.1202724	h d f	-0.447158
-0.6574881	h d l	-0.447158
-0.8097949	h d m	-0.447158
-1.0248568	h e </s>	-0.7671559
-1.2356573	h e a	-0.7671559
-1.7436221	h e c	-0.7671559
-1.2283614	h e d	-0.7671559
-1.5312281	h e e	-0.7671559
-1.7312407	h e f	-0.7671559
-2.0416608	h e j	-0.7671559
-0.9889351	h e l	-0.7671559
-0.961161	h e m	-0.7671559
-1.2293029	h e n	-0.7671559
-1.4388953	h e o	-0.7671559
-1.9176251	h e p	-0.7671559
-0.560842	h e r	-0.7671559
-1.4031643	h e s	-0.7671559
-1.7617691	h e t	-0.7671559
-2.0254912	h e u	-0.7671559
-1.9803085	h e v	-0.7671559
-1.9782699	h e w	-0.7671559
-1.8902085	h e x	-0.7671559
-2.005549	h e y	-0.7671559
-0.756962	h f </s>	-0.30103
-0.8723003	h f m	-0.30103
-0.8668305	h f p	-0.30103
-0.8560934	h f s	-0.30103
-0.5484907	h g a	-0.30103
-0.5787152	h g u	-0.30103
-1.4554206	h i </s>	-0.8489585
-1.5420311	h i b	-0.8489585
-0.8335207	h i c	-0.8489585
-1.4015692	h i e	-0.8489585
-1.69991	h i f	-0.8489585
-1.2417244	h i g	-0.8489585
-2.0087793	h i k	-0.8489585
-1.2271141	h i l	-0.8489585
-1.8625876	h i m	-0.8489585
-0.6350881	h i n	-0.8489585
-1.6642146	h i o	-0.8489585
-0.9516712	h i p	-0.8489585
-1.4076673	h i r	-0.8489585
-1.4359232	h i s	-0.8489585
-1.1863549	h i t	-0.8489585
-1.1741195	h i v	-0.8489585
-0.2771772	h j </s>	-0.30103
-0.3944991	h k </s>	-0.30103
-0.5038884	h k i	-0.30103
-0.3393324	h l </s>	-0.4259687
-0.7979034	h l o	-0.4259687
-0.8677646	h l s	-0.4259687
-0.7281293	h m </s>	-0.3853509
-0.9042071	h m a	-0.3853509
-1.1980019	h m d	-0.3853509
-0.9166094	h m e	-0.3853509
-0.6762637	h m i	-0.3853509
-1.0374521	h m o	-0.3853509
-1.0904048	h m s	-0.3853509
-0.9941387	h n </s>	-0.5228787
-1.1657471	h n d	-0.5228787
-1.1123377	h n e	-0.5228787
-0.4966283	h n i	-0.5228787
-0.6785705	h n o	-0.5228787
-1.1569566	h n s	-0.5228787
-1.2691335	h o </s>	-0.9069504
-1.8517467	h o c	-0.9069504
-1.5204992	h o d	-0.9069504
-2.0098004	h o e	-0.9069504
-1.6234726	h o l	-0.9069504
-1.1034305	h o m	-0.9069504
-0.7007746	h o n	-0.9069504
-1.4019224	h o o	-0.9069504
-0.855544	h o p	-0.9069504
-1.2102894	h o r	-0.9069504
-1.2153692	h o s	-0.9069504
-0.8333913	h o t	-0.9069504
-0.9894421	h o u	-0.9069504
-1.685226	h o w	-0.9069504
-1.3534076	h p +	-0.4586378
-0.5493243	h p </s>	-0.4586378
-0.8515087	h p c	-0.4586378
-0.9141085	h p e	-0.4586378
-1.2276903	h p i	-0.4586378
-1.3576545	h p j	-0.4586378
-1.2779489	h p m	-0.4586378
-1.2815157	h p u	-0.4586378
-0.1527386	h q l	-0.4771213
-0.877801	h r </s>	-0.5149098
-1.5234491	h r b	-0.5149098
-1.4369827	h r d	-0.5149098
-0.7919958	h r e	-0.5149098
-1.5197133	h r g	-0.5149098
-0.9490981	h r i	-0.5149098
-1.0356626	h r m	-0.5149098
-0.7747149	h r o	-0.5149098
-1.4590566	h r p	-0.5149098
-1.1924021	h r s	-0.5149098
-1.4789133	h r v	-0.5149098
-0.4438943	h s </s>	-0.4259687
-1.1932939	h s b	-0.4259687
-1.1611606	h s d	-0.4259687
-0.8013859	h s e	-0.4259687
-1.1056506	h s p	-0.4259687
-1.190361	h s r	-0.4259687
-0.7252597	h t </s>	-0.5542872
-1.5399256	h t c	-0.5542872
-1.6135741	h t g	-0.5542872
-1.4915079	h t h	-0.5542872
-1.1590196	h t i	-0.5542872
-0.7195172	h t m	-0.5542872
-1.541581	h t p	-0.5542872
-1.3534135	h t r	-0.5542872
-1.4656878	h t s	-0.5542872
-0.8392461	h t t	-0.5542872
-1.1396402	h t w	-0.5542872
-1.5111591	h t y	-0.5542872
-1.1888391	h u </s>	-0.4586378
-0.6287436	h u a	-0.4586378
-0.8419802	h u b	-0.4586378
-0.9966985	h u d	-0.4586378
-1.1864646	h u m	-0.4586378
-1.2392779	h u p	-0.4586378
-1.0873814	h u r	-0.4586378
-1.1288872	h u s	-0.4586378
-0.2476019	h v a	-0.30103
-0.240752	h w </s>	-0.30103
-0.4829625	h y </s>	-0.69897
-0.7619204	h y b	-0.69897
-1.4102737	h y m	-0.69897
-0.6096302	h y p	-0.69897
-1.4524714	h y r	-0.69897
-0.9448256	h y s	-0.69897
-0.3819076	h z </s>	-0.4259687
-0.8650561	h z b	-0.4259687
-0.8857736	h z s	-0.4259687
-4e-07	i </s> <s>	-2.2278867
-0.5985443	i a </s>	-0.8822398
-2.0447268	i a a	-0.8822398
-1.5477061	i a b	-0.8822398
-1.7609357	i a c	-0.8822398
-1.8583585	i a d	-0.8822398
-1.9198514	i a g	-0.8822398
-2.0323247	i a k	-0.8822398
-0.5876354	i a l	-0.8822398
-1.6556786	i a m	-0.8822398
-0.8153812	i a n	-0.8822398
-1.8093532	i a p	-0.8822398
-1.6943195	i a r	-0.8822398
-1.4713711	i a s	-0.8822398
-0.913425	i a t	-0.8822398
-1.9989947	i a u	-0.8822398
-2.0143613	i a w	-0.8822398
-0.9257344	i b </s>	-0.6264193
-0.91901	i b a	-0.6264193
-1.374733	i b c	-0.6264193
-0.8828334	i b e	-0.6264193
-1.7194975	i b f	-0.6264193
-1.0945583	i b i	-0.6264193
-0.9573534	i b l	-0.6264193
-1.234947	i b m	-0.6264193
-1.3776745	i b o	-0.6264193
-1.1768599	i b r	-0.6264193
-1.5028019	i b s	-0.6264193
-0.9081123	i b u	-0.6264193
-1.6989185	i b x	-0.6264193
-0.6229069	i c </s>	-1.1717265
-0.7012483	i c a	-1.1717265
-1.9717544	i c b	-1.1717265
-2.0538782	i c c	-1.1717265
-2.1124445	i c d	-1.1717265
-0.9196101	i c e	-1.1717265
-2.4082513	i c f	-1.1717265
-2.4263219	i c g	-1.1717265
-1.7359112	i c h	-1.1717265
-1.4702245	i c i	-1.1717265
-1.4063615	i c k	-1.1717265
-1.8077872	i c l	-1.1717265
-2.0880623	i c m	-1.1717265
-1.3395247	i c o	-1.1717265
-1.6598062	i c p	-1.1717265
-1.2688461	i c r	-1.1717265
-0.8826213	i c s	-1.1717265
-1.5360035	i c t	-1.1717265
-2.299251	i c u	-1.1717265
-2.4190031	i c y	-1.1717265
-0.5491598	i d </s>	-0.871427
-1.0671045	i d a	-0.871427
-1.9391004	i d c	-0.871427
-1.7124227	i d d	-0.871427
-0.5647538	i d e	-0.871427
-1.3598531	i d g	-0.871427
-1.3037871	i d i	-0.871427
-1.7218183	i d l	-0.871427
-1.6703756	i d m	-0.871427
-1.6187312	i d o	-0.871427
-1.7147526	i d p	-0.871427
-1.1903114	i d s	-0.871427
-1.7290008	i d t	-0.871427
-1.6682715	i d u	-0.871427
-1.733856	i d w	-0.871427
-2.0254681	i d x	-0.871427
-0.7916242	i e </s>	-0.845098
-1.891616	i e b	-0.845098
-1.7413048	i e c	-0.845098
-1.4300221	i e d	-0.845098
-1.4713699	i e e	-0.845098
-1.918909	i e g	-0.845098
-1.1650642	i e l	-0.845098
-1.7991655	i e m	-0.845098
-0.9002497	i e n	-0.845098
-0.982054	i e r	-0.845098
-0.7093561	i e s	-0.845098
-1.4209782	i e t	-0.845098
-1.6573781	i e v	-0.845098
-0.8719365	i e w	-0.845098
-1.1224064	i f </s>	-0.6419315
-1.2931713	i f a	-0.6419315
-1.62576	i f c	-0.6419315
-0.9182907	i f e	-0.6419315
-1.3169721	i f f	-0.6419315
-0.4909286	i f i	-0.6419315
-1.5135126	i f l	-0.6419315
-1.4058643	i f m	-0.6419315
-1.0738649	i f o	-0.6419315
-1.471636	i f r	-0.6419315
-1.6187017	i f s	-0.6419315
-0.9947451	i f t	-0.6419315
-1.7297893	i f y	-0.6419315
-0.9662034	i g </s>	-0.7490489
-1.1481062	i g a	-0.7490489
-1.6544561	i g b	-0.7490489
-1.8988024	i g c	-0.7490489
-1.9315098	i g d	-0.7490489
-0.9452139	i g e	-0.7490489
-1.952386	i g f	-0.7490489
-1.6473351	i g g	-0.7490489
-0.7151781	i g h	-0.7490489
-1.367884	i g i	-0.7490489
-1.3531869	i g m	-0.7490489
-0.7854573	i g n	-0.7490489
-1.5582487	i g o	-0.7490489
-1.8988024	i g p	-0.7490489
-1.0276279	i g r	-0.7490489
-1.9453152	i g t	-0.7490489
-1.8290939	i g u	-0.7490489
-1.9115914	i g y	-0.7490489
-0.3432426	i h </s>	-0.39794
-0.5918804	i h o	-0.39794
-0.3800785	i i </s>	-0.552842
-1.2955984	i i a	-0.552842
-1.1698471	i i c	-0.552842
-1.0868261	i i i	-0.552842
-1.2821617	i i l	-0.552842
-1.0001049	i i s	-0.552842
-1.1954908	i i t	-0.552842
-0.5555966	i j </s>	-0.30103
-0.5481915	i j i	-0.30103
-0.7960857	i k </s>	-0.60206
-1.244934	i k a	-0.60206
-0.5321902	i k e	-0.60206
-0.4902986	i k i	-0.60206
-1.315413	i k u	-0.60206
-1.3416995	i k v	-0.60206
-0.8081034	i l </s>	-0.9606293
-1.7262665	i l a	-0.9606293
-2.1088317	i l b	-0.9606293
-1.121525	i l d	-0.9606293
-0.730504	i l e	-0.9606293
-0.6330412	i l i	-0.9606293
-1.8055782	i l k	-0.9606293
-0.8370911	i l l	-0.9606293
-1.8036258	i l m	-0.9606293
-1.406726	i l o	-0.9606293
-2.0604856	i l p	-0.9606293
-1.4909353	i l s	-0.9606293
-1.5925327	i l t	-0.9606293
-2.089595	i l v	-0.9606293
-1.6121393	i l y	-0.9606293
-0.75469	i m </s>	-0.8692317
-0.6405061	i m a	-0.8692317
-1.5198746	i m b	-0.8692317
-1.8954479	i m c	-0.8692317
-1.978539	i m d	-0.8692317
-0.7384446	i m e	-0.8692317
-1.9934433	i m g	-0.8692317
-1.3253129	i m i	-0.8692317
-1.9235641	i m l	-0.8692317
-1.8662046	i m m	-0.8692317
-1.3294018	i m o	-0.8692317
-0.931303	i m p	-0.8692317
-1.3626897	i m s	-0.8692317
-1.308026	i m u	-0.8692317
-2.0248802	i m x	-0.8692317
-1.2230175	i n </s>	-1.4217535
-1.3596672	i n a	-1.4217535
-2.7182328	i n b	-1.4217535
-1.5046714	i n c	-1.4217535
-1.2544352	i n d	-1.4217535
-1.1207703	i n e	-1.4217535
-1.478712	i n f	-1.4217535
-0.4098542	i n g	-1.4217535
-2.7429195	i n h	-1.4217535
-1.395503	i n i	-1.4217535
-1.434214	i n k	-1.4217535
-2.7103061	i n m	-1.4217535
-2.0344025	i n n	-1.4217535
-2.0078937	i n o	-1.4217535
-2.4190064	i n p	-1.4217535
-2.4567468	i n q	-1.4217535
-2.4502246	i n r	-1.4217535
-1.3760316	i n s	-1.4217535
-0.9201048	i n t	-1.4217535
-1.8980634	i n u	-1.4217535
-1.7954086	i n v	-1.4217535
-2.1523347	i n x	-1.4217535
-1.1476801	i o </s>	-1.3125679
-2.0203741	i o c	-1.3125679
-2.0500369	i o d	-1.3125679
-2.3861855	i o e	-1.3125679
-2.278351	i o g	-1.3125679
-1.8654251	i o l	-1.3125679
-1.9730976	i o m	-1.3125679
-0.1140646	i o n	-1.3125679
-1.9943471	i o p	-1.3125679
-1.4809109	i o r	-1.3125679
-1.3923273	i o s	-1.3125679
-2.0213	i o t	-1.3125679
-2.3714079	i o v	-1.3125679
-0.7036785	i p </s>	-0.795052
-1.2146898	i p a	-0.795052
-1.4522891	i p c	-0.795052
-2.0172171	i p d	-0.795052
-1.5036608	i p e	-0.795052
-1.5108646	i p h	-0.795052
-1.8274369	i p i	-0.795052
-2.0799115	i p k	-0.795052
-1.1027643	i p l	-0.795052
-1.3723118	i p m	-0.795052
-1.3762042	i p o	-0.795052
-1.6495031	i p p	-0.795052
-1.7971598	i p q	-0.795052
-1.2743751	i p r	-0.795052
-0.9464551	i p s	-0.795052
-0.7771445	i p t	-0.795052
-1.7137242	i p u	-0.795052
-1.7864702	i p v	-0.795052
-2.0904137	i p w	-0.795052
-1.7998738	i p x	-0.795052
-1.9704323	i p y	-0.795052
-0.8691134	i q </s>	-0.4393327
-0.9560206	i q c	-0.4393327
-0.9980819	i q i	-0.4393327
-0.3156156	i q u	-0.4393327
-0.9785331	i r </s>	-0.8502377
-1.1142222	i r a	-0.8502377
-1.2878936	i r c	-0.8502377
-1.2914353	i r d	-0.8502377
-0.3614937	i r e	-0.8502377
-1.1410451	i r i	-0.8502377
-1.8007165	i r m	-0.8502377
-1.2182104	i r o	-0.8502377
-1.57267	i r p	-0.8502377
-1.8023608	i r s	-0.8502377
-1.2681913	i r t	-0.8502377
-1.8140488	i r u	-0.8502377
-0.6201859	i s </s>	-1.083184
-1.4530883	i s a	-1.083184
-1.2308355	i s c	-1.083184
-1.7037852	i s d	-1.083184
-1.2054528	i s e	-1.083184
-2.0098118	i s f	-1.083184
-2.3011823	i s g	-1.083184
-1.3095978	i s h	-1.083184
-1.0323341	i s i	-1.083184
-1.708711	i s k	-1.083184
-1.8165577	i s m	-1.083184
-2.2956794	i s n	-1.083184
-1.3017641	i s o	-1.083184
-1.4483996	i s p	-1.083184
-1.2908127	i s s	-1.083184
-0.6745189	i s t	-1.083184
-1.5241863	i s u	-1.083184
-2.2848785	i s w	-1.083184
-0.7731565	i t </s>	-1.0910805
-1.0371809	i t a	-1.0910805
-2.3757589	i t b	-1.0910805
-1.6057238	i t c	-1.0910805
-0.8692678	i t e	-1.0910805
-2.3790608	i t g	-1.0910805
-1.5281307	i t h	-1.0910805
-0.8282025	i t i	-1.0910805
-2.3692294	i t k	-1.0910805
-1.8984915	i t l	-1.0910805
-1.7743573	i t m	-1.0910805
-2.3533228	i t n	-1.0910805
-1.383557	i t o	-1.0910805
-1.8802465	i t p	-1.0910805
-1.6662783	i t r	-1.0910805
-1.378862	i t s	-1.0910805
-1.5443127	i t t	-1.0910805
-1.6617458	i t u	-1.0910805
-2.3596157	i t v	-1.0910805
-2.331989	i t w	-1.0910805
-0.7546279	i t y	-1.0910805
