\data\
ngram 1=30
ngram 2=718
ngram 3=5862

\1-grams:
-1.4771213	#	0.0
-1.4771213	+	0.0
-1.4771213	</s>	0.0
-1.4771213	<s>	0.0
-1.4771213	a	0.0
-1.4771213	b	0.0
-1.4771213	c	0.0
-1.4771213	d	0.0
-1.4771213	e	0.0
-1.4771213	f	0.0
-1.4771213	g	0.0
-1.4771213	h	0.0
-1.4771213	i	0.0
-1.4771213	j	0.0
-1.4771213	k	0.0
-1.4771213	l	0.0
-1.4771213	m	0.0
-1.4771213	n	0.0
-1.4771213	o	0.0
-1.4771213	p	0.0
-1.4771213	q	0.0
-1.4771213	r	0.0
-1.4771213	s	0.0
-1.4771213	t	0.0
-1.4771213	u	0.0
-1.4771213	v	0.0
-1.4771213	w	0.0
-1.4771213	x	0.0
-1.4771213	y	0.0
-1.4771213	z	0.0

\2-grams:
-0.8037054	# #	-0.3679768
-0.5228787	# </s>	-0.3679768
-0.8037054	# x	-0.3679768
-1.1529675	+ +	-0.6300887
-0.4737415	+ </s>	-0.6300887
-1.2621119	+ a	-0.6300887
-1.1529675	+ c	-0.6300887
-1.6300887	+ d	-0.6300887
-1.2621119	+ h	-0.6300887
-1.40824	+ i	-0.6300887
-1.6300887	+ j	-0.6300887
-1.6300887	+ m	-0.6300887
-1.6300887	+ n	-0.6300887
-1.2621119	+ p	-0.6300887
-1.6300887	+ t	-0.6300887
-1.6300887	+ u	-0.6300887
-1.40824	+ w	-0.6300887
-1.6300887	+ x	-0.6300887
-6.62e-05	</s> <s>	-3.8022947
-3.6320476	<s> #	-2.6419184
-2.9291913	<s> +	-2.6419184
-0.3019555	<s> <s>	-2.6419184
-1.4472924	<s> a	-2.6419184
-1.6944396	<s> b	-2.6419184
-1.3371852	<s> c	-2.6419184
-1.6088183	<s> d	-2.6419184
-1.6419683	<s> e	-2.6419184
-1.7639384	<s> f	-2.6419184
-1.8033588	<s> g	-2.6419184
-1.8348813	<s> h	-2.6419184
-1.5806132	<s> i	-2.6419184
-2.0216507	<s> j	-2.6419184
-2.2068726	<s> k	-2.6419184
-1.8011923	<s> l	-2.6419184
-1.4453833	<s> m	-2.6419184
-1.8419444	<s> n	-2.6419184
-1.7580286	<s> o	-2.6419184
-1.4482501	<s> p	-2.6419184
-2.3486956	<s> q	-2.6419184
-1.7169859	<s> r	-2.6419184
-1.3070719	<s> s	-2.6419184
-1.5767294	<s> t	-2.6419184
-2.0874222	<s> u	-2.6419184
-1.9312273	<s> v	-2.6419184
-1.8842955	<s> w	-2.6419184
-2.3803137	<s> x	-2.6419184
-2.6576757	<s> y	-2.6419184
-2.5606621	<s> z	-2.6419184
-2.8738819	a +	-2.0214846
-0.9347012	a </s>	-2.0214846
-2.266336	a a	-2.0214846
-1.5294563	a b	-2.0214846
-1.140399	a c	-2.0214846
-1.368502	a d	-2.0214846
-2.1478043	a e	-2.0214846
-1.9643984	a f	-2.0214846
-1.555182	a g	-2.0214846
-2.7755022	a h	-2.0214846
-1.656175	a i	-2.0214846
-2.7755022	a j	-2.0214846
-2.0718623	a k	-2.0214846
-1.0169586	a l	-2.0214846
-1.3515924	a m	-2.0214846
-0.9945236	a n	-2.0214846
-2.4298901	a o	-2.0214846
-1.2513342	a p	-2.0214846
-2.6953439	a q	-2.0214846
-1.0357802	a r	-2.0214846
-1.1612893	a s	-2.0214846
-0.9398116	a t	-2.0214846
-1.8460833	a u	-2.0214846
-1.6837877	a v	-2.0214846
-1.9643984	a w	-2.0214846
-2.0383526	a x	-2.0214846
-1.8460833	a y	-2.0214846
-2.5176291	a z	-2.0214846
-2.3104953	b +	-1.458098
-0.8885012	b </s>	-1.458098
-0.9278373	b a	-1.458098
-1.7029494	b b	-1.458098
-1.5641514	b c	-1.458098
-1.651595	b d	-1.458098
-1.0483259	b e	-1.458098
-2.3104953	b f	-1.458098
-1.628029	b g	-1.458098
-2.2121156	b h	-1.458098
-0.9865269	b i	-1.458098
-2.0058003	b j	-1.458098
-2.4378946	b k	-1.458098
-1.1063753	b l	-1.458098
-1.7935456	b m	-1.458098
-2.2121156	b n	-1.458098
-1.0079956	b o	-1.458098
-1.761201	b p	-1.458098
-2.3104953	b q	-1.458098
-1.326235	b r	-1.458098
-1.2246184	b s	-1.458098
-1.8665035	b t	-1.458098
-1.2431281	b u	-1.458098
-2.2121156	b v	-1.458098
-2.3104953	b w	-1.458098
-2.1319573	b x	-1.458098
-1.7935456	b y	-1.458098
-2.6189493	b z	-1.458098
-3.044107	c #	-1.8832557
-2.4309581	c +	-1.8832557
-0.8159546	c </s>	-1.8832557
-0.9940875	c a	-1.8832557
-2.0531867	c b	-1.8832557
-1.4795634	c c	-1.8832557
-1.8690153	c d	-1.8832557
-1.0657533	c e	-1.8832557
-2.156257	c f	-1.8832557
-2.1281071	c g	-1.8832557
-1.1430811	c h	-1.8832557
-1.3013007	c i	-1.8832557
-2.735653	c j	-1.8832557
-1.4919845	c k	-1.8832557
-1.5246864	c l	-1.8832557
-1.6320232	c m	-1.8832557
-2.0767528	c n	-1.8832557
-0.8991573	c o	-1.8832557
-1.6234117	c p	-1.8832557
-2.4309581	c q	-1.8832557
-1.3220975	c r	-1.8832557
-1.3484442	c s	-1.8832557
-1.090031	c t	-1.8832557
-1.5827431	c u	-1.8832557
-2.3333188	c v	-1.8832557
-3.044107	c w	-1.8832557
-2.8630524	c x	-1.8832557
-2.1863587	c y	-1.8832557
-2.6478549	d +	-1.6788892
-0.623256	d </s>	-1.6788892
-1.1469374	d a	-1.6788892
-1.593057	d b	-1.6788892
-1.5800532	d c	-1.6788892
-1.7698088	d d	-1.6788892
-0.8386436	d e	-1.6788892
-1.9088558	d f	-1.6788892
-1.9088558	d g	-1.6788892
-2.0728264	d h	-1.6788892
-0.9230143	d i	-1.6788892
-2.4200568	d j	-1.6788892
-2.1146177	d k	-1.6788892
-1.7698088	d l	-1.6788892
-1.4777956	d m	-1.6788892
-2.034706	d n	-1.6788892
-1.2596067	d o	-1.6788892
-1.7698088	d p	-1.6788892
-2.5191883	d q	-1.6788892
-1.3950856	d r	-1.6788892
-1.3867972	d s	-1.6788892
-1.8113998	d t	-1.6788892
-1.4880389	d u	-1.6788892
-1.9996632	d v	-1.6788892
-1.9088558	d w	-1.6788892
-2.1146177	d x	-1.6788892
-1.8337911	d y	-1.6788892
-3.2455552	e +	-2.0847039
-0.6824835	e </s>	-2.0847039
-1.398536	e a	-2.0847039
-1.7329812	e b	-2.0847039
-1.2625047	e c	-2.0847039
-1.3361467	e d	-2.0847039
-1.6514295	e e	-2.0847039
-2.0704635	e f	-2.0847039
-1.8248598	e g	-2.0847039
-2.4931094	e h	-2.0847039
-2.1528588	e i	-2.0847039
-2.6324062	e j	-2.0847039
-2.5808484	e k	-2.0847039
-1.3252159	e l	-2.0847039
-1.3890555	e m	-2.0847039
-1.0214063	e n	-2.0847039
-1.8890678	e o	-2.0847039
-1.7062195	e p	-2.0847039
-2.3577052	e q	-2.0847039
-0.8125859	e r	-2.0847039
-1.0879213	e s	-2.0847039
-1.2865138	e t	-2.0847039
-2.2546349	e u	-2.0847039
-1.8990673	e v	-2.0847039
-1.9763644	e w	-2.0847039
-1.5877084	e x	-2.0847039
-2.1180036	e y	-2.0847039
-2.9371012	e z	-2.0847039
-0.982798	f </s>	-1.3935752
-1.1225084	f a	-1.3935752
-2.3266284	f b	-1.3935752
-1.5751294	f c	-1.3935752
-1.8293038	f d	-1.3935752
-1.1323123	f e	-1.3935752
-1.2713593	f f	-1.3935752
-2.5185139	f g	-1.3935752
-2.5185139	f h	-1.3935752
-0.7253446	f i	-1.3935752
-2.3266284	f k	-1.3935752
-1.2448697	f l	-1.3935752
-1.6665765	f m	-1.3935752
-0.8663751	f o	-1.3935752
-1.7019044	f p	-1.3935752
-2.5185139	f q	-1.3935752
-1.1962946	f r	-1.3935752
-1.5484772	f s	-1.3935752
-1.2199034	f t	-1.3935752
-1.5233664	f u	-1.3935752
-2.5185139	f v	-1.3935752
-2.3266284	f w	-1.3935752
-2.0925452	f x	-1.3935752
-2.3266284	f y	-1.3935752
-2.711141	g +	-1.5585308
-0.4728307	g </s>	-1.5585308
-1.2052773	g a	-1.5585308
-1.8167083	g b	-1.5585308
-1.8468798	g c	-1.5585308
-2.0922675	g d	-1.5585308
-0.883024	g e	-1.5585308
-2.2190426	g f	-1.5585308
-1.8167083	g g	-1.5585308
-1.6494504	g h	-1.5585308
-1.1331657	g i	-1.5585308
-2.711141	g j	-1.5585308
-2.39883	g k	-1.5585308
-1.6114967	g l	-1.5585308
-1.6300591	g m	-1.5585308
-1.5142234	g n	-1.5585308
-1.3676805	g o	-1.5585308
-1.8793049	g p	-1.5585308
-1.0508748	g r	-1.5585308
-1.7134328	g s	-1.5585308
-2.0405046	g t	-1.5585308
-1.5765948	g u	-1.5585308
-2.5274966	g v	-1.5585308
-2.2996985	g w	-1.5585308
-2.711141	g x	-1.5585308
-1.9143476	g y	-1.5585308
-2.39883	g z	-1.5585308
-0.8281836	h </s>	-1.4629966
-0.8932327	h a	-1.4629966
-1.7878295	h b	-1.4629966
-1.5860094	h c	-1.4629966
-1.7200098	h d	-1.4629966
-0.8704498	h e	-1.4629966
-2.0950198	h f	-1.4629966
-2.27736	h g	-1.4629966
-0.8445998	h i	-1.4629966
-2.5976952	h j	-1.4629966
-2.5976952	h k	-1.4629966
-2.1766899	h l	-1.4629966
-1.8261745	h m	-1.4629966
-1.6896979	h n	-1.4629966
-0.861661	h o	-1.4629966
-1.6613643	h p	-1.4629966
-2.27736	h q	-1.4629966
-1.4659016	h r	-1.4629966
-1.7200098	h s	-1.4629966
-1.4659016	h t	-1.4629966
-1.7200098	h u	-1.4629966
-2.5976952	h v	-1.4629966
-2.5976952	h w	-1.4629966
-1.4659016	h y	-1.4629966
-2.0950198	h z	-1.4629966
-1.1827674	i </s>	-2.0136173
-1.4242056	i a	-2.0136173
-1.8025166	i b	-2.0136173
-1.0042294	i c	-2.0136173
-1.4242056	i d	-2.0136173
-1.5212192	i e	-2.0136173
-1.7927348	i f	-2.0136173
-1.5647393	i g	-2.0136173
-2.754785	i h	-2.0136173
-2.1685193	i i	-2.0136173
-3.1662275	i j	-2.0136173
-2.1921281	i k	-2.0136173
-1.3554292	i l	-2.0136173
-1.4586573	i m	-2.0136173
-0.7086643	i n	-2.0136173
-1.0454805	i o	-2.0136173
-1.4079532	i p	-2.0136173
-2.606132	i q	-2.0136173
-1.6463305	i r	-2.0136173
-1.1398448	i s	-2.0136173
-1.0704161	i t	-2.0136173
-2.2170944	i u	-2.0136173
-1.4454156	i v	-2.0136173
-2.8539165	i w	-2.0136173
-1.8898867	i x	-2.0136173
-2.8539165	i y	-2.0136173
-1.9840833	i z	-2.0136173
-1.1297912	j </s>	-0.90309
-0.759035	j a	-0.90309
-1.3549054	j b	-0.90309
-1.6167832	j c	-0.90309
-1.3549054	j d	-0.90309
-1.0261028	j e	-0.90309
-1.7174534	j f	-0.90309
-1.8487323	j h	-0.90309
-1.2662679	j i	-0.90309
-2.0377886	j j	-0.90309
-1.8487323	j k	-0.90309
-1.7174534	j l	-0.90309
-1.6167832	j m	-0.90309
-1.7174534	j n	-0.90309
-1.1297912	j o	-0.90309
-1.4070834	j p	-0.90309
-1.6167832	j q	-0.90309
-1.6167832	j r	-0.90309
-1.1297912	j s	-0.90309
-1.7174534	j t	-0.90309
-1.3083292	j u	-0.90309
-1.8487323	j v	-0.90309
-1.8487323	j w	-0.90309
-2.0377886	j y	-0.90309
-2.0377886	j z	-0.90309
-2.370227	k +	-1.2355284
-0.4972765	k </s>	-1.2355284
-1.2748991	k a	-1.2355284
-1.7988358	k b	-1.2355284
-2.370227	k c	-1.2355284
-1.7988358	k d	-1.2355284
-0.7711383	k e	-1.2355284
-1.8675517	k f	-1.2355284
-1.9492217	k g	-1.2355284
-0.8944238	k i	-1.2355284
-2.1811708	k j	-1.2355284
-2.0498919	k k	-1.2355284
-1.7395218	k l	-1.2355284
-1.8675517	k m	-1.2355284
-2.1811708	k n	-1.2355284
-1.525129	k o	-1.2355284
-1.6873438	k p	-1.2355284
-1.8675517	k r	-1.2355284
-1.2562837	k s	-1.2355284
-1.6407677	k t	-1.2355284
-1.5603614	k u	-1.2355284
-1.9492217	k v	-1.2355284
-2.1811708	k w	-1.2355284
-2.1811708	k x	-1.2355284
-2.0498919	k y	-1.2355284
-2.910491	l +	-1.7665844
-0.6528124	l </s>	-1.7665844
-0.9832673	l a	-1.7665844
-2.3448118	l b	-1.7665844
-1.8621047	l c	-1.7665844
-1.5809478	l d	-1.7665844
-0.7890953	l e	-1.7665844
-2.4131664	l f	-1.7665844
-2.107229	l g	-1.7665844
-2.910491	l h	-1.7665844
-0.8895972	l i	-1.7665844
-2.910491	l j	-1.7665844
-2.0720917	l k	-1.7665844
-1.1998901	l l	-1.7665844
-1.9810721	l m	-1.7665844
-2.4943262	l n	-1.7665844
-1.0484449	l o	-1.7665844
-1.7859402	l p	-1.7665844
-2.4943262	l r	-1.7665844
-1.6268668	l s	-1.7665844
-1.4925451	l t	-1.7665844
-1.4925451	l u	-1.7665844
-2.0395857	l v	-1.7665844
-2.7241806	l w	-1.7665844
-2.594221	l x	-1.7665844
-1.6149239	l y	-1.7665844
-2.913535	m +	-1.7609248
-0.7484001	m </s>	-1.7609248
-0.8068611	m a	-1.7609248
-1.6252622	m b	-1.7609248
-1.5700746	m c	-1.7609248
-1.9158268	m d	-1.7609248
-0.8326428	m e	-1.7609248
-2.1167417	m f	-1.7609248
-2.1167417	m g	-1.7609248
-2.5020925	m h	-1.7609248
-1.0720438	m i	-1.7609248
-2.5020925	m k	-1.7609248
-1.6884979	m l	-1.7609248
-1.4771213	m m	-1.7609248
-2.2428986	m n	-1.7609248
-1.1171068	m o	-1.7609248
-1.1512909	m p	-1.7609248
-2.1966534	m q	-1.7609248
-2.1167417	m r	-1.7609248
-1.2737341	m s	-1.7609248
-1.7960893	m t	-1.7609248
-1.5211158	m u	-1.7609248
-2.0816989	m v	-1.7609248
-2.1966534	m w	-1.7609248
-2.5020925	m x	-1.7609248
-2.1167417	m y	-1.7609248
-2.913535	m z	-1.7609248
-0.7529654	n </s>	-1.8943571
-1.1957089	n a	-1.8943571
-2.1827061	n b	-1.8943571
-1.2616374	n c	-1.8943571
-1.2222592	n d	-1.8943571
-1.0706897	n e	-1.8943571
-1.864823	n f	-1.8943571
-0.8604868	n g	-1.8943571
-2.5548688	n h	-1.8943571
-1.2021959	n i	-1.8943571
-2.6355248	n j	-1.8943571
-1.808525	n k	-1.8943571
-2.1827061	n l	-1.8943571
-2.2151311	n m	-1.8943571
-1.808525	n n	-1.8943571
-1.4812437	n o	-1.8943571
-2.0268678	n p	-1.8943571
-2.6355248	n q	-1.8943571
-2.4868718	n r	-1.8943571
-1.1737385	n s	-1.8943571
-0.8961301	n t	-1.8943571
-1.8219302	n u	-1.8943571
-1.864823	n v	-1.8943571
-2.5548688	n w	-1.8943571
-2.3300857	n x	-1.8943571
-2.1243237	n y	-1.8943571
-2.4868718	n z	-1.8943571
-1.0832633	o </s>	-1.943934
-1.6771972	o a	-1.943934
-1.7230514	o b	-1.943934
-1.3545223	o c	-1.943934
-1.5008159	o d	-1.943934
-2.0348536	o e	-1.943934
-1.7041249	o f	-1.943934
-1.5066533	o g	-1.943934
-2.3796625	o h	-1.943934
-1.7966585	o i	-1.943934
-2.4776706	o j	-1.943934
-2.147411	o k	-1.943934
-1.3149777	o l	-1.943934
-1.1852463	o m	-1.943934
-0.7542254	o n	-1.943934
-1.4782207	o o	-1.943934
-1.275272	o p	-1.943934
-2.9128997	o q	-1.943934
-0.8608828	o r	-1.943934
-1.2233153	o s	-1.943934
-1.34632	o t	-1.943934
-1.3934791	o u	-1.943934
-1.9296935	o v	-1.943934
-1.66858	o w	-1.943934
-2.0348536	o x	-1.943934
-2.2322829	o y	-1.943934
-2.9128997	o z	-1.943934
-2.5262338	p +	-1.7850661
-0.7196385	p </s>	-1.7850661
-1.0435351	p a	-1.7850661
-2.1408829	p b	-1.7850661
-1.527121	p c	-1.7850661
-1.8565943	p d	-1.7850661
-0.9992092	p e	-1.7850661
-2.1408829	p f	-1.7850661
-1.9175768	p g	-1.7850661
-1.3138831	p h	-1.7850661
-1.3910037	p i	-1.7850661
-2.7540318	p j	-1.7850661
-2.3188027	p k	-1.7850661
-1.2125387	p l	-1.7850661
-1.545257	p m	-1.7850661
-2.2670398	p n	-1.7850661
-1.1675997	p o	-1.7850661
-1.3305035	p p	-1.7850661
-2.2670398	p q	-1.7850661
-1.0377406	p r	-1.7850661
-1.3910037	p s	-1.7850661
-1.3782106	p t	-1.7850661
-1.5839725	p u	-1.7850661
-2.1790033	p v	-1.7850661
-2.4455778	p w	-1.7850661
-2.3775807	p x	-1.7850661
-1.7407586	p y	-1.7850661
-0.8181564	q </s>	-0.9877655
-1.3622245	q a	-0.9877655
-1.6867355	q b	-0.9877655
-1.2177322	q c	-0.9877655
-1.8280647	q d	-0.9877655
-1.3622245	q e	-0.9877655
-1.8280647	q f	-0.9877655
-2.0389181	q g	-0.9877655
-2.0389181	q h	-0.9877655
-1.02293	q l	-0.9877655
-1.3622245	q m	-0.9877655
-2.0389181	q n	-0.9877655
-1.5802802	q o	-0.9877655
-1.5802802	q p	-0.9877655
-2.0389181	q q	-0.9877655
-1.4234941	q s	-0.9877655
-1.5802802	q t	-0.9877655
-0.4979633	q u	-0.9877655
-0.7831886	r </s>	-1.9512628
-0.8907586	r a	-1.9512628
-2.1141926	r b	-1.9512628
-1.4748845	r c	-1.9512628
-1.5747794	r d	-1.9512628
-0.7935194	r e	-1.9512628
-2.1657504	r f	-1.9512628
-2.046783	r g	-1.9512628
-2.2919074	r h	-1.9512628
-1.0300433	r i	-1.9512628
-3.0951694	r j	-1.9512628
-1.5963667	r k	-1.9512628
-2.1141926	r l	-1.9512628
-1.5097086	r m	-1.9512628
-1.8115451	r n	-1.9512628
-1.0162467	r o	-1.9512628
-1.6513478	r p	-1.9512628
-2.6790045	r q	-1.9512628
-2.0681111	r r	-1.9512628
-1.5678157	r s	-1.9512628
-1.3136704	r t	-1.9512628
-1.589051	r u	-1.9512628
-1.7656262	r v	-1.9512628
-2.4184757	r w	-1.9512628
-2.7788994	r x	-1.9512628
-1.5410264	r y	-1.9512628
-2.9407089	s +	-1.9609123
-0.5250148	s </s>	-1.9609123
-1.4590057	s a	-1.9609123
-2.1084904	s b	-1.9609123
-1.3669409	s c	-1.9609123
-1.7752757	s d	-1.9609123
-1.0697466	s e	-1.9609123
-2.2057636	s f	-1.9609123
-2.2057636	s g	-1.9609123
-1.4398988	s h	-1.9609123
-1.1529587	s i	-1.9609123
-3.1217635	s j	-1.9609123
-1.8177487	s k	-1.9609123
-2.0476031	s l	-1.9609123
-1.6926241	s m	-1.9609123
-2.2339135	s n	-1.9609123
-1.2943497	s o	-1.9609123
-1.3669409	s p	-1.9609123
-2.0476031	s q	-1.9609123
-2.1793278	s r	-1.9609123
-1.2014243	s s	-1.9609123
-0.9413015	s t	-1.9609123
-1.5511401	s u	-1.9609123
-2.2963598	s v	-1.9609123
-2.2057636	s w	-1.9609123
-2.7149298	s x	-1.9609123
-1.8904346	s y	-1.9609123
-2.9407089	s z	-1.9609123
-3.11354	t +	-1.9526887
-0.7505768	t </s>	-1.9526887
-1.0695683	t a	-1.9526887
-2.3610941	t b	-1.9526887
-1.6679895	t c	-1.9526887
-2.0790083	t d	-1.9526887
-0.8596007	t e	-1.9526887
-2.2557917	t f	-1.9526887
-2.3610941	t g	-1.9526887
-1.4811176	t h	-1.9526887
-0.7797801	t i	-1.9526887
-2.7067063	t j	-1.9526887
-2.2557917	t k	-1.9526887
-1.9859884	t l	-1.9526887
-1.7877696	t m	-1.9526887
-2.1226196	t n	-1.9526887
-1.1099606	t o	-1.9526887
-1.7102419	t p	-1.9526887
-2.805086	t q	-1.9526887
-1.1099606	t r	-1.9526887
-1.4001363	t s	-1.9526887
-1.7570526	t t	-1.9526887
-1.5081235	t u	-1.9526887
-2.1975401	t v	-1.9526887
-2.0030664	t w	-1.9526887
-2.7067063	t x	-1.9526887
-1.5429165	t y	-1.9526887
-2.9324853	t z	-1.9526887
-2.7057737	u +	-1.5531635
-1.1591012	u </s>	-1.5531635
-1.3420628	u a	-1.5531635
-1.3945777	u b	-1.5531635
-1.2864268	u c	-1.5531635
-1.4417019	u d	-1.5531635
-1.332281	u e	-1.5531635
-2.0351373	u f	-1.5531635
-1.7316743	u g	-1.5531635
-2.5221293	u h	-1.5531635
-1.1858767	u i	-1.5531635
-2.7057737	u j	-1.5531635
-2.2943312	u k	-1.5531635
-1.1858767	u l	-1.5531635
-1.1858767	u m	-1.5531635
-1.0118617	u n	-1.5531635
-2.7057737	u o	-1.5531635
-1.3227146	u p	-1.5531635
-0.9637518	u r	-1.5531635
-1.0819805	u s	-1.5531635
-0.9982035	u t	-1.5531635
-2.5221293	u u	-1.5531635
-2.2136753	u v	-1.5531635
-2.5221293	u w	-1.5531635
-1.8739376	u x	-1.5531635
-2.3934627	u y	-1.5531635
-2.3934627	u z	-1.5531635
-2.3073702	v +	-1.3617278
-0.9614777	v </s>	-1.3617278
-0.921869	v a	-1.3617278
-1.9250352	v b	-1.3617278
-1.5084353	v c	-1.3617278
-1.9250352	v d	-1.3617278
-0.5532918	v e	-1.3617278
-2.1760913	v f	-1.3617278
-2.1760913	v g	-1.3617278
-2.3073702	v h	-1.3617278
-0.7229059	v i	-1.3617278
-2.0754211	v l	-1.3617278
-1.4847407	v m	-1.3617278
-2.3073702	v n	-1.3617278
-1.2706474	v o	-1.3617278
-1.5884291	v p	-1.3617278
-1.6865607	v r	-1.3617278
-1.618741	v s	-1.3617278
-1.8657212	v t	-1.3617278
-2.1760913	v u	-1.3617278
-2.1760913	v v	-1.3617278
-2.3073702	v w	-1.3617278
-2.3073702	v x	-1.3617278
-2.1760913	v y	-1.3617278
-2.4964264	v z	-1.3617278
-0.8366117	w </s>	-1.265638
-0.8366117	w a	-1.265638
-2.0514087	w b	-1.265638
-1.7371312	w c	-1.265638
-1.9491511	w d	-1.265638
-0.7595057	w e	-1.265638
-1.866441	w f	-1.265638
-2.3802112	w g	-1.265638
-1.7969911	w h	-1.265638
-0.8296368	w i	-1.265638
-2.185409	w k	-1.265638
-1.866441	w l	-1.265638
-1.6845314	w m	-1.265638
-1.6845314	w n	-1.265638
-0.9764111	w o	-1.265638
-1.6845314	w p	-1.265638
-1.6845314	w r	-1.265638
-1.3099991	w s	-1.265638
-1.866441	w t	-1.265638
-2.185409	w u	-1.265638
-2.3802112	w v	-1.265638
-2.0514087	w w	-1.265638
-1.9491511	w x	-1.265638
-2.2736442	x +	-1.1487055
-0.3711578	x </s>	-1.1487055
-1.4570347	x a	-1.1487055
-1.8476755	x b	-1.1487055
-1.3302596	x c	-1.1487055
-1.8476755	x d	-1.1487055
-1.3302596	x e	-1.1487055
-1.9491331	x f	-1.1487055
-2.2736442	x g	-1.1487055
-2.2736442	x h	-1.1487055
-1.4217067	x i	-1.1487055
-1.9491331	x l	-1.1487055
-1.6368221	x m	-1.1487055
-2.0817587	x n	-1.1487055
-2.0817587	x o	-1.1487055
-1.1007819	x p	-1.1487055
-2.2736442	x q	-1.1487055
-2.0817587	x r	-1.1487055
-1.4954929	x s	-1.1487055
-1.1523397	x t	-1.1487055
-1.8476755	x u	-1.1487055
-1.9491331	x w	-1.1487055
-1.3036074	x x	-1.1487055
-1.7654887	x y	-1.1487055
-0.2943417	y </s>	-1.2957869
-1.5853875	y a	-1.2957869
-1.6589648	y b	-1.2957869
-1.5853875	y c	-1.2957869
-2.1101504	y d	-1.2957869
-1.4941546	y e	-1.2957869
-2.4304855	y f	-1.2957869
-2.2414293	y g	-1.2957869
-2.2414293	y h	-1.2957869
-2.0094802	y i	-1.2957869
-2.4304855	y j	-1.2957869
-2.4304855	y k	-1.2957869
-1.9278102	y l	-1.2957869
-1.5853875	y m	-1.2957869
-1.3546069	y n	-1.2957869
-1.4675568	y o	-1.2957869
-1.2047065	y p	-1.2957869
-2.4304855	y q	-1.2957869
-2.0094802	y r	-1.2957869
-1.1908448	y s	-1.2957869
-1.3963312	y t	-1.2957869
-1.8590943	y u	-1.2957869
-1.7997803	y w	-1.2957869
-2.4304855	y y	-1.2957869
-2.1101504	y z	-1.2957869
-0.8497554	z </s>	-0.79588
-0.7816396	z a	-0.79588
-1.5326386	z b	-0.79588
-1.8750613	z d	-0.79588
-0.7227729	z e	-0.79588
-1.6709413	z f	-0.79588
-1.2123034	z h	-0.79588
-1.1116333	z i	-0.79588
-1.8750613	z j	-0.79588
-1.8750613	z k	-0.79588
-1.8750613	z l	-0.79588
-1.3435823	z o	-0.79588
-1.8750613	z p	-0.79588
-1.6709413	z s	-0.79588
-1.6709413	z t	-0.79588
-1.6709413	z u	-0.79588
-1.8750613	z v	-0.79588
-1.8750613	z x	-0.79588
-1.4279032	z y	-0.79588
-1.6709413	z z	-0.79588

\3-grams:
-0.1870866	# # </s>
-2.21e-05	# </s> <s>
-0.1470799	# x </s>
-0.061887	+ + </s>
-3e-06	+ </s> <s>
-0.1168979	+ a p
-0.6623593	+ c </s>
-0.2882409	+ c s
-0.2520467	+ d i
-0.1039521	+ h </s>
-0.5301357	+ i o
-0.5338501	+ i t
-0.2313002	+ j a
-0.2977233	+ m y
-0.2303946	+ n </s>
-0.3852258	+ p c
-0.6587302	+ p h
-0.2685596	+ t o
-0.2736064	+ u i
-0.1398661	+ w e
-0.1470799	+ x </s>
-3.43e-05	</s> <s> <s>
-0.4833702	<s> # #
-0.4833702	<s> # x
-1.1491241	<s> + +
-1.1933961	<s> + a
-0.9549216	<s> + c
-1.1933961	<s> + h
-1.0123896	<s> + i
-1.2983241	<s> + j
-1.2983241	<s> + n
-0.9827057	<s> + p
-1.2983241	<s> + u
-1.2426989	<s> + w
-1.2983241	<s> + x
-3.5017613	<s> <s> #
-2.6570584	<s> <s> +
-1.147152	<s> <s> a
-1.3950087	<s> <s> b
-1.0368379	<s> <s> c
-1.3090947	<s> <s> d
-1.3423513	<s> <s> e
-1.4647916	<s> <s> f
-1.5043946	<s> <s> g
-1.5360756	<s> <s> h
-1.2808053	<s> <s> i
-1.7240634	<s> <s> j
-1.9111459	<s> <s> k
-1.5022177	<s> <s> l
-1.1452389	<s> <s> m
-1.5431758	<s> <s> n
-1.4588558	<s> <s> o
-1.1481118	<s> <s> p
-2.0550478	<s> <s> q
-1.4176422	<s> <s> r
-1.0066765	<s> <s> s
-1.2769103	<s> <s> t
-1.7904061	<s> <s> u
-1.6329843	<s> <s> v
-1.5857628	<s> <s> w
-2.0872312	<s> <s> x
-2.3718544	<s> <s> y
-2.2717462	<s> <s> z
-2.3718221	<s> a +
-2.0632501	<s> a a
-1.4825513	<s> a b
-0.9653204	<s> a c
-1.0357695	<s> a d
-1.7673169	<s> a e
-1.7621892	<s> a f
-1.6499751	<s> a g
-2.6618021	<s> a h
-1.4879395	<s> a i
-2.6618021	<s> a j
-2.3339143	<s> a k
-1.2254841	<s> a l
-1.2972902	<s> a m
-1.1408455	<s> a n
-1.8952461	<s> a o
-1.05238	<s> a p
-2.6581398	<s> a q
-0.9955406	<s> a r
-1.1265322	<s> a s
-1.3381795	<s> a t
-1.1838129	<s> a u
-1.4363431	<s> a v
-1.6279413	<s> a w
-1.8852885	<s> a x
-2.6473348	<s> a z
-2.3982492	<s> b +
-0.8812267	<s> b a
-1.6363176	<s> b b
-1.6235727	<s> b c
-1.5167652	<s> b d
-0.9543414	<s> b e
-2.3982492	<s> b f
-1.8924687	<s> b g
-1.9506258	<s> b h
-0.8408476	<s> b i
-2.3510691	<s> b j
-2.4108909	<s> b k
-1.1484563	<s> b l
-1.7163907	<s> b m
-0.8993781	<s> b o
-1.4747906	<s> b p
-2.1224413	<s> b q
-1.1663444	<s> b r
-1.470242	<s> b s
-1.6472316	<s> b t
-1.1605396	<s> b u
-2.385965	<s> b v
-2.3982492	<s> b w
-2.3740188	<s> b x
-1.8049996	<s> b y
-2.4239117	<s> b z
-2.7752466	<s> c #
-2.4638585	<s> c +
-0.8377215	<s> c a
-1.6979023	<s> c b
-1.4076265	<s> c c
-1.5991783	<s> c d
-1.4191927	<s> c e
-1.8725005	<s> c f
-1.9933879	<s> c g
-1.2819448	<s> c h
-1.2254329	<s> c i
-2.7650563	<s> c j
-2.3323928	<s> c k
-1.3114524	<s> c l
-1.3769768	<s> c m
-1.775969	<s> c n
-0.5516243	<s> c o
-1.43086	<s> c p
-2.0780675	<s> c q
-1.3047704	<s> c r
-1.5260814	<s> c s
-1.7020706	<s> c t
-1.5631451	<s> c u
-2.0760017	<s> c v
-2.4766292	<s> c x
-2.1652684	<s> c y
-2.5042279	<s> d +
-1.0687154	<s> d a
-1.5437771	<s> d b
-1.4256678	<s> d c
-1.5538648	<s> d d
-0.724301	<s> d e
-1.6643633	<s> d f
-2.408108	<s> d g
-1.7351361	<s> d h
-0.8037873	<s> d i
-2.0377181	<s> d j
-2.4498478	<s> d k
-1.8813638	<s> d l
-1.4546372	<s> d m
-1.8095828	<s> d n
-1.0601249	<s> d o
-1.8813638	<s> d p
-2.0405542	<s> d q
-1.1301634	<s> d r
-1.5260154	<s> d s
-1.4719587	<s> d t
-1.7621209	<s> d u
-1.7323284	<s> d v
-1.8933612	<s> d w
-2.0238088	<s> d x
-1.5566571	<s> d y
-2.4919424	<s> e +
-1.4177355	<s> e a
-1.7594642	<s> e b
-1.1674791	<s> e c
-1.1145128	<s> e d
-2.2996109	<s> e e
-1.9903118	<s> e f
-1.8559304	<s> e g
-2.0092618	<s> e h
-1.6420133	<s> e i
-2.4727535	<s> e j
-2.0114193	<s> e k
-1.1322692	<s> e l
-1.0993036	<s> e m
-0.9363158	<s> e n
-1.8612549	<s> e o
-1.3366015	<s> e p
-1.8840362	<s> e q
-1.322132	<s> e r
-1.034067	<s> e s
-1.3416346	<s> e t
-2.0007373	<s> e u
-1.5285209	<s> e v
-2.3929564	<s> e w
-0.8890167	<s> e x
-2.4198034	<s> e y
-1.0053536	<s> f a
-2.33745	<s> f b
-1.6336958	<s> f c
-1.6526047	<s> f d
-1.215966	<s> f e
-1.8893386	<s> f f
-2.3510229	<s> f h
-0.6710185	<s> f i
-1.0725596	<s> f l
-1.641699	<s> f m
-0.7164656	<s> f o
-1.5705798	<s> f p
-2.3510229	<s> f q
-0.9739248	<s> f r
-1.9673784	<s> f s
-1.5838081	<s> f t
-1.2430596	<s> f u
-2.055543	<s> f w
-2.3115143	<s> f x
-2.33745	<s> f y
-2.3284936	<s> g +
-1.015947	<s> g a
-1.544437	<s> g b
-1.5461161	<s> g c
-1.5563292	<s> g d
-0.766903	<s> g e
-2.016891	<s> g f
-2.2128483	<s> g g
-1.7995503	<s> g h
-1.4054923	<s> g i
-2.3284936	<s> g j
-2.3085722	<s> g k
-1.3235277	<s> g l
-1.4157023	<s> g m
-1.5199999	<s> g n
-1.0466397	<s> g o
-1.379034	<s> g p
-0.869238	<s> g r
-1.3722174	<s> g s
-1.5546103	<s> g t
-1.321517	<s> g u
-1.854099	<s> g w
-2.3284936	<s> g x
-2.3085722	<s> g z
-0.8007269	<s> h a
-1.5884621	<s> h b
-1.3845086	<s> h c
-1.3929145	<s> h d
-1.0360731	<s> h e
-1.8159695	<s> h f
-1.9924356	<s> h g
-0.9503275	<s> h i
-2.2945922	<s> h j
-2.2945922	<s> h k
-1.8204895	<s> h l
-1.7940492	<s> h m
-2.1468556	<s> h n
-0.8839793	<s> h o
-1.5779385	<s> h p
-1.9924356	<s> h q
-1.1796088	<s> h r
-1.4475647	<s> h s
-1.3746316	<s> h t
-1.3443791	<s> h u
-2.2945922	<s> h v
-2.2945922	<s> h w
-1.2122265	<s> h y
-1.9791398	<s> h z
-1.6556956	<s> i a
-1.6291181	<s> i b
-1.2035795	<s> i c
-1.1736702	<s> i d
-1.7258524	<s> i e
-1.7472646	<s> i f
-1.6156105	<s> i g
-2.2417236	<s> i h
-1.9327713	<s> i i
-2.4915934	<s> i k
-1.7054465	<s> i l
-1.0772343	<s> i m
-0.5200478	<s> i n
-1.4696952	<s> i o
-1.0086366	<s> i p
-2.2382234	<s> i q
-1.675274	<s> i r
-1.1094911	<s> i s
-1.1905586	<s> i t
-2.2211338	<s> i u
-1.7173645	<s> i v
-2.5376875	<s> i w
-2.4387194	<s> i x
-0.6374861	<s> j a
-1.3758899	<s> j b
-1.497497	<s> j c
-1.2012343	<s> j d
-1.2413824	<s> j e
-1.6192864	<s> j f
-1.7891466	<s> j h
-1.3590219	<s> j i
-2.0720027	<s> j j
-2.0312577	<s> j k
-1.6192864	<s> j l
-1.497497	<s> j m
-1.6192864	<s> j n
-1.1257437	<s> j o
-1.4646355	<s> j p
-1.497497	<s> j q
-1.497497	<s> j r
-1.1680236	<s> j s
-1.6192864	<s> j t
-1.1955198	<s> j u
-1.7891466	<s> j v
-1.7891466	<s> j w
-2.0720027	<s> j y
-2.0720027	<s> j z
-0.9542775	<s> k a
-1.8690284	<s> k b
-1.9636945	<s> k c
-1.6303977	<s> k d
-0.7515718	<s> k e
-1.8863824	<s> k f
-1.9044588	<s> k g
-0.8301759	<s> k i
-1.6715699	<s> k j
-1.9233204	<s> k k
-1.8523414	<s> k l
-1.6403306	<s> k m
-1.6715699	<s> k n
-1.0181574	<s> k o
-1.6111885	<s> k p
-1.484229	<s> k r
-1.4891358	<s> k s
-1.6018934	<s> k t
-1.3384642	<s> k u
-1.4913	<s> k v
-1.9430384	<s> k w
-1.9430384	<s> k x
-1.9233204	<s> k y
-0.8118683	<s> l a
-2.0252649	<s> l b
-1.5478659	<s> l c
-1.5285213	<s> l d
-0.8075008	<s> l e
-2.3113446	<s> l f
-2.2765408	<s> l g
-2.3362001	<s> l h
-0.6673739	<s> l i
-2.3362001	<s> l j
-2.271002	<s> l k
-1.6117833	<s> l l
-1.8377269	<s> l m
-2.0315613	<s> l n
-0.7794319	<s> l o
-1.8198356	<s> l p
-2.3174264	<s> l r
-1.6909548	<s> l s
-1.5196503	<s> l t
-1.4067976	<s> l u
-1.7240266	<s> l v
-2.034744	<s> l x
-2.1556766	<s> l y
-2.6681901	<s> m +
-0.6604652	<s> m a
-1.8621921	<s> m b
-1.4860955	<s> m c
-1.7125964	<s> m d
-0.8139191	<s> m e
-1.8894753	<s> m f
-2.1773046	<s> m g
-2.3634542	<s> m h
-0.9321402	<s> m i
-2.1928771	<s> m k
-2.0268526	<s> m l
-1.7351166	<s> m m
-2.3502387	<s> m n
-0.8125432	<s> m o
-1.4316855	<s> m p
-2.0622565	<s> m q
-1.8244476	<s> m r
-1.394985	<s> m s
-1.6243437	<s> m t
-1.2538679	<s> m u
-1.9646429	<s> m v
-2.1816972	<s> m w
-2.1928771	<s> m x
-1.8894753	<s> m y
-0.9808366	<s> n a
-1.6014211	<s> n b
-1.344734	<s> n c
-1.6666173	<s> n d
-0.7006653	<s> n e
-1.6776168	<s> n f
-1.1289144	<s> n g
-1.9985505	<s> n h
-1.1522998	<s> n i
-2.2903883	<s> n j
-2.1762028	<s> n k
-1.9799	<s> n l
-1.6023768	<s> n m
-0.8545887	<s> n o
-1.3986995	<s> n p
-2.2811583	<s> n r
-1.6502896	<s> n s
-1.3572923	<s> n t
-1.258426	<s> n u
-1.6776168	<s> n v
-2.2857488	<s> n w
-1.9891251	<s> n x
-1.9753599	<s> n y
-2.2811583	<s> n z
-1.5755703	<s> o a
-1.3291465	<s> o b
-1.2108145	<s> o c
-1.3994574	<s> o d
-1.6703635	<s> o e
-1.3284109	<s> o f
-1.817283	<s> o g
-2.251513	<s> o i
-1.8871807	<s> o k
-1.4781734	<s> o l
-1.1698704	<s> o m
-1.2098406	<s> o n
-1.5571395	<s> o o
-0.6613128	<s> o p
-2.3753511	<s> o q
-0.9533252	<s> o r
-1.1731993	<s> o s
-1.2102542	<s> o t
-1.546688	<s> o u
-2.0312842	<s> o v
-1.8441488	<s> o w
-2.303793	<s> o x
-2.3324996	<s> o y
-0.8256632	<s> p a
-1.9641265	<s> p b
-1.3831116	<s> p c
-1.5869283	<s> p d
-1.2086293	<s> p e
-1.9641265	<s> p f
-2.044823	<s> p g
-1.1841752	<s> p h
-1.3164867	<s> p i
-2.6597987	<s> p j
-2.1843655	<s> p k
-1.2231785	<s> p l
-1.6486343	<s> p m
-2.3490847	<s> p n
-0.9821657	<s> p o
-1.5272104	<s> p p
-1.967963	<s> p q
-0.718086	<s> p r
-1.5019612	<s> p s
-1.6352946	<s> p t
-1.4317348	<s> p u
-2.0588457	<s> p v
-2.3584529	<s> p w
-2.3553076	<s> p x
-1.5832049	<s> p y
-1.2906504	<s> q a
-1.733081	<s> q b
-1.3819212	<s> q c
-1.5106443	<s> q d
-1.4258441	<s> q e
-1.5106443	<s> q f
-1.8005798	<s> q g
-1.8005798	<s> q h
-1.4462547	<s> q l
-1.1877016	<s> q m
-1.8005798	<s> q n
-1.3258996	<s> q o
-1.4747142	<s> q p
-1.8005798	<s> q q
-1.1966979	<s> q s
-1.4747142	<s> q t
-0.3949586	<s> q u
-0.9643197	<s> r a
-1.6672838	<s> r c
-1.6050009	<s> r d
-0.4010318	<s> r e
-1.8023808	<s> r f
-2.0817222	<s> r g
-1.4594023	<s> r h
-1.1685404	<s> r i
-2.2476677	<s> r k
-1.7567205	<s> r m
-1.7855171	<s> r n
-0.9584531	<s> r o
-1.4440642	<s> r p
-2.083361	<s> r r
-1.6768369	<s> r s
-1.3069464	<s> r t
-1.4894221	<s> r u
-2.3879081	<s> r w
-2.4047848	<s> r x
-1.1919964	<s> s a
-2.0216789	<s> s b
-1.1599079	<s> s c
-1.5727955	<s> s d
-0.9265501	<s> s e
-2.0245339	<s> s f
-2.0245339	<s> s g
-1.2708722	<s> s h
-1.1531152	<s> s i
-2.8057994	<s> s j
-1.5738089	<s> s k
-1.9549287	<s> s l
-1.5019083	<s> s m
-1.8527446	<s> s n
-1.0955786	<s> s o
-1.114263	<s> s p
-1.6609509	<s> s q
-1.9019168	<s> s r
-1.5932217	<s> s s
-0.8849499	<s> s t
-1.2261905	<s> s u
-1.85371	<s> s v
-1.76651	<s> s w
-2.7930071	<s> s x
-1.5060118	<s> s y
-2.8014933	<s> s z
-2.5501005	<s> t +
-1.0506483	<s> t a
-2.0655004	<s> t b
-1.5351084	<s> t c
-1.6440083	<s> t d
-0.6918762	<s> t e
-1.9412603	<s> t f
-2.2337662	<s> t g
-1.1810613	<s> t h
-1.1727966	<s> t i
-2.537072	<s> t j
-2.0611885	<s> t k
-2.202965	<s> t l
-1.7509137	<s> t m
-2.0540958	<s> t n
-0.9674388	<s> t o
-1.6289486	<s> t p
-2.2489236	<s> t q
-0.7951426	<s> t r
-1.5572019	<s> t s
-1.9098701	<s> t t
-1.4186106	<s> t u
-2.0583375	<s> t v
-1.6418247	<s> t w
-2.537072	<s> t x
-1.5699343	<s> t y
-2.0784941	<s> u +
-1.3186988	<s> u a
-1.1481627	<s> u b
-1.1864128	<s> u c
-1.4160627	<s> u d
-1.3958926	<s> u e
-2.0166799	<s> u f
-1.4526603	<s> u g
-2.0691064	<s> u h
-1.3617912	<s> u i
-2.0509186	<s> u k
-1.4501153	<s> u l
-1.2256881	<s> u m
-0.732533	<s> u n
-1.0948985	<s> u p
-1.3652002	<s> u r
-1.1047298	<s> u s
-1.1326919	<s> u t
-2.0691064	<s> u u
-1.7676123	<s> u v
-1.7817557	<s> u w
-1.9849444	<s> u x
-2.1851229	<s> v +
-0.8951673	<s> v a
-1.5077634	<s> v b
-1.475738	<s> v c
-1.8757881	<s> v d
-0.8321426	<s> v e
-1.7309571	<s> v f
-1.8974729	<s> v g
-2.1851229	<s> v h
-0.594673	<s> v i
-2.1572867	<s> v l
-1.3420832	<s> v m
-1.0481601	<s> v o
-1.4121935	<s> v p
-1.4195289	<s> v r
-1.4146249	<s> v s
-1.5047524	<s> v t
-1.7309571	<s> v u
-2.1709819	<s> v v
-2.1851229	<s> v w
-1.9049487	<s> v x
-0.8212756	<s> w a
-1.9286005	<s> w b
-1.5366236	<s> w c
-1.9197186	<s> w d
-0.6282739	<s> w e
-1.7518118	<s> w f
-2.2317293	<s> w g
-2.149799	<s> w h
-0.6435101	<s> w i
-1.7518118	<s> w l
-1.7342537	<s> w m
-0.9859259	<s> w o
-1.6220719	<s> w p
-1.6220719	<s> w r
-1.4240481	<s> w s
-1.9110147	<s> w t
-1.9376678	<s> w u
-1.9286005	<s> w w
-1.6401645	<s> w x
-1.1825637	<s> x a
-1.4952665	<s> x b
-1.1621124	<s> x c
-1.4952665	<s> x d
-1.3906362	<s> x e
-1.5061573	<s> x f
-1.8093987	<s> x h
-1.2807707	<s> x i
-1.7671794	<s> x l
-1.1157823	<s> x m
-1.7877762	<s> x n
-1.0379103	<s> x p
-1.8093987	<s> x q
-1.5173284	<s> x r
-0.9164015	<s> x s
-1.327789	<s> x t
-1.7475153	<s> x u
-1.0771519	<s> x x
-1.7287032	<s> x y
-0.9477555	<s> y a
-1.4706228	<s> y c
-1.0544065	<s> y e
-1.5532134	<s> y h
-1.2559903	<s> y i
-1.5624066	<s> y j
-1.5624066	<s> y k
-0.6078201	<s> y o
-1.3470823	<s> y s
-1.0811754	<s> y u
-1.5624066	<s> y y
-0.8170467	<s> z a
-1.2991041	<s> z b
-0.6148905	<s> z e
-1.3197652	<s> z f
-0.9947241	<s> z h
-1.1923147	<s> z i
-1.6069125	<s> z j
-1.6069125	<s> z k
-1.1207766	<s> z o
-1.6069125	<s> z p
-1.5677435	<s> z s
-1.5677435	<s> z t
-1.6069125	<s> z x
-1.4986364	<s> z y
-0.2721539	a + </s>
-0.6538916	a + h
-2e-07	a </s> <s>
-0.4827299	a a </s>
-0.8200062	a a a
-1.1668895	a a c
-1.2168017	a a d
-0.6630512	a a s
-0.8299983	a b </s>
-1.0143759	a b a
-1.2051695	a b b
-1.4716684	a b c
-1.8789777	a b d
-1.2766143	a b e
-0.8415401	a b i
-0.6209705	a b l
-1.9660829	a b n
-1.3537577	a b o
-1.2338907	a b s
-1.5484164	a b u
-1.9660829	a b v
-1.958726	a b x
-1.6538226	a b y
-1.0854687	a c </s>
-1.4609123	a c a
-1.0718398	a c c
-2.2615458	a c d
-0.9227104	a c e
-2.0351627	a c f
-2.0332698	a c g
-1.0997594	a c h
-1.2863293	a c i
-0.8385773	a c k
-1.6174933	a c l
-1.8255759	a c m
-1.4891119	a c o
-2.196398	a c p
-2.0486492	a c q
-1.4135365	a c r
-1.5948883	a c s
-0.6697827	a c t
-2.1828618	a c u
-2.3123257	a c y
-2.1463367	a d +
-0.6456823	a d </s>
-0.9480341	a d a
-1.9737696	a d b
-1.5065858	a d c
-1.5264606	a d d
-0.8411881	a d e
-2.0630443	a d f
-1.0021714	a d i
-2.0995146	a d k
-2.0294007	a d l
-1.2261939	a d m
-1.2030537	a d o
-2.0294007	a d p
-1.891821	a d r
-1.3282876	a d s
-2.0403282	a d t
-1.5973436	a d u
-1.373515	a d v
-1.8110288	a d w
-1.8310642	a d x
-2.0458968	a d y
-0.5664429	a e </s>
-1.0658948	a e c
-1.3116276	a e d
-1.3829191	a e e
-1.3083929	a e l
-0.9350981	a e m
-1.136843	a e o
-0.9327547	a e r
-1.0254316	a e s
-0.9119108	a f </s>
-1.5117876	a f c
-0.7900313	a f e
-0.641481	a f f
-1.1360585	a f i
-1.6012947	a f k
-1.4121485	a f l
-1.0796411	a f o
-1.5374172	a f p
-0.9545873	a f t
-1.5862657	a f x
-1.120928	a g </s>
-1.3946829	a g a
-0.2821065	a g e
-1.253901	a g g
-0.9317299	a g i
-1.8566992	a g l
-1.6103064	a g m
-1.441208	a g n
-1.7881745	a g o
-1.2637021	a g r
-1.8485291	a g u
-1.9532828	a g v
-0.6651907	a h </s>
-0.2629369	a h o
-1.1997647	a i </s>
-1.698308	a i a
-1.0845676	a i c
-1.3464931	a i d
-1.5083166	a i e
-1.8034574	a i f
-1.5164316	a i g
-0.8734703	a i l
-1.4954447	a i m
-0.5029085	a i n
-1.5155366	a i o
-1.2634805	a i r
-1.2840476	a i s
-1.8934701	a i w
-1.5594503	a i x
-1.8364016	a i z
-0.6625407	a j a
-0.7797051	a j i
-0.4982563	a j o
-0.8004826	a k </s>
-1.1072332	a k a
-0.2907622	a k e
-0.796105	a k i
-1.4434589	a k k
-0.3233108	a l </s>
-1.3979918	a l a
-2.442417	a l b
-1.7578057	a l c
-2.2967637	a l d
-1.2187349	a l e
-2.1625195	a l f
-1.5182896	a l g
-1.0394302	a l i
-1.6897633	a l k
-0.999106	a l l
-1.9736495	a l m
-1.7174112	a l o
-2.1131343	a l p
-1.6065561	a l s
-1.6576162	a l t
-1.6576162	a l u
-2.4071778	a l v
-2.1708573	a l w
-1.502951	a l y
-0.6495542	a m </s>
-1.1747483	a m a
-1.6353308	a m b
-1.6277179	a m c
-2.0830567	a m d
-0.6990683	a m e
-2.1142992	a m f
-2.1479646	a m h
-1.0085488	a m i
-1.3045845	a m l
-1.290472	a m m
-2.1284089	a m n
-1.3009757	a m o
-1.0818322	a m p
-1.3941944	a m s
-1.6541655	a m t
-1.9766457	a m u
-2.109696	a m v
-1.8466847	a m w
-0.7263062	a n </s>
-1.0345706	a n a
-2.172411	a n b
-1.0225657	a n c
-0.8968455	a n d
-1.4328892	a n e
-2.3962214	a n f
-0.9857462	a n g
-1.2641304	a n i
-2.4814064	a n j
-1.9811241	a n k
-1.6370933	a n n
-1.6168096	a n o
-2.4262421	a n p
-1.0190354	a n s
-1.0938318	a n t
-1.7766712	a n u
-2.1444545	a n v
-1.6467403	a n y
-2.4736336	a n z
-0.5313801	a o </s>
-1.0893656	a o c
-1.1427251	a o i
-0.8209701	a o p
-0.8145544	a o s
-0.7230441	a p </s>
-1.3177965	a p a
-2.2057861	a p b
-2.0566188	a p c
-2.1558545	a p d
-1.1497736	a p e
-1.9343653	a p f
-1.9142394	a p g
-0.8518748	a p h
-1.1933243	a p i
-2.2254673	a p k
-1.5439376	a p l
-1.8524725	a p m
-1.5325605	a p o
-0.6653169	a p p
-2.2204628	a p q
-1.4944678	a p r
-1.4997543	a p s
-1.272457	a p t
-1.8610871	a p u
-2.1268302	a p y
-0.5379349	a q </s>
-0.860021	a q c
-0.8846801	a q e
-0.5980527	a q u
-0.9784702	a r </s>
-1.237498	a r a
-1.9648748	a r b
-0.9930797	a r c
-1.0584194	a r d
-0.879156	a r e
-2.4035237	a r f
-2.1231614	a r g
-1.1416338	a r i
-2.4589177	a r j
-1.1533677	a r k
-1.8460217	a r l
-1.5797431	a r m
-1.7381112	a r n
-1.6530658	a r p
-1.9828293	a r q
-1.9621773	a r r
-1.9078983	a r s
-0.8030065	a r t
-2.0531515	a r u
-2.0876438	a r v
-2.4505584	a r x
-1.3313609	a r y
-0.7446127	a s </s>
-2.1171671	a s a
-2.283474	a s b
-1.5100802	a s c
-2.2206936	a s d
-0.8317618	a s e
-2.2953828	a s f
-1.315902	a s h
-1.1313429	a s i
-1.4827752	a s k
-1.8141226	a s m
-1.4424223	a s o
-1.4509752	a s p
-2.274752	a s q
-2.2923748	a s r
-0.7415031	a s s
-0.9265717	a s t
-1.3657952	a s u
-1.8334829	a s y
-2.3365089	a s z
-1.0586396	a t </s>
-1.1610408	a t a
-1.6818621	a t c
-0.8057519	a t e
-2.2278814	a t f
-1.5687525	a t h
-0.3640589	a t i
-2.5108335	a t k
-1.928134	a t l
-1.8267208	a t m
-1.1456491	a t o
-2.1838242	a t p
-1.7524434	a t r
-1.7258178	a t s
-1.5357841	a t t
-1.6185301	a t u
-1.285865	a u </s>
-0.7646209	a u d
-1.3528933	a u g
-1.2529218	a u n
-1.1059457	a u r
-1.1274085	a u s
-0.3447234	a u t
-1.2385866	a v </s>
-0.4756624	a v a
-1.7319343	a v c
-0.5712693	a v e
-0.671429	a v i
-1.8071772	a v l
-1.7481771	a v p
-1.4993544	a v r
-1.7537292	a v s
-0.4778465	a w </s>
-1.0820897	a w a
-1.560202	a w d
-0.7847722	a w e
-0.9653403	a w i
-1.2884614	a w k
-1.5279442	a w p
-0.9545986	a w s
-1.5860719	a w v
-0.2467674	a x </s>
-1.0236892	a x a
-1.4918319	a x b
-1.4918319	a x d
-1.4166948	a x i
-1.5128389	a x o
-1.4918319	a x u
-1.5022084	a x w
-1.4816975	a x y
-0.3082842	a y </s>
-1.1943813	a y a
-0.9068179	a y e
-1.3816271	a y l
-1.3535032	a y m
-1.1837255	a y o
-1.4969423	a y p
-1.6670308	a y r
-1.2852431	a y s
-1.6513033	a y u
-0.8468387	a z a
-1.1127043	a z d
-0.980587	a z i
-1.0416409	a z o
-0.8181564	a z u
-0.7989933	a z y
-0.2721539	b + </s>
-0.6538916	b + a
-6e-07	b </s> <s>
-0.6561884	b a </s>
-1.3863587	b a b
-1.0310536	b a c
-1.9232655	b a i
-1.4068347	b a l
-0.9754978	b a n
-1.3557343	b a p
-2.0149206	b a q
-1.3173017	b a r
-0.6132195	b a s
-1.0531779	b a t
-1.5241041	b a y
-0.7652092	b b </s>
-1.0593316	b b a
-1.2931789	b b c
-1.3104953	b b d
-0.6962417	b b i
-1.1008894	b b o
-1.230089	b b r
-1.1948566	b b s
-1.3425667	b b t
-1.2016781	b b u
-0.3094318	b c </s>
-1.4177947	b c d
-1.2351282	b c e
-1.4372709	b c g
-1.3880693	b c m
-1.1593972	b c o
-1.1218736	b c p
-1.329297	b c s
-0.5041983	b d </s>
-0.9930964	b d a
-1.3227107	b d c
-1.3531782	b d d
-1.052309	b d e
-1.0533334	b d m
-1.0178967	b d o
-1.3531782	b d p
-1.3584706	b d t
-0.8511365	b e </s>
-0.8700713	b e a
-1.6745295	b e c
-1.7061642	b e d
-1.5662665	b e e
-1.9140573	b e h
-1.6111442	b e i
-1.17791	b e l
-0.9600854	b e n
-0.5669667	b e r
-1.1403524	b e s
-1.6851797	b e t
-1.5942041	b e v
-1.7922344	b e x
-1.8874921	b e y
-0.6601773	b f </s>
-0.7134664	b f f
-0.6295237	b f o
-0.1949067	b g </s>
-0.9978023	b g a
-1.2256534	b g i
-1.3116138	b g l
-1.3339631	b g p
-0.456714	b h </s>
-0.8209563	b h d
-0.8382726	b h g
-1.2094424	b i </s>
-1.2428488	b i a
-1.8935809	b i b
-1.3299347	b i c
-1.5964527	b i e
-1.6045677	b i g
-0.6163712	b i l
-1.5835808	b i m
-1.0811697	b i n
-0.9327652	b i o
-1.5720285	b i p
-1.6180869	b i r
-1.4916061	b i s
-0.8991894	b i t
-1.3673389	b i x
-1.4907189	b i z
-0.8941745	b j </s>
-0.1626688	b j e
-0.3881615	b k </s>
-0.5034029	b k i
-1.2676733	b l </s>
-1.1610229	b l a
-1.7623261	b l d
-0.2618975	b l e
-0.9402984	b l i
-1.0880394	b l o
-1.2159574	b l u
-1.5038292	b l y
-0.5664002	b m </s>
-0.9492257	b m a
-1.2163516	b m c
-0.9633496	b m e
-1.2351125	b m l
-1.1066057	b m p
-0.9161486	b m s
-1.2794822	b m w
-0.4420027	b n </s>
-0.8366266	b n b
-0.7464764	b n e
-1.1693042	b o </s>
-1.2544153	b o a
-1.4604967	b o b
-1.5334676	b o c
-1.5718477	b o d
-1.6492431	b o e
-1.9536429	b o h
-1.5213926	b o l
-1.3593808	b o m
-1.1842705	b o n
-0.7927646	b o o
-1.6839975	b o p
-1.0037139	b o r
-0.9808984	b o s
-1.1507059	b o t
-1.7393272	b o u
-1.83831	b o w
-1.0241492	b o x
-1.9409429	b o y
-0.7698792	b p </s>
-1.0819201	b p a
-1.2487598	b p c
-0.8843428	b p e
-1.2136067	b p i
-1.0028543	b p m
-1.1364625	b p o
-1.1952405	b p p
-1.0791583	b p r
-1.2136067	b p s
-0.3364875	b q </s>
-0.6767184	b q p
-1.2678332	b r </s>
-0.5117743	b r a
-1.5482973	b r c
-0.9265328	b r e
-0.8277116	b r i
-1.6337025	b r l
-0.7149834	b r o
-1.275886	b r t
-1.5722029	b r u
-0.4170831	b s </s>
-1.6194705	b s a
-1.2248632	b s c
-1.1474654	b s d
-1.1664141	b s e
-1.6137595	b s h
-1.1860949	b s i
-1.6761948	b s m
-1.5642149	b s o
-1.2248632	b s p
-1.1962803	b s s
-0.966463	b s t
-0.5863695	b t </s>
-0.8523455	b t c
-0.7980281	b t r
-1.0972753	b t s
-0.8682259	b t v
-0.8098199	b u </s>
-1.5845198	b u b
-1.546221	b u c
-1.5993288	b u d
-0.8971819	b u g
-0.7231684	b u i
-1.5049242	b u l
-1.419882	b u n
-1.2367749	b u r
-0.9781889	b u s
-0.9631349	b u t
-1.271789	b u y
-0.7219568	b v </s>
-0.5804855	b v e
-0.4355324	b v i
-0.6206859	b w </s>
-0.6206859	b w a
-0.6586495	b w o
-0.043716	b x </s>
-0.1973047	b y </s>
-1.166097	b y d
-0.6818747	b y t
-0.2436175	b z </s>
-0.1870866	c # </s>
-0.6832198	c + +
-0.4035279	c + </s>
-0.9554781	c + a
-0.9554781	c + h
-2e-07	c </s> <s>
-1.0249799	c a </s>
-1.7566985	c a a
-1.8212095	c a b
-1.4499919	c a c
-1.2302663	c a d
-2.3168774	c a e
-1.8646937	c a f
-1.870554	c a k
-0.6725881	c a l
-1.1989222	c a m
-1.0506759	c a n
-1.2549683	c a p
-1.1744893	c a r
-1.0849746	c a s
-0.8120989	c a t
-2.2700326	c a u
-2.3029698	c a x
-2.2700326	c a y
-0.7234805	c b </s>
-0.9446267	c b a
-1.0905963	c b c
-1.3597133	c b d
-1.3553191	c b g
-1.1393393	c b i
-1.1501074	c b o
-1.279307	c b r
-0.8913159	c b s
-1.0370036	c b u
-0.5360453	c c </s>
-1.1766252	c c a
-1.8819101	c c b
-1.7372605	c c c
-1.5958806	c c d
-1.0132256	c c e
-1.8953189	c c f
-1.8919277	c c g
-1.352858	c c i
-1.7541458	c c l
-1.5614073	c c m
-1.6150929	c c n
-0.8560873	c c o
-1.3008142	c c p
-1.6694915	c c r
-1.6818089	c c s
-1.3998635	c c t
-1.4057435	c c u
-1.9419986	c c w
-0.5700836	c d </s>
-1.3176169	c d a
-1.4926918	c d b
-1.1026937	c d c
-1.5348771	c d d
-1.5597402	c d g
-1.5816052	c d h
-1.1877206	c d i
-1.5348771	c d l
-0.9803308	c d m
-1.5771433	c d n
-1.5348771	c d p
-1.2178347	c d r
-1.4251364	c d s
-1.5430076	c d t
-0.3539319	c e </s>
-1.8730463	c e a
-1.9365936	c e b
-2.0157322	c e c
-1.5388036	c e d
-1.924575	c e e
-2.2423993	c e f
-2.2519822	c e i
-1.3096286	c e l
-1.4753408	c e m
-1.0310914	c e n
-2.2148578	c e o
-1.4356671	c e p
-1.2000616	c e r
-0.7906399	c e s
-1.8418047	c e t
-2.2617812	c e u
-0.5882073	c f </s>
-1.136732	c f a
-1.2685185	c f c
-1.3073702	c f d
-1.1406694	c f e
-1.0145457	c f o
-1.2902922	c f p
-1.0086688	c f s
-1.2580278	c f u
-0.2800433	c g </s>
-1.1842319	c g a
-0.9345526	c g i
-1.2627408	c g l
-1.3145527	c g v
-1.3093432	c g w
-0.7018436	c h </s>
-0.7471553	c h a
-1.7129326	c h b
-2.1280557	c h d
-0.690924	c h e
-2.1775075	c h f
-0.6896446	c h i
-1.8792141	c h m
-1.2069644	c h n
-1.2804609	c h o
-1.5729992	c h r
-1.869442	c h u
-1.007714	c i </s>
-0.9267623	c i a
-1.7347955	c i b
-1.4137617	c i c
-1.0704959	c i e
-1.3699584	c i f
-1.7666537	c i i
-2.0458938	c i k
-1.4127199	c i l
-1.3432174	c i m
-0.8257682	c i n
-1.6749491	c i o
-1.2671143	c i p
-1.7120558	c i r
-1.1247309	c i s
-0.902234	c i t
-1.6709235	c i v
-2.0826142	c i w
-0.638902	c j </s>
-0.3812548	c j p
-0.4464069	c k </s>
-1.4666148	c k a
-1.2989753	c k b
-1.5733634	c k d
-0.7020604	c k e
-1.8392949	c k f
-1.8534761	c k g
-1.1392866	c k i
-1.8122504	c k l
-1.8392949	c k m
-1.7512007	c k o
-1.7993346	c k p
-1.8392949	c k r
-1.333675	c k s
-1.5512465	c k t
-1.2793223	c k u
-1.8833081	c k w
-0.7822533	c l </s>
-0.8145997	c l a
-0.66504	c l e
-0.7694558	c l i
-0.8187236	c l o
-1.7979818	c l p
-0.9862486	c l u
-0.5122153	c m </s>
-1.0786324	c m a
-1.4340985	c m b
-1.4253068	c m c
-1.4673091	c m d
-1.3003245	c m e
-1.759044	c m f
-1.759044	c m g
-1.2915375	c m i
-1.4430718	c m l
-1.0658173	c m m
-1.3084941	c m o
-1.1977859	c m p
-1.1250608	c m s
-1.4559544	c m t
-0.7531935	c n </s>
-0.8705939	c n a
-1.2417407	c n c
-0.9765513	c n e
-1.0549989	c n g
-1.3686282	c n n
-1.1103869	c n p
-1.0048056	c n s
-1.0753009	c n t
-1.3999124	c n y
-1.125727	c o </s>
-1.7272201	c o a
-1.9340598	c o b
-1.5660267	c o c
-1.3586108	c o d
-2.1221996	c o e
-2.0857523	c o f
-1.7988641	c o g
-2.0985238	c o i
-1.3482509	c o l
-0.5935194	c o m
-0.6505505	c o n
-1.4326382	c o o
-1.5058166	c o p
-1.0871904	c o r
-1.4999702	c o s
-1.2344526	c o u
-1.8334316	c o v
-0.4207141	c p </s>
-1.0833557	c p a
-1.7720065	c p b
-1.4259101	c p c
-1.4726826	c p d
-1.4040838	c p e
-1.3962483	c p i
-1.0427845	c p l
-1.4293345	c p m
-1.4998701	c p o
-1.3806048	c p p
-1.7835091	c p q
-1.4274049	c p r
-1.3962483	c p s
-1.6681707	c p u
-1.7087375	c p y
-0.8324555	c q </s>
-1.0133759	c q a
-0.979311	c q c
-1.0133759	c q e
-1.0253517	c q s
-0.5221793	c q u
-1.1461908	c r </s>
-1.1720075	c r a
-1.8998802	c r c
-0.9079527	c r e
-2.0289929	c r h
-0.6552784	c r i
-1.1325218	c r m
-0.6377381	c r o
-1.9462707	c r p
-1.9260362	c r s
-1.6367256	c r t
-1.2551663	c r u
-1.1339699	c r y
-2.0339888	c s +
-0.23877	c s </s>
-1.49469	c s a
-1.9934007	c s b
-1.8253872	c s c
-1.4128341	c s d
-1.2436093	c s e
-1.8525362	c s h
-1.433433	c s i
-1.9259766	c s m
-1.7954791	c s o
-1.8253872	c s p
-1.719327	c s r
-0.964267	c s s
-1.6072907	c s t
-0.6984938	c t </s>
-1.9029659	c t a
-2.148172	c t c
-1.9473923	c t d
-1.3121717	c t e
-0.5309445	c t i
-1.9686589	c t j
-2.2269947	c t n
-0.8918914	c t o
-1.9125113	c t p
-1.0658194	c t r
-1.2106293	c t s
-1.0335084	c t u
-2.2344668	c t v
-2.2124255	c t w
-2.2630199	c t x
-0.8860291	c u </s>
-1.2868685	c u b
-1.6023275	c u c
-1.6609315	c u d
-1.415374	c u e
-1.5572388	c u i
-0.9405332	c u l
-0.9405332	c u m
-1.6171984	c u p
-0.7078125	c u r
-1.1262692	c u s
-0.9692769	c u t
-1.8031809	c u v
-1.8149466	c u z
-0.7519201	c v </s>
-1.1461784	c v d
-0.8465607	c v i
-1.113591	c v p
-0.844796	c v s
-0.857665	c v t
-0.2419681	c w </s>
-0.33468	c x </s>
-0.592403	c x f
-0.2735133	c y </s>
-0.5936797	c y c
-0.8776929	c y t
-0.5449171	d + +
-0.3788562	d + </s>
-2e-07	d </s> <s>
-0.6417822	d a </s>
-1.3834175	d a b
-1.5078135	d a c
-1.9875402	d a e
-1.9600018	d a f
-1.8865315	d a i
-1.977323	d a k
-1.2727513	d a l
-1.4553625	d a m
-1.4405161	d a n
-2.014187	d a o
-1.135701	d a p
-2.0281496	d a q
-1.2101506	d a r
-1.1772925	d a s
-0.6422487	d a t
-1.8948027	d a v
-1.9600018	d a w
-1.9723032	d a x
-1.5287788	d a y
-0.4180431	d b </s>
-1.0001173	d b a
-1.1149436	d b c
-1.5334296	d b g
-1.562711	d b m
-1.0228154	d b o
-1.5576916	d b p
-1.2092724	d b s
-1.4216964	d b u
-1.5995715	d b x
-1.562711	d b y
-0.3901828	d c </s>
-1.1381746	d c a
-1.506542	d c c
-1.5968125	d c d
-1.6290357	d c g
-1.3695417	d c h
-1.4417604	d c i
-1.549336	d c m
-1.6239199	d c n
-1.0962269	d c o
-1.5471997	d c p
-1.2525384	d c s
-1.3421142	d c t
-1.5366729	d c u
-0.5680702	d d </s>
-1.3926361	d d b
-1.3899602	d d c
-0.9535475	d d e
-0.9870337	d d i
-0.9903162	d d l
-1.453012	d d n
-1.3010191	d d o
-0.959546	d d r
-1.3420207	d d s
-0.7549355	d e </s>
-1.6297509	d e a
-1.5851185	d e b
-1.3541793	d e c
-1.4720632	d e d
-2.1446148	d e e
-1.5265797	d e f
-2.2555843	d e i
-2.2963416	d e j
-2.2936791	d e k
-1.0383869	d e l
-1.4793283	d e m
-1.0852148	d e n
-1.6862114	d e o
-1.5096689	d e p
-0.7227086	d e r
-1.0928366	d e s
-1.821495	d e t
-1.1634094	d e v
-2.2273452	d e w
-1.7655802	d e x
-2.3071579	d e z
-0.7915152	d f </s>
-1.1538587	d f a
-1.2023105	d f l
-1.3131893	d f m
-1.3192465	d f p
-1.1840602	d f r
-0.8816918	d f s
-1.1930895	d f t
-1.0362758	d f u
-1.3641914	d f x
-0.5608266	d g </s>
-0.1788403	d g e
-0.6140382	d h </s>
-0.9568299	d h a
-0.8705423	d h c
-0.9467919	d h e
-1.1871097	d h l
-0.8606653	d h t
-0.9743288	d i </s>
-0.9407229	d i a
-2.121789	d i b
-1.2870379	d i c
-1.8016949	d i d
-2.0390255	d i e
-1.6892791	d i g
-2.1828751	d i i
-1.9711463	d i l
-1.8105097	d i m
-0.7481621	d i n
-1.2954559	d i o
-1.7973537	d i p
-1.1410934	d i r
-0.8485496	d i s
-0.9429265	d i t
-1.7420349	d i u
-1.4106675	d i v
-2.2241283	d i y
-0.7902616	d j </s>
-0.6734935	d j a
-0.7642612	d j e
-0.8179184	d j i
-0.0306672	d k </s>
-0.4612698	d l </s>
-1.1127949	d l c
-0.4783237	d l e
-1.2919034	d l l
-1.4230945	d l n
-1.3906734	d l p
-0.4910861	d m </s>
-0.6530436	d m a
-1.6840179	d m g
-0.7692003	d m i
-1.6350591	d m l
-1.5910646	d m m
-1.4840639	d m p
-1.6840179	d m r
-1.1679293	d m s
-1.7107357	d m z
-0.4479973	d n </s>
-1.0898361	d n a
-1.0515087	d n e
-1.1962584	d n f
-0.8498447	d n s
-1.1962584	d n v
-0.9238742	d o </s>
-1.568178	d o a
-1.4206606	d o b
-0.8374186	d o c
-1.8777399	d o e
-1.8347408	d o i
-1.9192079	d o j
-1.3565972	d o l
-1.0319966	d o m
-1.1542037	d o n
-1.2818681	d o o
-1.1329314	d o r
-1.2389303	d o s
-1.4956416	d o t
-1.7070813	d o u
-1.59977	d o v
-0.9719978	d o w
-1.6088004	d o x
-0.3481268	d p </s>
-1.211554	d p a
-1.4610468	d p b
-1.3783936	d p c
-1.3432405	d p i
-1.3824812	d p m
-1.2660964	d p o
-1.3248744	d p p
-1.2087922	d p r
-1.3432405	d p s
-0.6149899	d q </s>
-0.724963	d q a
-0.724963	d q e
-0.8996188	d r </s>
-0.5514782	d r a
-1.7571354	d r b
-0.9618292	d r e
-1.4704276	d r g
-0.945654	d r i
-1.6652348	d r m
-0.8352822	d r o
-1.6970493	d r p
-1.1606069	d r u
-1.6729726	d r y
-0.2761166	d s </s>
-1.6438607	d s a
-1.5003863	d s b
-1.6100694	d s c
-1.7285881	d s d
-1.4686255	d s e
-1.7872974	d s f
-1.4204307	d s h
-1.7368007	d s k
-1.4967934	d s l
-1.463514	d s m
-1.38491	d s o
-1.2644497	d s p
-1.5375266	d s s
-1.3919729	d s t
-0.5856172	d t </s>
-1.1813659	d t a
-1.3982031	d t c
-1.4604627	d t d
-1.4812376	d t g
-1.3500071	d t h
-1.4070815	d t p
-1.202124	d t r
-1.3240565	d t s
-1.3579444	d t u
-1.186567	d t v
-1.494197	d t x
-1.4986041	d t z
-0.9614502	d u </s>
-1.549397	d u b
-0.537263	d u c
-1.5269538	d u e
-1.638573	d u g
-1.1472312	d u i
-0.8968708	d u l
-1.2779518	d u m
-1.3773305	d u n
-1.5233235	d u p
-1.199237	d u r
-1.2443548	d u s
-1.6628062	d u x
-1.0247918	d v </s>
-0.8340366	d v a
-1.2780887	d v b
-1.2780887	d v d
-0.7759986	d v e
-0.6498002	d v i
-1.2100224	d v m
-1.2484213	d v r
-1.2370994	d v s
-0.861298	d w </s>
-0.6486231	d w a
-0.9829986	d w e
-1.3095447	d w h
-1.0224202	d w i
-1.2952495	d w m
-0.6764651	d w o
-1.2952495	d w r
-0.2172688	d x </s>
-1.064775	d x l
-0.7293464	d x p
-0.3410768	d y </s>
-1.2994876	d y a
-0.4298399	d y n
-1.2456299	d y p
-0.1752439	e + </s>
-1e-07	e </s> <s>
-1.037998	e a </s>
-0.9696525	e a c
-1.0742727	e a d
-1.7926811	e a g
-2.0518912	e a i
-1.5604437	e a k
-1.1175682	e a l
-0.8823405	e a m
-1.0451456	e a n
-1.5916555	e a p
-0.961741	e a r
-0.9989974	e a s
-1.1070533	e a t
-1.8309528	e a u
-1.5415462	e a v
-1.869884	e b +
-0.8131017	e b </s>
-0.8980388	e b a
-1.7271203	e b c
-1.2363948	e b e
-1.869884	e b f
-1.2603759	e b g
-1.213015	e b i
-1.8793773	e b k
-1.512769	e b l
-1.071823	e b o
-1.7848717	e b p
-1.1378955	e b r
-0.9027576	e b s
-1.808675	e b t
-1.1241895	e b u
-1.8605937	e b v
-1.869884	e b w
-1.7926621	e b y
-0.951298	e c </s>
-1.5477047	e c a
-1.7534759	e c c
-1.6559043	e c e
-0.9035575	e c h
-1.3584341	e c i
-1.8992199	e c k
-1.4919117	e c l
-1.7742984	e c m
-0.9600888	e c o
-1.9243066	e c p
-1.5411939	e c r
-1.864114	e c s
-0.4578915	e c t
-1.246761	e c u
-2.2723663	e c v
-1.9809279	e c y
-0.3046107	e d </s>
-1.6087687	e d a
-2.0763672	e d b
-2.0722315	e d c
-2.1246664	e d d
-1.4203524	e d e
-2.1534665	e d f
-1.446617	e d g
-2.1790172	e d h
-0.7333803	e d i
-1.8257314	e d m
-1.7648679	e d o
-2.1246664	e d p
-1.6678272	e d s
-1.1406924	e d u
-1.7324193	e d w
-2.1843128	e d x
-1.8856871	e d y
-0.5555123	e e </s>
-1.3259877	e e b
-1.500523	e e c
-1.1305195	e e d
-1.8264557	e e e
-1.6469899	e e h
-1.9411728	e e k
-1.2817388	e e l
-1.7407088	e e m
-0.897474	e e n
-1.3240905	e e p
-0.8997281	e e r
-1.4396376	e e s
-1.1935821	e e t
-1.8912458	e e w
-1.8087643	e e x
-0.8747946	e f </s>
-1.002497	e f a
-1.0042894	e f e
-1.1734318	e f f
-0.5817014	e f i
-1.0226322	e f l
-1.059774	e f o
-1.157808	e f r
-1.3799979	e f t
-0.7625221	e g </s>
-0.6769771	e g a
-1.1437637	e g e
-1.7165074	e g g
-0.9497539	e g i
-1.6866985	e g m
-1.1318589	e g o
-0.635466	e g r
-1.6760273	e g u
-1.4514465	e g y
-0.7620767	e h a
-1.1412946	e h c
-0.7480385	e h i
-0.6214807	e h o
-1.1230486	e h r
-1.1571081	e h s
-0.8639324	e i </s>
-1.0404993	e i c
-1.3821521	e i d
-0.7428757	e i g
-1.5405283	e i j
-1.1410572	e i l
-0.9058763	e i n
-1.3770286	e i p
-1.4399478	e i r
-1.2723115	e i s
-1.2386333	e i t
-1.3886426	e i v
-0.9285643	e j </s>
-0.7036008	e j b
-0.9285643	e j o
-0.5233176	e j s
-0.6672224	e k </s>
-1.0388304	e k a
-1.1431978	e k g
-0.8990242	e k i
-0.8482177	e k l
-1.1177418	e k p
-1.1116042	e k t
-0.6482692	e l </s>
-1.1099714	e l a
-1.4379827	e l d
-0.7458214	e l e
-2.219472	e l f
-0.9887201	e l i
-1.9160074	e l k
-0.7982029	e l l
-1.7448471	e l m
-2.2238018	e l n
-1.1174005	e l o
-1.6159067	e l p
-1.8693387	e l s
-1.6996214	e l t
-1.8450222	e l u
-1.6032138	e l y
-0.8465229	e m </s>
-0.7985312	e m a
-1.2674728	e m b
-1.3812553	e m c
-2.1073001	e m d
-0.7360569	e m e
-2.1371456	e m f
-0.8808445	e m i
-1.9890046	e m m
-1.1371897	e m o
-1.2755918	e m p
-2.1460637	e m q
-2.1371456	e m r
-1.2922998	e m s
-2.0832555	e m t
-1.5358587	e m u
-1.6949336	e m v
-2.1371456	e m y
-1.0894828	e n </s>
-1.6094144	e n a
-2.2063623	e n b
-0.9569727	e n c
-1.1019669	e n d
-1.2172943	e n e
-1.3278965	e n g
-2.2250127	e n h
-1.6105704	e n i
-2.2274014	e n j
-2.1650353	e n k
-1.9214887	e n l
-2.4810521	e n m
-2.0123156	e n n
-1.7774678	e n o
-2.4519799	e n p
-2.5168505	e n q
-1.0992837	e n s
-0.4295766	e n t
-2.1671151	e n u
-1.7390882	e n v
-2.0536317	e n w
-2.4683536	e n y
-2.0520293	e n z
-0.7364038	e o </s>
-1.6420261	e o a
-1.3368468	e o c
-1.0046442	e o g
-1.3288243	e o l
-1.0586325	e o m
-1.1372098	e o n
-0.9854789	e o p
-0.9184567	e o r
-0.9090646	e o s
-1.3441961	e o u
-0.7360367	e p </s>
-0.9396276	e p a
-1.8687355	e p b
-1.7415293	e p c
-1.3505128	e p e
-1.8379006	e p g
-1.1537663	e p h
-1.6909479	e p i
-1.3124708	e p l
-1.7475311	e p m
-0.8715808	e p o
-1.6652004	e p p
-0.9386881	e p r
-1.3519402	e p s
-1.0319334	e p t
-1.7597895	e p u
-1.8933891	e p w
-0.8416375	e q </s>
-0.10253	e q u
-0.3912524	e r </s>
-1.1694865	e r a
-2.0231294	e r b
-1.4637139	e r c
-2.0732772	e r d
-1.3272585	e r e
-1.9478215	e r f
-1.9443451	e r g
-2.688968	e r h
-1.1335474	e r i
-2.3251376	e r k
-1.8246081	e r l
-1.6001158	e r m
-1.4504003	e r n
-1.6161075	e r o
-1.5464882	e r p
-1.8800644	e r r
-1.1854722	e r s
-1.5577267	e r t
-1.2543969	e r v
-2.2475504	e r w
-2.7208834	e r x
-1.6016859	e r y
-0.4953604	e s </s>
-1.7976475	e s a
-2.1389376	e s b
-1.3312493	e s c
-2.3392352	e s d
-1.3032552	e s e
-2.4199181	e s f
-2.4199181	e s g
-1.4844913	e s h
-1.3129005	e s i
-1.6739442	e s k
-2.1338094	e s l
-1.4296816	e s o
-1.6339921	e s p
-2.3975189	e s q
-2.4166466	e s r
-0.7402035	e s s
-0.8174844	e s t
-1.9171524	e s u
-2.4199181	e s w
-2.1655277	e s x
-1.9593829	e s y
-0.5686839	e t </s>
-0.973539	e t a
-1.7988663	e t b
-1.2305885	e t c
-1.0939777	e t e
-1.964461	e t f
-1.4664499	e t h
-1.02881	e t i
-1.9461239	e t l
-2.1706198	e t m
-1.9567263	e t n
-1.4765617	e t o
-1.5578061	e t p
-1.1582728	e t r
-1.1820816	e t s
-1.4225538	e t t
-1.8745525	e t u
-1.4311536	e t w
-1.8822337	e t y
-1.2207944	e u </s>
-1.265411	e u c
-1.3089866	e u d
-1.2794559	e u e
-1.0186291	e u i
-0.7698699	e u m
-0.734279	e u r
-0.9927927	e u s
-0.9684074	e u t
-0.797259	e v </s>
-1.2469501	e v a
-1.3415738	e v c
-0.4099048	e v e
-0.6345256	e v i
-1.0455827	e v o
-0.5433545	e w </s>
-0.6680556	e w a
-0.905758	e w e
-1.3144199	e w i
-1.2918761	e w m
-0.7946492	e w o
-1.0991329	e w s
-0.49186	e x </s>
-1.3483711	e x a
-1.1135991	e x c
-1.1135991	e x e
-1.2560946	e x i
-0.7883099	e x p
-1.8663536	e x s
-0.6922142	e x t
-1.9291011	e x u
-1.8115379	e x x
-0.3365777	e y </s>
-1.4471418	e y a
-1.184761	e y e
-1.5297323	e y h
-1.5119098	e y i
-1.4471418	e y m
-1.3842348	e y n
-1.4180531	e y o
-1.5119098	e y r
-0.9870645	e y s
-1.2189578	e y w
-0.3655899	e z i
-0.6875405	e z v
-1.1e-06	f </s> <s>
-0.7728862	f a </s>
-1.6181338	f a b
-0.3825012	f a c
-1.7076357	f a e
-1.4269438	f a l
-1.5673066	f a m
-1.2470498	f a n
-1.2613625	f a r
-1.0628691	f a s
-1.6913785	f a w
-1.6986927	f a x
-0.5021928	f b </s>
-0.520604	f b i
-0.23048	f c </s>
-1.1229589	f c a
-1.2041741	f c i
-1.0886598	f c o
-1.1529254	f c t
-0.4916819	f d </s>
-0.9815306	f d a
-1.0602898	f d c
-1.0785338	f d d
-0.7782031	f d m
-0.6090282	f e </s>
-1.0850698	f e a
-0.9127828	f e c
-1.5542004	f e d
-1.10447	f e e
-1.5504908	f e l
-1.5712972	f e m
-1.4212556	f e n
-0.7459094	f e r
-0.9616593	f e s
-1.5368554	f e t
-0.9011447	f f </s>
-0.6889124	f f e
-0.302454	f f i
-1.1975091	f f l
-1.5118631	f f m
-0.1750146	f g </s>
-0.2928327	f h d
-1.148182	f i </s>
-1.5428868	f i a
-1.7526927	f i b
-0.7196681	f i c
-1.5428868	f i d
-1.4542966	f i e
-1.7513481	f i f
-1.9283801	f i g
-2.1022572	f i h
-2.0620159	f i i
-0.8898405	f i l
-0.7386608	f i n
-1.6699351	f i o
-1.8664206	f i p
-1.1417686	f i r
-1.3809234	f i s
-1.3613472	f i t
-1.8824612	f i v
-1.3208554	f i x
-2.0353964	f i z
-0.3881615	f k </s>
-0.5582257	f k a
-1.0509774	f l </s>
-0.7140212	f l a
-0.814059	f l e
-1.0107047	f l i
-0.618609	f l o
-0.9762135	f l u
-1.1010155	f l y
-0.3332387	f m </s>
-0.9011419	f m c
-0.9911326	f m e
-1.0991761	f m p
-1.1279408	f m s
-1.1180867	f o </s>
-1.4138766	f o c
-1.8649644	f o f
-1.8112549	f o g
-1.8844525	f o i
-1.4064463	f o l
-1.2263219	f o n
-1.5800033	f o o
-1.7234589	f o p
-0.2869397	f o r
-1.5157802	f o s
-1.7535204	f o t
-1.3143813	f o u
-1.8565761	f o w
-1.3608877	f o x
-0.361915	f p </s>
-1.1439731	f p c
-1.17863	f p g
-1.1462765	f p m
-0.8610621	f p s
-0.2754901	f q c
-1.1580198	f r </s>
-0.5626329	f r a
-0.3790356	f r e
-1.5595514	f r m
-0.8869924	f r o
-1.5681478	f r s
-0.1358768	f s </s>
-1.2356825	f s a
-0.9385738	f s s
-0.2893764	f t </s>
-1.3962687	f t a
-1.2925288	f t e
-1.5304283	f t h
-1.2123004	f t o
-1.0227558	f t p
-1.579944	f t t
-1.5364698	f t u
-1.1535832	f t w
-1.2084015	f u </s>
-1.3742665	f u j
-0.9899352	f u l
-0.4416345	f u n
-0.8263785	f u s
-1.1490217	f u t
-1.3680956	f u z
-0.2559906	f v </s>
-0.4910153	f w </s>
-0.5614751	f w s
-0.0530132	f x </s>
-0.0778353	f y </s>
-0.1752439	g + </s>
-2e-07	g </s> <s>
-0.7040721	g a </s>
-1.5653278	g a c
-1.8279912	g a e
-1.8077943	g a f
-1.4908532	g a g
-1.2311035	g a l
-0.8429817	g a m
-0.9989586	g a n
-1.8472044	g a o
-1.2911816	g a p
-1.145835	g a r
-1.2709127	g a s
-0.7685816	g a t
-1.8511512	g a z
-0.7422763	g b </s>
-1.0472946	g b a
-1.2822766	g b d
-1.1051968	g b e
-1.2782466	g b g
-0.7724953	g b o
-1.3430149	g b q
-0.9574815	g b s
-1.3115848	g b t
-0.5178837	g c </s>
-1.2104105	g c c
-1.261758	g c d
-0.9568092	g c l
-1.2353258	g c m
-0.9652504	g c p
-1.1760608	g c r
-0.7201635	g d </s>
-0.9703064	g d a
-1.0747374	g d b
-1.072741	g d c
-0.8823111	g d i
-1.036456	g d s
-1.0570921	g d u
-0.4968922	g e </s>
-1.7411094	g e a
-1.5199208	g e b
-1.7266906	g e d
-1.7851578	g e e
-2.1352711	g e j
-1.2700329	g e m
-0.7287243	g e n
-1.1863413	g e o
-1.7921681	g e p
-0.8037381	g e r
-1.5318599	g e s
-1.2613885	g e t
-2.0893414	g e w
-0.5711165	g f </s>
-0.7104948	g f i
-0.94613	g f k
-0.8557561	g f r
-0.6003387	g g </s>
-0.8561322	g g e
-0.6534949	g g i
-1.2415515	g g l
-0.7528035	g g r
-1.2533387	g g s
-0.9537941	g h </s>
-1.1445159	g h a
-1.4176736	g h b
-1.3859923	g h c
-1.1321771	g h e
-1.1273382	g h o
-1.4083836	g h s
-0.386939	g h t
-1.4467993	g h z
-1.3406915	g i </s>
-1.7571622	g i a
-0.7375669	g i c
-1.3925607	g i e
-1.8850889	g i i
-1.371382	g i l
-1.7675941	g i m
-0.4983466	g i n
-1.4304302	g i o
-1.8149578	g i r
-0.8095119	g i s
-1.072717	g i t
-0.2822602	g j b
-0.2779531	g k </s>
-0.6737912	g k o
-0.7294777	g l </s>
-0.8072865	g l a
-0.6920106	g l e
-0.885889	g l i
-0.8178286	g l o
-1.4379132	g l p
-1.4162178	g l s
-1.4142981	g l y
-0.8252823	g m </s>
-0.6266252	g m a
-1.4127823	g m b
-1.4016517	g m c
-0.6942366	g m e
-1.4242058	g m l
-1.0728471	g m p
-1.3197682	g m s
-1.470581	g m v
-1.4783783	g m w
-0.6432538	g n </s>
-0.9140466	g n a
-0.6828501	g n e
-0.914775	g n i
-1.213297	g n o
-1.3817453	g n s
-1.0739709	g n u
-1.5522507	g n x
-0.6106452	g o </s>
-1.626554	g o a
-1.347925	g o d
-1.3488493	g o g
-0.9059816	g o l
-1.2310585	g o n
-1.1929262	g o o
-1.5103168	g o p
-0.7871043	g o r
-1.4893607	g o s
-1.1752013	g o t
-1.3936415	g o v
-0.565101	g p </s>
-1.0635448	g p a
-1.1868335	g p i
-1.2230776	g p m
-1.1148955	g p o
-1.169786	g p p
-1.0609347	g p r
-1.1868335	g p s
-1.230704	g p u
-1.3378495	g r </s>
-0.2653125	g r a
-1.8699937	g r c
-0.7888063	g r e
-1.2967517	g r i
-0.9023283	g r o
-1.6349618	g r p
-1.8917512	g r u
-0.5441679	g s </s>
-1.3218005	g s a
-1.2943267	g s c
-1.3888441	g s d
-1.3951943	g s k
-1.3748869	g s m
-1.147648	g s n
-1.0544083	g s o
-1.2943267	g s p
-1.2340539	g s s
-0.9492883	g s t
-0.6533522	g t </s>
-1.0696411	g t c
-0.6328241	g t k
-1.0799136	g t m
-1.0351274	g t s
-1.1111891	g u </s>
-0.6514038	g u a
-1.3681632	g u c
-0.6422123	g u i
-0.7764607	g u l
-1.336256	g u m
-1.2467566	g u r
-1.2624421	g u t
-0.152988	g v </s>
-0.7036902	g w </s>
-0.7036902	g w a
-0.8685801	g w m
-0.8800836	g w t
-0.1470799	g x </s>
-0.0719384	g y </s>
-1.0771572	g y n
-0.6246413	g z </s>
-0.7047995	g z h
-0.6875405	g z i
-6e-07	h </s> <s>
-1.2566295	h a </s>
-1.5225121	h a c
-1.3628291	h a d
-1.7134055	h a e
-1.9638877	h a f
-1.3982085	h a i
-1.2831572	h a l
-1.594066	h a m
-0.683023	h a n
-2.0132717	h a o
-1.2625826	h a p
-0.6321758	h a r
-1.1253809	h a s
-1.0839016	h a t
-1.9422094	h a u
-1.903783	h a v
-1.9638877	h a w
-1.9422094	h a y
-0.7870886	h b </s>
-0.6612556	h b a
-1.1816555	h b b
-0.6754688	h b o
-1.1221936	h b r
-1.1024421	h b u
-0.7912779	h c </s>
-0.7469991	h c a
-1.3228285	h c c
-1.1777615	h c e
-1.2118027	h c h
-1.271157	h c i
-1.3560776	h c m
-0.9580717	h c n
-1.3544352	h c p
-1.0582958	h c s
-0.5510191	h d </s>
-1.2415245	h d b
-1.2813476	h d f
-1.0310372	h d i
-0.8258544	h d l
-1.2196988	h d m
-1.2009517	h d r
-1.1989177	h d s
-0.9555527	h e </s>
-1.2333924	h e a
-1.4604346	h e c
-1.2262713	h e d
-1.5290088	h e e
-1.9988529	h e f
-1.0672065	h e l
-0.9557029	h e m
-1.2337534	h e n
-1.4341129	h e o
-1.9290662	h e p
-0.5586626	h e r
-1.4103792	h e s
-1.7750076	h e t
-2.0192471	h e u
-1.7129593	h e v
-1.8948249	h e x
-2.0048713	h e y
-0.5711165	h f </s>
-0.9183346	h f m
-0.9210354	h f p
-0.9076961	h f s
-0.2719247	h g </s>
-0.6765336	h g u
-1.3702469	h i </s>
-1.5649158	h i b
-0.8568934	h i c
-1.8643127	h i d
-1.3378758	h i e
-1.7223952	h i f
-1.3417391	h i g
-2.0341617	h i k
-1.2498821	h i l
-1.8774352	h i m
-0.6426219	h i n
-1.6758932	h i o
-0.9765932	h i p
-1.4373293	h i r
-1.4526375	h i s
-1.06025	h i t
-1.1978204	h i v
-0.2699583	h j </s>
-0.1810431	h k </s>
-0.4190293	h l </s>
-0.8409437	h l r
-0.815375	h l s
-0.7168535	h m </s>
-0.7363594	h m a
-1.1735881	h m d
-0.9294817	h m e
-0.6590251	h m i
-1.0837236	h m s
-0.8188955	h n </s>
-1.1649049	h n d
-0.4784568	h n i
-0.659129	h n o
-1.1532255	h n s
-1.2618382	h o </s>
-1.8359905	h o c
-1.5161436	h o d
-2.0005976	h o e
-1.9636337	h o i
-1.3823839	h o l
-1.1036701	h o m
-0.7019979	h o n
-1.4038144	h o o
-0.8867656	h o p
-1.1502266	h o r
-1.2182468	h o s
-0.8616772	h o t
-1.0743535	h o u
-1.6910904	h o w
-1.3515062	h p +
-0.5471049	h p </s>
-0.8514956	h p c
-0.9143437	h p e
-1.3556493	h p j
-1.1884247	h p l
-1.2725484	h p m
-1.2794792	h p u
-0.5836924	h q </s>
-0.3585826	h q l
-0.8593404	h r </s>
-1.1509218	h r a
-1.5179786	h r b
-1.4359098	h r d
-0.7832138	h r e
-1.5118626	h r g
-1.0621767	h r i
-1.1813555	h r m
-0.7670083	h r o
-1.4532469	h r p
-1.1899519	h r s
-1.4750085	h r v
-0.4536792	h s </s>
-1.2959656	h s b
-1.2675223	h s d
-0.8938726	h s e
-1.2723371	h s k
-1.1939248	h s p
-1.2998168	h s r
-1.1452276	h s s
-0.7018639	h t </s>
-1.4519557	h t c
-1.5237499	h t g
-1.409474	h t h
-1.0928236	h t i
-0.8297955	h t m
-1.2759702	h t r
-1.3863755	h t s
-0.8286949	h t t
-1.2199449	h t w
-1.4251026	h t y
-0.9234691	h u </s>
-1.1933792	h u a
-0.8157219	h u b
-0.9759078	h u d
-1.1419464	h u m
-1.0692474	h u n
-1.1876693	h u p
-1.0461213	h u r
-1.1005821	h u s
-0.2519244	h v a
-0.2419681	h w </s>
-0.4002374	h y </s>
-0.8485933	h y b
-0.5983572	h y p
-1.4416555	h y r
-0.9409723	h y s
-0.3685562	h z </s>
-0.8664611	h z b
-0.8761484	h z s
-4e-07	i </s> <s>
-0.6040973	i a </s>
-2.0430903	i a a
-1.5385034	i a b
-1.7451231	i a c
-1.8526108	i a d
-1.9191353	i a g
-2.0239561	i a k
-0.5943303	i a l
-1.6458791	i a m
-0.7864755	i a n
-1.8011171	i a p
-1.6858755	i a r
-1.4660111	i a s
-0.9381129	i a t
-1.989964	i a u
-2.0096357	i a w
-0.9221277	i b </s>
-0.872943	i b a
-1.3815544	i b c
-1.6380843	i b d
-0.8976113	i b e
-1.7326732	i b f
-1.1056779	i b i
-0.9728523	i b l
-1.2527096	i b m
-1.7251895	i b n
-1.3702677	i b o
-1.3308256	i b r
-1.4859841	i b s
-0.9957554	i b u
-1.7178326	i b x
-0.6116023	i c </s>
-0.6907317	i c a
-2.1322681	i c b
-1.9084668	i c c
-2.3690519	i c d
-0.8927779	i c e
-2.410885	i c g
-1.7386402	i c h
-1.516553	i c i
-1.4855324	i c k
-1.8086562	i c l
-2.0803646	i c m
-1.3100873	i c o
-1.8197715	i c p
-1.2668132	i c r
-0.9018893	i c s
-1.4886047	i c t
-2.0709976	i c u
-2.4176942	i c y
-0.5631821	i d </s>
-0.9287094	i d a
-1.926651	i d c
-1.7228038	i d d
-0.5974529	i d e
-1.3633983	i d g
-1.3075704	i d i
-1.7228038	i d l
-1.6756308	i d m
-1.4903426	i d o
-1.7228038	i d p
-1.2559266	i d s
-1.7275756	i d t
-1.6777647	i d u
-1.7372796	i d w
-2.0288456	i d x
-0.8102684	i e </s>
-1.8830651	i e b
-1.7228172	i e c
-1.4230123	i e d
-1.4696815	i e e
-1.9402428	i e f
-1.9023974	i e g
-1.1659028	i e l
-1.7773026	i e m
-0.9734936	i e n
-0.9363219	i e r
-0.7099256	i e s
-1.412755	i e t
-1.6528453	i e v
-0.9103821	i e w
-1.8453581	i e x
-1.1171336	i f </s>
-1.1559403	i f a
-1.6268972	i f c
-0.9133539	i f e
-1.5264594	i f f
-0.4899538	i f i
-1.5153928	i f l
-1.6486192	i f m
-0.9948232	i f o
-1.4940715	i f r
-1.6198914	i f s
-0.993684	i f t
-1.7300451	i f y
-0.9026594	i g </s>
-1.1810828	i g a
-1.6080162	i g b
-1.0508473	i g e
-1.9189843	i g f
-1.6080162	i g g
-0.7195255	i g h
-1.3381268	i g i
-1.3180608	i g m
-0.7689994	i g n
-1.7321369	i g o
-1.8758044	i g p
-0.9848461	i g r
-1.8999507	i g t
-1.5744809	i g u
-1.8817163	i g y
-0.456714	i h </s>
-0.695099	i h o
-0.8026733	i h r
-0.3784271	i i </s>
-1.2963414	i i a
-1.1692276	i i c
-1.0867188	i i i
-1.2810687	i i l
-0.9987361	i i s
-1.1951178	i i t
-0.2781207	i j i
-0.7696286	i k </s>
-1.2416132	i k a
-0.5823999	i k e
-0.4715799	i k i
-1.2953586	i k u
-1.3333836	i k v
-0.8075993	i l </s>
-1.7286638	i l a
-2.1082275	i l b
-1.1199512	i l d
-0.7312412	i l e
-0.6462821	i l i
-1.8089414	i l k
-0.8591876	i l l
-1.8029344	i l m
-1.3345168	i l o
-2.0413572	i l p
-1.4978142	i l s
-1.5948227	i l t
-1.8069298	i l v
-1.6098574	i l y
-0.7742496	i m </s>
-0.6578633	i m a
-1.4047251	i m b
-1.9025375	i m c
-1.9732283	i m d
-0.7613111	i m e
-1.9972448	i m g
-1.2499829	i m i
-1.9318703	i m l
-1.2582679	i m o
-0.9278443	i m p
-1.2820718	i m s
-1.3072565	i m u
-2.0226676	i m x
-1.2101703	i n </s>
-1.365393	i n a
-2.6942197	i n b
-1.5171759	i n c
-1.2433618	i n d
-1.1106534	i n e
-1.4903575	i n f
-0.4103277	i n g
-2.7269729	i n h
-1.4227863	i n i
-1.4893721	i n k
-2.6981813	i n m
-2.0251208	i n n
-1.9250334	i n o
-2.6711804	i n p
-2.4408675	i n q
-2.4364885	i n r
-1.3299865	i n s
-0.9216224	i n t
-1.8876232	i n u
-1.833721	i n v
-2.1397275	i n x
-1.2417503	i o </s>
-2.0092336	i o c
-2.0378802	i o d
-2.3707475	i o e
-2.272327	i o g
-2.0000898	i o l
-2.1531156	i o m
-0.1054789	i o n
-1.9902491	i o p
-1.4291351	i o r
-1.4297337	i o s
-1.8653903	i o t
-2.358185	i o v
-0.7302916	i p </s>
-1.2717597	i p a
-1.4455835	i p c
-1.9992725	i p d
-1.3249875	i p e
-2.0123309	i p g
-1.5064306	i p h
-2.0688853	i p k
-1.1427001	i p l
-1.2911537	i p m
-1.3759785	i p o
-1.510586	i p p
-2.0638808	i p q
-1.3378858	i p r
-0.9387602	i p s
-0.7908792	i p t
-1.704505	i p u
-1.6137895	i p v
-2.0790708	i p w
-1.7908526	i p x
-1.9702482	i p y
-0.7910811	i q </s>
-0.88173	i q c
-0.2593617	i q u
-1.0212608	i r </s>
-1.1213402	i r a
-1.8336912	i r b
-1.2281117	i r c
-1.5047203	i r d
-0.3824219	i r e
-1.0817523	i r i
-1.8336912	i r l
-1.4944868	i r m
-1.1547145	i r o
-1.7441926	i r s
-1.3149927	i r t
-1.7496183	i r u
-0.6126746	i s </s>
-1.4581763	i s a
-1.2346624	i s c
-1.8214455	i s d
-1.208306	i s e
-2.0164349	i s f
-2.2938638	i s g
-1.3134446	i s h
-1.0791189	i s i
-1.6190433	i s k
-1.5372214	i s m
-2.2967568	i s n
-1.3024249	i s o
-1.4494253	i s p
-1.2934027	i s s
-0.6780161	i s t
-1.6859327	i s u
-2.3026014	i s v
-2.2938638	i s w
-0.779206	i t </s>
-0.9984958	i t a
-2.3719342	i t b
-1.6003024	i t c
-0.8548208	i t e
-2.3719342	i t g
-1.4707341	i t h
-0.8360536	i t i
-2.3620638	i t k
-1.9024975	i t l
-1.6822021	i t m
-2.3460958	i t n
-1.383389	i t o
-2.0280532	i t p
-1.6594041	i t r
-1.4171251	i t s
-1.6801673	i t t
-1.7423147	i t u
-2.355606	i t v
-2.3276784	i t w
-0.7509531	i t y
-0.9593332	i u </s>
-1.2354941	i u e
-1.1990681	i u i
-0.4186044	i u m
-0.930158	i u n
-0.9450411	i u s
-2.0184685	i v +
-1.1839378	i v </s>
-1.0721254	i v a
-1.9139123	i v c
-1.9880358	i v d
-0.2148203	i v e
-0.9247176	i v i
-1.3795937	i v o
-1.9527688	i v r
-2.0106581	i v v
-2.0106581	i v y
-0.6206859	i w </s>
-0.6206859	i w a
-0.6586495	i w o
-0.1571372	i x </s>
-1.5772712	i x b
-1.0968473	i x e
-1.2650209	i x i
-1.5564655	i x m
-1.2285227	i x t
-0.2196079	i y </s>
-0.6803279	i y b
-1.0769389	i z </s>
-0.3855991	i z a
-0.4847497	i z e
-1.4269918	i z o
-1.4791698	i z t
-1.4791698	i z z
-4.4e-06	j </s> <s>
-1.2835072	j a </s>
-1.5309504	j a b
-0.9753604	j a c
-1.4827283	j a d
-1.6206947	j a k
-1.2589412	j a m
-1.3173395	j a n
-1.2358012	j a p
-1.2113189	j a s
-0.4795296	j a v
-1.6095827	j a w
-1.1700174	j a x
-0.4468313	j b </s>
-0.9704987	j b l
-0.940501	j b o
-1.0778536	j b p
-1.0048189	j b u
-0.6959701	j c </s>
-0.8879863	j c b
-0.8239538	j c i
-0.8540653	j c l
-0.7607811	j d </s>
-0.9914687	j d a
-1.0842453	j d b
-0.5584197	j d e
-1.1265622	j d k
-1.0222688	j d o
-0.309681	j e c
-1.3157917	j e e
-1.2695485	j e l
-1.1926554	j e n
-0.7324714	j e t
-0.6895678	j f a
-0.583735	j f i
-0.7022726	j f r
-0.4890994	j h </s>
-0.4984227	j h e
-0.8250143	j i </s>
-1.1648867	j i b
-0.7025801	j i n
-1.148947	j i r
-0.6587889	j i t
-1.1194911	j i v
-0.2699583	j j </s>
-0.1119672	j k </s>
-0.5561424	j l </s>
-0.702847	j l l
-0.7573297	j l p
-0.8586902	j m c
-0.7022247	j m e
-0.7950875	j m p
-0.8192386	j m s
-0.3747916	j n c
-0.6476033	j n i
-1.1204345	j o </s>
-1.2934341	j o b
-1.0526201	j o h
-1.3033997	j o i
-1.0001433	j o o
-1.0115141	j o r
-0.9881324	j o u
-1.3180452	j o v
-0.8770411	j o y
-0.4658794	j p </s>
-0.6681409	j p a
-0.8950386	j p e
-0.9057172	j p r
-0.6628737	j q </s>
-0.2175956	j q u
-0.6706794	j r </s>
-0.7348503	j r o
-0.5276029	j r u
-0.3569834	j s </s>
-0.9473528	j s c
-1.121771	j s e
-0.938425	j s o
-1.2014333	j s p
-1.0739585	j s t
-0.5926726	j t </s>
-0.6793015	j t a
-0.6275495	j t e
-1.0327366	j u l
-1.0327366	j u m
-0.5148624	j u n
-1.0670568	j u p
-0.9580213	j u r
-1.0009311	j u s
-0.5162164	j v </s>
-0.5745036	j v m
-0.4910153	j w </s>
-0.5904044	j w t
-0.2839347	j y t
-0.2436175	j z </s>
-0.1752439	k + </s>
-5e-07	k </s> <s>
-0.5431479	k a </s>
-1.3927157	k a b
-1.4603975	k a f
-0.8738589	k a g
-1.4185369	k a i
-1.3452675	k a m
-0.9017144	k a n
-1.3118538	k a p
-1.2216417	k a r
-1.2773198	k a s
-0.8189912	k b </s>
-0.8320022	k b a
-0.6274788	k b e
-0.6211112	k b o
-0.2392864	k c </s>
-0.4031428	k d </s>
-0.8910353	k d a
-0.9714452	k d d
-0.9351472	k d r
-0.8935678	k e </s>
-1.7356227	k e a
-1.5094857	k e d
-1.5712873	k e e
-1.8873894	k e f
-1.9190781	k e h
-1.8959624	k e i
-1.5066503	k e l
-1.131453	k e n
-1.8272382	k e p
-0.7012364	k e r
-0.6219679	k e t
-1.864248	k e v
-1.8756646	k e w
-0.8936367	k e y
-0.8180987	k f </s>
-0.9457714	k f c
-0.7119571	k f i
-0.8912619	k f l
-0.7746559	k f o
-0.2130966	k g </s>
-0.707046	k g r
-0.9251753	k i </s>
-1.6624093	k i a
-1.4757875	k i b
-1.4929043	k i c
-1.4301441	k i d
-1.4175437	k i l
-1.6722195	k i m
-0.3336054	k i n
-1.7165774	k i r
-1.3661954	k i s
-0.913347	k i t
-0.541992	k j </s>
-0.4722627	k j a
-0.2779531	k k </s>
-0.6551357	k k a
-0.764998	k l </s>
-0.8904177	k l a
-0.6181342	k l e
-0.5153405	k l o
-0.4990345	k m </s>
-0.5107421	k m a
-0.838733	k m s
-0.5506933	k n i
-0.5742878	k n o
-1.2469446	k o a
-1.2136303	k o d
-1.2511197	k o f
-1.3062113	k o h
-0.9355817	k o l
-0.6608841	k o n
-0.9720056	k o r
-1.1744082	k o t
-1.2785367	k o v
-0.6486139	k p </s>
-0.9578268	k p a
-1.0351172	k p h
-1.0513552	k p i
-1.0101052	k p l
-0.8094762	k p m
-0.5295276	k r </s>
-0.7740018	k r a
-0.8126947	k r o
-0.911651	k r u
-0.2043027	k s </s>
-1.3626542	k s c
-1.1083866	k s h
-1.3626542	k s p
-0.8942029	k s t
-0.5564063	k t </s>
-0.7162423	k t e
-1.0036889	k t o
-0.7680648	k t r
-1.1325632	k t v
-0.833675	k u </s>
-1.1243765	k u b
-1.1932315	k u k
-0.8375277	k u l
-0.4849691	k u p
-0.7456026	k v </s>
-0.7331686	k v a
-0.6582932	k v i
-0.8496218	k v m
-0.4910153	k w </s>
-0.4910153	k w a
-0.33468	k x </s>
-0.538134	k x p
-0.3761859	k y </s>
-0.7455586	k y c
-0.7036102	k y p
-0.2715194	l + c
-2e-07	l </s> <s>
-1.0642899	l a </s>
-1.0518139	l a b
-1.3238141	l a c
-1.6666395	l a d
-1.5897009	l a g
-2.0977544	l a i
-1.6631302	l a m
-0.768489	l a n
-1.7646001	l a p
-1.1076621	l a r
-0.9367931	l a s
-0.8439258	l a t
-1.8895911	l a u
-1.7150465	l a v
-1.9015289	l a w
-2.176792	l a x
-1.0060838	l a y
-1.9302988	l a z
-0.6187451	l b </s>
-0.8808201	l b e
-0.9930501	l b g
-0.8679503	l b o
-0.9280869	l b s
-0.505464	l c </s>
-1.1660353	l c a
-1.356353	l c c
-1.4311465	l c d
-1.0222098	l c e
-1.2382064	l c h
-1.3921416	l c m
-0.9614814	l c o
-1.3083892	l c r
-1.3172684	l c s
-1.3816118	l c u
-0.5093072	l d </s>
-1.1219599	l d a
-1.5915619	l d b
-1.5882855	l d c
-0.7210289	l d e
-1.3814778	l d f
-1.0577884	l d i
-1.6746719	l d k
-1.4817264	l d o
-1.6293343	l d p
-1.3140123	l d r
-1.5303155	l d s
-1.3814778	l d w
-0.480847	l e </s>
-1.2007934	l e a
-2.2798849	l e b
-1.1680148	l e c
-1.4731905	l e d
-1.7758014	l e e
-2.3536655	l e f
-1.6267806	l e g
-2.1184162	l e l
-1.5893998	l e m
-1.2790946	l e n
-2.0694341	l e o
-2.2719746	l e p
-1.0235205	l e r
-1.0000517	l e s
-1.2203015	l e t
-1.933646	l e u
-1.9125843	l e v
-2.0793813	l e w
-1.2647206	l e x
-2.0921444	l e y
-2.4172294	l e z
-0.3829838	l f </s>
-0.8346417	l f l
-0.8272114	l f r
-0.6514912	l g </s>
-0.5206029	l g e
-0.5557943	l g o
-1.0439011	l g r
-0.2408874	l h </s>
-1.4112801	l i </s>
-1.1948673	l i a
-1.6076528	l i b
-1.2178577	l i c
-1.3904301	l i d
-1.5837593	l i e
-1.4688499	l i f
-1.2018064	l i g
-2.0050712	l i k
-2.0497114	l i l
-1.5762687	l i m
-0.6175553	l i n
-1.5642495	l i o
-1.6513297	l i p
-2.3124339	l i q
-1.2034173	l i s
-0.8604463	l i t
-2.0066073	l i u
-1.3922961	l i v
-1.9783125	l i x
-1.3698246	l i z
-0.2699583	l j </s>
-0.2864639	l k </s>
-1.1204729	l k a
-0.6588033	l k i
-1.166107	l k t
-0.4770913	l l </s>
-1.0187813	l l a
-1.6939569	l l c
-0.7753137	l l e
-0.8666004	l l i
-1.1797594	l l o
-1.6876634	l l p
-1.5130674	l l s
-1.8876069	l l t
-1.4996913	l l u
-1.9842386	l l v
-1.2306472	l l y
-0.4260009	l m </s>
-1.0218535	l m a
-1.0351204	l m e
-1.1402071	l m i
-1.1564406	l m o
-0.8144445	l m s
-1.296339	l m t
-0.8044847	l n a
-0.7760127	l n e
-0.7123284	l n g
-0.8926314	l n m
-1.1629383	l o </s>
-1.0625609	l o a
-1.8140424	l o b
-1.2935789	l o c
-1.8109754	l o f
-0.6386032	l o g
-1.824951	l o i
-2.1623373	l o j
-1.8962196	l o l
-1.6710919	l o m
-1.2597839	l o n
-1.4371332	l o o
-1.2839372	l o p
-1.2480675	l o r
-1.4746664	l o s
-1.1528666	l o t
-1.1987397	l o u
-2.0986136	l o v
-1.1720893	l o w
-1.5757349	l o y
-0.4613634	l p </s>
-1.244108	l p a
-1.4822245	l p d
-1.4898423	l p g
-0.9958063	l p h
-1.3202344	l p l
-1.3015731	l p o
-1.2412082	l p r
-1.3835744	l p s
-1.0049355	l p t
-1.4649528	l p y
-0.0793816	l r </s>
-0.277441	l s </s>
-1.4946865	l s c
-1.1948837	l s e
-1.5167915	l s h
-1.219737	l s i
-1.3408323	l s l
-1.6219261	l s q
-1.4344138	l s s
-1.1496482	l s t
-1.5457487	l s u
-1.6392607	l s v
-0.8188586	l t </s>
-1.0773728	l t a
-1.6787397	l t c
-1.7327474	l t d
-0.8946446	l t e
-1.2440854	l t h
-0.4736066	l t i
-1.4256031	l t p
-1.3154058	l t r
-1.3838574	l t s
-1.4013756	l t u
-1.1947351	l u </s>
-1.1205307	l u a
-1.6067962	l u b
-1.3597641	l u c
-1.3918325	l u d
-0.8997247	l u e
-1.5272006	l u i
-0.9467822	l u m
-1.2774115	l u n
-0.6644226	l u s
-0.9854113	l u t
-1.2784072	l u x
-1.0494027	l v </s>
-1.0304773	l v a
-0.695091	l v e
-0.6676382	l v i
-0.8087315	l v m
-1.1671915	l v o
-1.2457741	l v s
-1.2996535	l v y
-0.1455571	l w a
-0.2439899	l x </s>
-0.6601547	l x c
-0.2274436	l y </s>
-1.5614478	l y c
-1.5614478	l y m
-1.2717244	l y n
-1.4675568	l y p
-0.9887449	l y s
-1.2777424	l y t
-1.1574364	l y z
-0.1752439	m + </s>
-2e-07	m </s> <s>
-0.9224633	m a </s>
-2.2102986	m a b
-1.3223542	m a c
-2.1414508	m a d
-2.3594762	m a e
-1.2272534	m a g
-2.4049256	m a h
-1.3243159	m a i
-2.4049256	m a j
-1.6291097	m a k
-1.243298	m a l
-2.133364	m a m
-0.7953988	m a n
-1.1604265	m a p
-0.9295208	m a r
-1.3248374	m a s
-0.8028278	m a t
-2.0334671	m a v
-1.5065525	m a x
-2.0583563	m a y
-2.1052953	m a z
-0.9379405	m b </s>
-0.8728373	m b a
-1.5864529	m b b
-1.3208125	m b d
-0.6727862	m b e
-1.572059	m b g
-1.6437317	m b h
-1.0556581	m b i
-0.8357087	m b l
-1.2708717	m b r
-1.2479018	m b s
-0.4363288	m c </s>
-0.8150924	m c a
-1.3487132	m c c
-1.6650773	m c d
-1.3972886	m c e
-1.6973005	m c g
-1.3090691	m c i
-1.6176009	m c m
-1.6921848	m c n
-1.2985232	m c o
-1.6154645	m c p
-1.1807431	m c s
-1.410379	m c t
-1.6049377	m c u
-0.4309224	m d </s>
-1.3484324	m d b
-1.3457565	m d c
-1.0579988	m d e
-1.1059315	m d i
-1.3223878	m d m
-1.3002125	m d r
-1.0650697	m d s
-1.384808	m d t
-1.4150215	m d x
-0.791715	m e </s>
-1.3607803	m e a
-2.2661432	m e b
-1.5468629	m e c
-1.1160827	m e d
-2.0104262	m e e
-2.3290902	m e f
-1.8764658	m e g
-2.3391676	m e i
-1.5551654	m e l
-1.4026045	m e m
-0.6296582	m e n
-2.3001893	m e o
-1.8653668	m e p
-0.9319753	m e r
-1.1742385	m e s
-0.8867282	m e t
-1.8871352	m e w
-0.6952915	m f </s>
-1.0737207	m f a
-1.1949663	m f c
-1.0773841	m f e
-1.2683508	m f g
-0.8798204	m f i
-0.789046	m f o
-1.1901701	m f s
-0.2654395	m g </s>
-1.0862959	m g a
-1.1742753	m g c
-0.9854388	m g e
-1.0443337	m g r
-0.7005681	m h </s>
-0.723688	m h a
-0.8711903	m h s
-0.8893516	m h z
-0.9664433	m i </s>
-1.9351824	m i a
-2.0600026	m i b
-0.7021364	m i c
-1.3494769	m i d
-1.7636201	m i e
-2.0576384	m i f
-1.3630761	m i g
-1.6826454	m i i
-1.5898914	m i l
-1.9496482	m i m
-0.6360059	m i n
-1.7316408	m i o
-1.4993886	m i p
-1.7895374	m i r
-1.1201946	m i s
-1.2394254	m i t
-2.129247	m i u
-1.382561	m i x
-1.8350829	m i z
-0.3745918	m k </s>
-0.7782956	m k s
-0.816281	m k t
-1.5760637	m l +
-0.2076638	m l </s>
-1.1440194	m l a
-1.5662539	m l b
-1.0831813	m l e
-1.2545568	m l p
-1.5721132	m l x
-0.8433318	m m </s>
-0.8048365	m m a
-1.6941849	m m b
-1.6839609	m m c
-0.7241851	m m e
-0.9480486	m m i
-0.8923784	m m o
-1.236673	m m s
-0.8605881	m m u
-0.493636	m n </s>
-0.9753495	m n c
-0.4193515	m n i
-0.9444732	m o </s>
-1.7565932	m o a
-1.2698721	m o b
-1.3016704	m o c
-0.8912152	m o d
-2.0665542	m o e
-1.9982548	m o f
-1.7231361	m o g
-1.3644007	m o l
-1.417369	m o m
-0.6842285	m o n
-1.5766068	m o o
-2.1267517	m o q
-1.1107022	m o r
-1.2832562	m o s
-1.1430234	m o t
-1.5606274	m o u
-1.628408	m o v
-2.1267517	m o z
-0.5388045	m p </s>
-0.9677152	m p a
-1.9333658	m p c
-1.1638631	m p e
-1.5359554	m p i
-0.7941432	m p l
-1.9388761	m p m
-1.1382274	m p o
-1.5251273	m p p
-1.3630309	m p r
-1.6768378	m p s
-1.5337681	m p t
-1.0368618	m p u
-2.0522929	m p v
-1.9887712	m p y
-0.2938733	m q </s>
-1.0796014	m q b
-1.0529219	m q s
-1.0705249	m q t
-0.5431944	m r </s>
-0.976473	m r a
-1.163768	m r c
-1.0369437	m r i
-0.8280628	m r o
-1.1922302	m r p
-1.1799601	m r s
-0.1865657	m s </s>
-1.7992024	m s a
-1.9402156	m s b
-1.7640204	m s c
-1.8879568	m s d
-1.4645489	m s e
-1.9499826	m s g
-1.4963729	m s i
-1.6248573	m s m
-1.952459	m s n
-1.4100275	m s o
-1.7640204	m s p
-1.5132044	m s s
-1.3071397	m s t
-1.8299303	m s u
-1.9780325	m s x
-0.5460917	m t </s>
-0.8505888	m t a
-1.4519557	m t c
-1.5059635	m t d
-1.0928236	m t i
-1.5183371	m t k
-1.4724372	m t m
-1.509463	m t n
-1.1988191	m t p
-1.0077899	m t s
-1.5147656	m t v
-1.3179091	m u </s>
-1.61412	m u d
-1.3246451	m u i
-0.3563392	m u l
-1.3246451	m u m
-0.9047648	m u n
-1.2586448	m u r
-1.1652184	m u s
-1.1456782	m u t
-1.693698	m u x
-0.702997	m v </s>
-0.6537396	m v c
-0.8077597	m v e
-0.9123442	m v i
-1.2066583	m v p
-1.2111599	m v s
-1.2589452	m v v
-0.5879253	m w </s>
-0.7175959	m w a
-1.1308052	m w c
-0.8656384	m w e
-0.9629746	m w o
-1.1253031	m w p
-0.3297102	m x </s>
-0.8160266	m x m
-0.8344369	m x n
-0.3770772	m y </s>
-1.1827106	m y a
-1.1932516	m y b
-1.1827106	m y c
-1.1673637	m y e
-1.2441343	m y f
-0.8659151	m y s
-0.2436175	m z </s>
-2e-07	n </s> <s>
-0.8774045	n a </s>
-1.7875808	n a b
-1.5667624	n a c
-1.7554095	n a d
-1.0122041	n a g
-2.160184	n a j
-0.5753569	n a l
-1.1049409	n a m
-1.2450649	n a n
-1.3387206	n a p
-1.446865	n a r
-1.3946009	n a s
-0.8778259	n a t
-1.4468092	n a v
-0.8379	n b </s>
-0.8497758	n b a
-1.0898333	n b e
-1.0649826	n b i
-0.8717251	n b o
-0.9176941	n b s
-0.7695617	n b u
-1.0264134	n c </s>
-1.3766553	n c a
-1.9450338	n c c
-0.4554195	n c e
-0.8551474	n c h
-1.0812236	n c i
-1.5767852	n c l
-1.0785386	n c o
-1.3572477	n c r
-1.6910303	n c s
-1.6139532	n c t
-1.9751648	n c u
-1.7956729	n c v
-1.4037736	n c y
-0.5641286	n d </s>
-1.1059256	n d a
-1.6193585	n d b
-1.9900447	n d c
-0.8886177	n d e
-2.0968305	n d h
-0.8762139	n d i
-2.1296184	n d j
-2.1021261	n d k
-1.6390835	n d l
-1.7435447	n d m
-0.9825588	n d o
-2.0424797	n d p
-1.1279754	n d r
-1.4827022	n d s
-2.0518691	n d t
-1.4113312	n d u
-2.056641	n d y
-0.695116	n e </s>
-1.8518652	n e a
-1.2538134	n e c
-1.8331248	n e d
-1.4269141	n e e
-2.2306501	n e f
-1.6654509	n e g
-2.2416968	n e i
-2.2790618	n e j
-1.4571288	n e l
-1.5341888	n e m
-1.4597642	n e n
-1.7858749	n e o
-0.8205862	n e r
-1.104798	n e s
-0.7074101	n e t
-1.6848766	n e u
-1.5819165	n e w
-1.6440223	n e x
-1.6805524	n e y
-0.8747946	n f </s>
-1.4749924	n f c
-1.3471433	n f e
-1.000712	n f i
-1.3886151	n f l
-0.385666	n f o
-1.0152019	n f r
-1.4697153	n f s
-1.556516	n f v
-0.129241	n g </s>
-1.7844283	n g a
-1.7676258	n g b
-1.9777561	n g c
-2.432614	n g d
-1.4788668	n g e
-2.3483368	n g h
-1.3052503	n g i
-2.1730294	n g k
-1.6812955	n g l
-2.3428992	n g m
-2.3066311	n g n
-1.6004236	n g o
-2.0885176	n g r
-1.7619161	n g s
-1.5616598	n g u
-2.4600361	n g z
-0.5543131	n h a
-0.7669964	n h e
-0.7577666	n h i
-0.9201251	n h n
-1.2125514	n i </s>
-1.7389777	n i a
-0.7520484	n i c
-1.9316677	n i d
-1.9718616	n i e
-1.3190876	n i f
-1.7744018	n i g
-2.1268495	n i i
-2.1297244	n i k
-1.899949	n i l
-1.2436572	n i m
-0.8209425	n i n
-1.287548	n i o
-1.602531	n i p
-1.7001055	n i q
-1.1625989	n i s
-0.7733129	n i t
-1.6895098	n i u
-1.7448828	n i v
-1.8285502	n i x
-1.5596014	n i z
-0.7902616	n j </s>
-0.8179184	n j i
-0.7902616	n j o
-0.8398818	n j p
-0.330337	n k </s>
-1.2160039	n k a
-0.7996786	n k e
-0.820755	n k i
-1.5516659	n k m
-1.2598807	n k p
-1.44868	n k s
-0.8933011	n l </s>
-0.7296128	n l a
-1.227782	n l d
-0.7096747	n l i
-0.8817165	n l o
-0.9758032	n l p
-1.232884	n l y
-0.9266889	n m </s>
-0.9581845	n m a
-0.6735462	n m e
-1.0927715	n m o
-0.7354194	n m p
-1.2561189	n m r
-0.9035101	n m s
-0.7950026	n n </s>
-0.3080386	n n e
-1.0577166	n n i
-1.5798267	n n l
-1.5813888	n n m
-1.5002623	n n o
-1.5526295	n n u
-1.5767193	n n y
-0.9157031	n o </s>
-1.4968841	n o c
-1.3847291	n o d
-1.5974532	n o e
-1.5646383	n o f
-1.5761681	n o i
-1.8825538	n o k
-1.2504714	n o l
-1.1480646	n o m
-0.895284	n o n
-0.9654362	n o r
-1.1544086	n o s
-0.8991927	n o t
-1.5067294	n o u
-1.2144092	n o v
-1.5596106	n o w
-0.6260004	n p </s>
-1.3543183	n p c
-1.1440696	n p d
-1.0884724	n p i
-1.2532876	n p l
-1.3587155	n p m
-1.2346263	n p o
-0.8741454	n p r
-1.3166276	n p s
-1.3676456	n p u
-1.398006	n p y
-0.2591112	n q </s>
-0.5645197	n q u
-0.7804337	n r </s>
-0.825755	n r a
-0.5935589	n r e
-0.9887753	n r u
-0.9830194	n r y
-0.5168908	n s </s>
-1.3810712	n s a
-2.1439469	n s b
-1.4389883	n s c
-2.0811665	n s d
-1.2199078	n s e
-1.7120415	n s f
-1.6355451	n s h
-0.9188836	n s i
-1.704503	n s l
-1.6745955	n s m
-2.1588846	n s n
-1.251836	n s o
-1.520262	n s p
-1.6939037	n s s
-0.8214084	n s t
-1.3281778	n s u
-2.1650065	n s v
-2.1558557	n s w
-2.1073551	n s y
-0.4957125	n t </s>
-1.0665949	n t a
-2.3196677	n t c
-2.3972841	n t d
-0.6463043	n t e
-2.4156959	n t f
-1.9032148	n t h
-0.9129821	n t i
-2.3845948	n t l
-2.3486107	n t m
-1.3303491	n t o
-1.9322325	n t p
-1.1688436	n t r
-1.2882203	n t s
-2.0936011	n t t
-1.7123063	n t u
-2.4103553	n t v
-1.0602157	n u </s>
-1.2382338	n u a
-1.4545679	n u b
-1.4072989	n u c
-1.4281494	n u e
-1.1819959	n u f
-1.5622043	n u g
-1.3618601	n u k
-1.3573536	n u l
-0.8953363	n u m
-1.2573081	n u n
-1.6669427	n u o
-1.4238985	n u p
-1.2996633	n u s
-1.2487455	n u t
-1.6596021	n u u
-0.9629676	n u x
-1.0894383	n v </s>
-1.0750272	n v a
-0.4399957	n v e
-1.5588941	n v h
-0.7413908	n v i
-1.4567372	n v m
-1.0312429	n v o
-1.480113	n v p
-1.4985094	n v r
-1.5661527	n v z
-0.7548427	n w </s>
-0.7248392	n w e
-0.801243	n w o
-0.6356149	n w r
-1.0722977	n x +
-0.1613434	n x </s>
-0.9865063	n x p
-0.2361372	n y </s>
-1.2358185	n y a
-1.1791559	n y s
-0.6698611	n y w
-0.4478999	n z </s>
-0.7551459	n z e
-0.9047144	n z h
-0.939554	n z y
-3e-07	o </s> <s>
-0.8141691	o a </s>
-1.3239112	o a c
-0.573424	o a d
-1.7539705	o a e
-1.7350658	o a f
-1.4401676	o a l
-1.5941297	o a m
-1.42756	o a n
-1.1176406	o a p
-0.8287365	o a r
-1.330486	o a s
-1.1398314	o a t
-1.7185658	o a u
-0.8704846	o b </s>
-0.9406298	o b a
-1.6240499	o b c
-1.6452963	o b d
-0.8440197	o b e
-0.8346587	o b i
-1.0459035	o b j
-1.4510444	o b l
-1.6734051	o b m
-0.8380394	o b o
-1.5481463	o b r
-1.5066664	o b s
-1.5146514	o b u
-0.7686077	o c </s>
-1.095919	o c a
-1.8943926	o c c
-0.8923604	o c e
-2.0332127	o c f
-1.4610386	o c h
-1.1871144	o c i
-2.0665937	o c j
-0.7671015	o c k
-1.9414053	o c m
-0.9025636	o c o
-1.9390473	o c p
-1.637939	o c r
-1.5089585	o c s
-1.3548696	o c t
-1.2088831	o c u
-0.7328231	o d </s>
-1.4731199	o d a
-1.2126448	o d b
-1.8118014	o d c
-0.51001	o d e
-1.1950594	o d i
-1.8528502	o d l
-1.7833758	o d m
-1.2660329	o d o
-1.2830843	o d s
-0.9653496	o d u
-1.8981878	o d x
-1.3172417	o d y
-0.4469245	o e </s>
-1.3020453	o e c
-1.4038868	o e e
-1.4559227	o e f
-1.1753221	o e i
-1.3231837	o e l
-1.3426766	o e m
-1.0212593	o e n
-1.0416164	o e s
-1.3103776	o e t
-1.1384085	o f </s>
-1.4935117	o f a
-1.7339203	o f b
-1.690309	o f d
-1.3069968	o f e
-0.5918526	o f f
-0.8489814	o f i
-1.3585787	o f o
-1.5254259	o f r
-1.6382354	o f s
-0.5610009	o f t
-0.7930627	o g </s>
-1.3599694	o g a
-1.4204219	o g g
-0.6954283	o g i
-1.567934	o g l
-1.8276253	o g m
-1.3997701	o g n
-1.2727858	o g o
-0.5230627	o g r
-1.0664882	o g y
-0.9288012	o h a
-0.9187632	o h e
-0.8492252	o h n
-0.593452	o h o
-1.1290794	o h s
-1.1290794	o h u
-0.997575	o i </s>
-0.9726733	o i c
-0.6846726	o i d
-1.0144331	o i l
-0.5540611	o i n
-1.5350449	o i p
-1.4546225	o i s
-1.0873342	o i t
-0.2771605	o j e
-0.9127511	o j o
-0.9402473	o j u
-0.3403515	o k </s>
-0.8678472	o k e
-0.6559263	o k i
-1.2937174	o k r
-1.2159836	o k s
-0.8210174	o l </s>
-1.1275201	o l a
-2.0261213	o l c
-1.0983142	o l d
-1.0113244	o l e
-2.0896538	o l f
-0.9356547	o l i
-2.0588459	o l k
-1.0354597	o l l
-2.0462835	o l m
-0.8496171	o l o
-2.0942389	o l r
-1.2479572	o l s
-1.567423	o l t
-1.239503	o l u
-1.4050266	o l v
-1.7347867	o l y
-0.8339088	o m </s>
-1.036649	o m a
-1.8505321	o m b
-1.5838248	o m c
-2.1497039	o m d
-0.7784608	o m e
-1.9056076	o m g
-1.3590303	o m i
-2.0991929	o m l
-0.8626164	o m m
-1.6224386	o m n
-1.505185	o m o
-0.664163	o m p
-2.1884675	o m q
-2.1795495	o m r
-1.4604001	o m s
-2.1256594	o m t
-1.9056076	o m y
-0.3273518	o n </s>
-1.2548966	o n a
-2.3108091	o n b
-1.7825647	o n c
-1.5170389	o n d
-1.2825846	o n e
-2.0085743	o n f
-1.5238231	o n g
-1.3328893	o n i
-2.0042213	o n k
-2.1450021	o n l
-2.5864902	o n m
-1.6282003	o n n
-1.6116637	o n o
-2.0185312	o n p
-2.6120585	o n r
-0.9663783	o n s
-1.1975148	o n t
-2.514222	o n u
-1.7792988	o n v
-2.6164702	o n w
-2.1420176	o n y
-2.6120585	o n z
-1.0051896	o o </s>
-1.8428619	o o a
-1.7280371	o o c
-1.236561	o o d
-1.6101416	o o f
-1.7889918	o o g
-0.9358466	o o k
-0.9077636	o o l
-1.1264512	o o m
-1.1919923	o o n
-1.7785632	o o o
-1.1399745	o o p
-1.1083902	o o r
-1.4942342	o o s
-0.8746925	o o t
-1.8989009	o o v
-1.9155284	o o x
-1.9728214	o o z
-0.6710299	o p </s>
-1.4172124	o p a
-2.101414	o p b
-1.6088599	o p c
-0.3940586	o p e
-1.7102632	o p h
-1.7295441	o p i
-1.4542069	o p l
-1.6111633	o p m
-1.4454464	o p o
-1.5778336	o p p
-1.4157373	o p r
-1.5886618	o p s
-1.3957828	o p t
-1.4241132	o p y
-0.4867824	o q </s>
-0.552399	o q c
-0.6515811	o r </s>
-1.2025414	o r a
-2.2052929	o r b
-1.5531487	o r c
-1.2280145	o r d
-1.0567218	o r e
-2.2091002	o r f
-1.6843956	o r g
-1.1427203	o r i
-1.00304	o r k
-2.0406387	o r l
-1.0547193	o r m
-2.017894	o r n
-1.7548832	o r o
-1.6126208	o r p
-2.5220185	o r q
-2.0380519	o r r
-1.6610444	o r s
-1.0492597	o r t
-2.3465867	o r u
-2.0524739	o r w
-1.3206089	o r y
-0.4422113	o s </s>
-1.3797187	o s a
-1.3706219	o s c
-2.0896811	o s d
-1.038856	o s e
-1.8752299	o s g
-1.4491235	o s h
-1.2350894	o s i
-1.8285134	o s m
-1.6117126	o s o
-1.2105304	o s p
-2.1370722	o s q
-2.1523602	o s r
-1.1169816	o s s
-0.8988008	o s t
-2.0290212	o s u
-1.8525422	o s y
-0.7283457	o t </s>
-1.213656	o t a
-2.0641076	o t b
-1.9451631	o t c
-2.033399	o t d
-0.7626456	o t e
-2.0546649	o t f
-1.6753975	o t h
-0.9758384	o t i
-2.0546649	o t k
-1.5943315	o t l
-1.7337548	o t m
-1.7677699	o t n
-0.7102724	o t o
-1.9574333	o t p
-1.6933818	o t r
-1.3372448	o t s
-1.5753352	o t t
-1.6819474	o t u
-1.6899399	o t y
-1.3497143	o u </s>
-1.6404159	o u b
-1.3663297	o u c
-1.0988969	o u d
-1.7005803	o u f
-0.6237176	o u n
-1.1475405	o u p
-0.9043476	o u r
-1.0287251	o u s
-0.6409031	o u t
-0.9555491	o v </s>
-0.76125	o v a
-0.4154543	o v e
-0.7306532	o v i
-1.1527005	o v o
-1.5014806	o v y
-0.5325277	o w </s>
-1.4070361	o w a
-1.728994	o w d
-0.5786805	o w e
-1.2481064	o w i
-1.4440236	o w l
-0.8577758	o w n
-1.6967362	o w p
-1.0351891	o w s
-0.2124959	o x </s>
-1.3239932	o x c
-1.3958511	o x d
-1.4030139	o x l
-1.262354	o x p
-0.9395878	o x y
-0.3779703	o y </s>
-1.2022356	o y a
-0.9207672	o y e
-0.9269149	o y m
-0.7541615	o y o
-0.1596151	o z i
-0.5331787	p + </s>
-0.8641719	p + m
-0.8171754	p + p
-0.8400382	p + w
-2e-07	p </s> <s>
-0.9393114	p a </s>
-2.1787529	p a a
-1.5642658	p a b
-0.8501422	p a c
-1.3292064	p a d
-1.3429446	p a g
-1.3483711	p a i
-1.2834507	p a l
-1.9813203	p a m
-1.0211544	p a n
-1.624115	p a p
-2.2010513	p a q
-0.6901432	p a r
-1.2556284	p a s
-1.1063518	p a t
-1.4204915	p a y
-0.7870886	p b </s>
-0.7977269	p b a
-0.8997727	p b g
-1.1904334	p b m
-0.6754688	p b o
-1.2116325	p b x
-1.2946373	p c +
-0.4195831	p c </s>
-1.1532044	p c a
-1.4546582	p c b
-1.13492	p c c
-1.2965077	p c e
-1.321303	p c h
-1.2218939	p c i
-1.4202164	p c m
-1.5818123	p c r
-1.1212921	p c s
-1.4825122	p c t
-0.5830567	p d </s>
-0.940534	p d a
-1.408162	p d c
-0.9628202	p d e
-1.4632554	p d f
-1.1542738	p d i
-1.1444813	p d m
-1.1786872	p d p
-1.3567163	p d s
-1.4503943	p d t
-1.1460504	p d u
-0.9472673	p e </s>
-1.504061	p e a
-1.1455519	p e c
-1.4965227	p e d
-1.6160831	p e e
-1.9256638	p e f
-1.5359847	p e g
-2.2089615	p e i
-1.8148884	p e l
-0.6475704	p e n
-1.6313451	p e o
-2.1364449	p e p
-0.4883885	p e r
-1.5304424	p e s
-1.4898132	p e t
-1.8726362	p e x
-0.3898589	p f </s>
-1.1498914	p f c
-1.1730857	p f d
-0.7356135	p f i
-1.1596805	p f m
-0.2892807	p g </s>
-1.2577174	p g a
-1.3737423	p g c
-0.8690297	p g i
-1.3489929	p g m
-1.3765814	p g p
-1.2047565	p g r
-1.0751804	p h </s>
-1.1515205	p h a
-1.8736454	p h d
-0.8944873	p h e
-0.6838597	p h i
-0.6851599	p h o
-0.9847491	p h p
-1.9270438	p h q
-1.8736454	p h s
-0.8580025	p h y
-0.7725512	p i </s>
-1.8158386	p i b
-0.7849495	p i c
-1.2542427	p i d
-1.7361759	p i e
-1.7509821	p i g
-1.8767514	p i k
-1.3451772	p i l
-1.5049748	p i m
-0.8266565	p i n
-1.3654467	p i o
-1.4923386	p i p
-1.5617118	p i s
-1.1093274	p i t
-1.8792738	p i u
-1.3625292	p i v
-1.2977392	p i x
-1.8499313	p i z
-0.541992	p j </s>
-0.4722627	p j a
-0.3049869	p k </s>
-0.6229565	p k i
-0.9740277	p k p
-1.1644722	p l </s>
-0.6301361	p l a
-1.7137912	p l c
-1.9303108	p l d
-0.6028326	p l e
-0.9506666	p l i
-1.8043621	p l l
-1.55432	p l m
-0.843112	p l o
-1.417435	p l s
-1.3179482	p l u
-1.6891466	p l y
-0.3716319	p m </s>
-1.1565521	p m a
-1.6392961	p m c
-1.7099868	p m d
-1.0741562	p m e
-1.7340034	p m g
-1.1563522	p m i
-1.6686288	p m l
-1.6118198	p m m
-1.2911392	p m o
-1.3027441	p m p
-1.1018777	p m s
-1.6904081	p m t
-1.7340034	p m y
-0.1335215	p n </s>
-0.9318299	p n e
-1.0900878	p o </s>
-1.9778504	p o a
-1.5347471	p o c
-1.4501075	p o d
-2.04399	p o e
-1.706164	p o g
-1.0524373	p o i
-1.1136996	p o l
-1.7932344	p o m
-1.0696688	p o n
-1.9185493	p o o
-1.8368942	p o p
-0.6691689	p o r
-0.7428931	p o s
-1.669111	p o t
-1.0490684	p o w
-1.4883179	p p +
-0.51931	p p </s>
-1.3077053	p p a
-1.5691926	p p c
-1.2915899	p p e
-1.919998	p p f
-1.8876166	p p g
-1.2981206	p p i
-0.8557438	p p l
-1.2317493	p p m
-1.9327918	p p n
-1.2551501	p p o
-1.5196646	p p p
-1.5498521	p p r
-1.2981206	p p s
-1.3986957	p p t
-1.8060655	p p u
-1.8502653	p p y
-0.6819367	p q </s>
-1.0455606	p q a
-0.7725856	p q c
-1.0455606	p q e
-1.0455606	p q m
-1.0825266	p q p
-1.3273387	p r </s>
-1.4889662	p r a
-2.1081201	p r d
-0.6518072	p r e
-0.8062482	p r i
-2.0947598	p r m
-2.1449121	p r n
-0.3100439	p r o
-1.8504789	p r s
-0.3100323	p s </s>
-1.5074938	p s a
-1.6985813	p s c
-0.9396663	p s e
-1.8667927	p s g
-1.4282337	p s i
-1.5443708	p s m
-1.0763124	p s o
-1.4878774	p s p
-1.8517577	p s q
-1.4436299	p s s
-1.3464733	p s t
-1.7589708	p s u
-1.8311437	p s y
-0.6038662	p t </s>
-1.1212584	p t a
-1.7977867	p t c
-1.0695063	p t e
-1.7443149	p t h
-0.7290087	p t i
-1.5679538	p t m
-1.872543	p t n
-0.9119931	p t o
-1.8077101	p t p
-1.5046106	p t s
-1.8178655	p t t
-1.1814441	p t u
-1.5978565	p t v
-1.5335238	p t y
-1.0464326	p u </s>
-0.988404	p u b
-1.6823108	p u f
-1.2901871	p u i
-1.4895069	p u l
-1.2901871	p u m
-1.1146428	p u n
-1.5415154	p u p
-0.8106871	p u r
-1.1320128	p u s
-0.5749163	p u t
-0.3374377	p v </s>
-0.8189617	p v c
-1.125959	p v d
-1.1034783	p v p
-0.5421678	p w a
-0.9235333	p w c
-0.9197326	p w m
-0.801243	p w o
-0.2319104	p x </s>
-0.8972475	p x c
-0.8972475	p x e
-0.4127325	p y </s>
-1.4907685	p y c
-1.2735031	p y d
-1.5668438	p y g
-1.3804367	p y p
-1.5752389	p y q
-1.5505253	p y r
-1.3750573	p y s
-0.5739693	p y t
-1.5271425	p y w
-2.5e-06	q </s> <s>
-0.2717538	q a </s>
-0.9475307	q a d
-0.9973803	q a q
-0.3451421	q b </s>
-0.6068979	q b a
-0.1104394	q c </s>
-1.0513048	q c c
-0.4329198	q d </s>
-0.5090624	q d i
-0.1470136	q e </s>
-0.9201544	q e m
-0.519964	q f </s>
-0.4633056	q f i
-0.2701905	q g i
-0.2928327	q h s
-0.2389986	q l </s>
-1.2686697	q l d
-0.8998392	q l i
-1.2880514	q l p
-1.2737541	q l s
-0.3680089	q m </s>
-1.0283145	q m f
-1.0071845	q m l
-0.9575413	q m s
-0.2990038	q n x
-0.522931	q o o
-0.6948716	q o r
-0.7734394	q o s
-0.4348078	q p </s>
-0.7951315	q p i
-0.8094762	q p m
-0.2395775	q q </s>
-0.4956498	q s </s>
-0.6922563	q s b
-0.8726833	q s e
-0.966103	q s m
-0.4415013	q t </s>
-0.8204225	q t p
-0.8228805	q t t
-0.6566748	q u a
-0.4311602	q u e
