\data\
ngram 1=31
ngram 2=804
ngram 3=10727
ngram 4=35186
ngram 5=58295

\1-grams:
-1.4913617	#	0.0
-1.4913617	+	0.0
-1.4913617	</s>	0.0
-1.4913617	<num>	0.0
-1.4913617	<s>	0.0
-1.4913617	a	0.0
-1.4913617	b	0.0
-1.4913617	c	0.0
-1.4913617	d	0.0
-1.4913617	e	0.0
-1.4913617	f	0.0
-1.4913617	g	0.0
-1.4913617	h	0.0
-1.4913617	i	0.0
-1.4913617	j	0.0
-1.4913617	k	0.0
-1.4913617	l	0.0
-1.4913617	m	0.0
-1.4913617	n	0.0
-1.4913617	o	0.0
-1.4913617	p	0.0
-1.4913617	q	0.0
-1.4913617	r	0.0
-1.4913617	s	0.0
-1.4913617	t	0.0
-1.4913617	u	0.0
-1.4913617	v	0.0
-1.4913617	w	0.0
-1.4913617	x	0.0
-1.4913617	y	0.0
-1.4913617	z	0.0

\2-grams:
-1.4333697	# +	-0.5898255
-0.5760373	# </s>	-0.5898255
-1.0268296	# a	-0.5898255
-1.4333697	# d	-0.5898255
-1.4333697	# j	-0.5898255
-1.4333697	# n	-0.5898255
-1.1841714	# p	-0.5898255
-0.9115781	# w	-0.5898255
-0.9115781	# x	-0.5898255
-1.3869359	+ +	-1.4570163
-0.6663713	+ </s>	-1.4570163
-1.33711	+ a	-1.4570163
-1.6276384	+ b	-1.4570163
-1.0596772	+ c	-1.4570163
-1.5839611	+ d	-1.4570163
-1.5636663	+ e	-1.4570163
-2.00637	+ f	-1.4570163
-1.8285097	+ g	-1.4570163
-1.33711	+ h	-1.4570163
-1.6276384	+ i	-1.4570163
-1.0596772	+ j	-1.4570163
-1.954627	+ k	-1.4570163
-1.5636663	+ l	-1.4570163
-1.2819269	+ m	-1.4570163
-1.7610588	+ n	-1.4570163
-1.6052509	+ o	-1.4570163
-1.4908205	+ p	-1.4570163
-1.8666194	+ q	-1.4570163
-1.8666194	+ r	-1.4570163
-1.1725596	+ s	-1.4570163
-1.7610588	+ t	-1.4570163
-1.954627	+ u	-1.4570163
-1.7026891	+ v	-1.4570163
-1.6052509	+ w	-1.4570163
-2.6246841	+ x	-1.4570163
-2.6246841	+ y	-1.4570163
-1.954627	+ z	-1.4570163
-2.33e-05	</s> <s>	-4.2570783
-0.2193227	<num> <num>	-2.091667
-0.410134	<num> k	-2.091667
-4.1631594	<s> #	-3.3821972
-2.7454829	<s> +	-3.3821972
-2.8726912	<s> <num>	-3.3821972
-0.1251112	<s> <s>	-3.3821972
-1.7463893	<s> a	-3.3821972
-2.0026091	<s> b	-3.3821972
-1.6820799	<s> c	-3.3821972
-1.9402573	<s> d	-3.3821972
-1.975108	<s> e	-3.3821972
-2.0430986	<s> f	-3.3821972
-2.0936739	<s> g	-3.3821972
-2.0255546	<s> h	-3.3821972
-1.9319647	<s> i	-3.3821972
-2.1441781	<s> j	-3.3821972
-2.3722257	<s> k	-3.3821972
-2.0358653	<s> l	-3.3821972
-1.8009047	<s> m	-3.3821972
-2.1391858	<s> n	-3.3821972
-2.1560548	<s> o	-3.3821972
-1.83239	<s> p	-3.3821972
-2.5476329	<s> q	-3.3821972
-2.0572513	<s> r	-3.3821972
-1.628112	<s> s	-3.3821972
-1.9371289	<s> t	-3.3821972
-2.3542123	<s> u	-3.3821972
-2.2627568	<s> v	-3.3821972
-2.1261471	<s> w	-3.3821972
-2.571589	<s> x	-3.3821972
-2.5649234	<s> y	-3.3821972
-2.4883102	<s> z	-3.3821972
-3.5021088	a #	-2.5073905
-2.3576886	a +	-2.5073905
-0.9240997	a </s>	-2.5073905
-2.035616	a a	-2.5073905
-1.6044213	a b	-2.5073905
-1.1982485	a c	-2.5073905
-1.3394263	a d	-2.5073905
-1.9969589	a e	-2.5073905
-1.9700688	a f	-2.5073905
-1.554923	a g	-2.5073905
-2.2982872	a h	-2.5073905
-1.5532554	a i	-2.5073905
-2.3684296	a j	-2.5073905
-2.0725163	a k	-2.5073905
-1.093608	a l	-2.5073905
-1.2814261	a m	-2.5073905
-0.9202079	a n	-2.5073905
-2.0110552	a o	-2.5073905
-1.3656322	a p	-2.5073905
-2.5394638	a q	-2.5073905
-1.0378552	a r	-2.5073905
-1.177442	a s	-2.5073905
-1.0705507	a t	-2.5073905
-1.8146485	a u	-2.5073905
-1.5353227	a v	-2.5073905
-2.0563165	a w	-2.5073905
-1.9788485	a x	-2.5073905
-1.7395045	a y	-2.5073905
-2.3472069	a z	-2.5073905
-2.3725471	b +	-1.962944
-0.8996868	b </s>	-1.962944
-0.8749305	b a	-1.962944
-1.584655	b b	-1.962944
-1.5185466	b c	-1.962944
-1.6045793	b d	-1.962944
-0.9952904	b e	-1.962944
-2.7196202	b f	-1.962944
-1.7033568	b g	-1.962944
-2.2669865	b h	-1.962944
-1.0175753	b i	-1.962944
-1.9491558	b j	-1.962944
-2.4605547	b k	-1.962944
-1.2520315	b l	-1.962944
-1.6326519	b m	-1.962944
-2.1821325	b n	-1.962944
-1.0282595	b o	-1.962944
-1.5911954	b p	-1.962944
-2.57105	b q	-1.962944
-1.2865666	b r	-1.962944
-1.3312712	b s	-1.962944
-1.8430377	b t	-1.962944
-1.172299	b u	-1.962944
-2.3725471	b v	-1.962944
-2.3725471	b w	-1.962944
-2.2669865	b x	-1.962944
-1.9491558	b y	-1.962944
-2.6390127	b z	-1.962944
-2.5671519	c #	-2.3335515
-2.1531341	c +	-2.3335515
-0.8722209	c </s>	-2.3335515
-1.014959	c a	-2.3335515
-1.9638528	c b	-2.3335515
-1.4287138	c c	-2.3335515
-1.8277679	c d	-2.3335515
-1.0909968	c e	-2.3335515
-2.1063256	c f	-2.3335515
-2.0405665	c g	-2.3335515
-1.0266198	c h	-2.3335515
-1.2841524	c i	-2.3335515
-2.4963227	c j	-2.3335515
-1.5265872	c k	-2.3335515
-1.4738636	c l	-2.3335515
-1.7354954	c m	-2.3335515
-1.9270966	c n	-2.3335515
-0.8983579	c o	-2.3335515
-1.6408094	c p	-2.3335515
-2.3497933	c q	-2.3335515
-1.3567187	c r	-2.3335515
-1.2775205	c s	-2.3335515
-1.1821759	c t	-2.3335515
-1.6923665	c u	-2.3335515
-2.3820551	c v	-2.3335515
-2.4548023	c w	-2.3335515
-2.6518274	c x	-2.3335515
-2.1063256	c y	-2.3335515
-2.9548727	c z	-2.3335515
-2.2170203	d +	-2.1297589
-0.6690204	d </s>	-2.1297589
-1.0984901	d a	-2.1297589
-1.5319728	d b	-2.1297589
-1.6479928	d c	-2.1297589
-1.7386774	d d	-2.1297589
-0.7874045	d e	-2.1297589
-1.8701717	d f	-2.1297589
-1.8373191	d g	-2.1297589
-1.9344205	d h	-2.1297589
-0.9425372	d i	-2.1297589
-2.2779935	d j	-2.1297589
-2.0869131	d k	-2.1297589
-1.7852037	d l	-2.1297589
-1.5280743	d m	-2.1297589
-1.9982408	d n	-2.1297589
-1.2366648	d o	-2.1297589
-1.7852037	d p	-2.1297589
-2.5393619	d q	-2.1297589
-1.3840619	d r	-2.1297589
-1.3840619	d s	-2.1297589
-1.8875794	d t	-2.1297589
-1.5398762	d u	-2.1297589
-2.1011989	d v	-2.1297589
-1.9546695	d w	-2.1297589
-2.1806613	d x	-2.1297589
-1.8617226	d y	-2.1297589
-2.8058276	d z	-2.1297589
-3.7271005	e #	-2.5514921
-2.3423888	e +	-2.5514921
-0.7460298	e </s>	-2.5514921
-1.3464974	e a	-2.5514921
-1.6735739	e b	-2.5514921
-1.2286062	e c	-2.5514921
-1.451674	e d	-2.5514921
-1.49153	e e	-2.5514921
-2.1221548	e f	-2.5514921
-1.8869944	e g	-2.5514921
-2.3242662	e h	-2.5514921
-1.8805572	e i	-2.5514921
-2.5524593	e j	-2.5514921
-2.1882337	e k	-2.5514921
-1.255027	e l	-2.5514921
-1.4564605	e m	-2.5514921
-1.0380285	e n	-2.5514921
-1.9422456	e o	-2.5514921
-1.6696246	e p	-2.5514921
-2.5377038	e q	-2.5514921
-0.7806564	e r	-2.5514921
-1.1240644	e s	-2.5514921
-1.2954419	e t	-2.5514921
-2.1111505	e u	-2.5514921
-1.8408919	e v	-2.5514921
-1.9422456	e w	-2.5514921
-1.6618321	e x	-2.5514921
-2.0551567	e y	-2.5514921
-2.8396708	e z	-2.5514921
-2.8176976	f +	-1.8334203
-1.015989	f </s>	-1.8334203
-1.0686487	f a	-1.8334203
-1.8843228	f b	-1.8334203
-1.5331415	f c	-1.8334203
-1.834924	f d	-1.8334203
-1.0961617	f e	-1.8334203
-1.2766733	f f	-1.8334203
-2.2049137	f g	-1.8334203
-2.509489	f h	-1.8334203
-0.8445697	f i	-1.8334203
-2.382774	f j	-1.8334203
-2.331031	f k	-1.8334203
-1.2681494	f l	-1.8334203
-1.7633399	f m	-1.8334203
-2.2848017	f n	-1.8334203
-0.930518	f o	-1.8334203
-1.7019022	f p	-1.8334203
-2.4415263	f q	-1.8334203
-1.2164828	f r	-1.8334203
-1.4750556	f s	-1.8334203
-1.1285861	f t	-1.8334203
-1.3465689	f u	-1.8334203
-2.8176976	f v	-1.8334203
-2.2049137	f w	-1.8334203
-1.9400703	f x	-1.8334203
-2.0526088	f y	-1.8334203
-2.2848017	f z	-1.8334203
-2.2943278	g +	-2.0204501
-0.6019693	g </s>	-2.0204501
-1.1689663	g a	-2.0204501
-1.9918901	g b	-2.0204501
-1.7201712	g c	-2.0204501
-1.8558505	g d	-2.0204501
-0.8925321	g e	-2.0204501
-2.2661229	g f	-2.0204501
-1.8889319	g g	-2.0204501
-1.4949276	g h	-2.0204501
-1.0733259	g i	-2.0204501
-2.1910722	g j	-2.0204501
-2.4300531	g k	-2.0204501
-1.4305674	g l	-2.0204501
-1.5285722	g m	-2.0204501
-1.4903271	g n	-2.0204501
-1.2530206	g o	-2.0204501
-1.8351182	g p	-2.0204501
-2.3919434	g q	-2.0204501
-1.123406	g r	-2.0204501
-1.5650438	g s	-2.0204501
-1.9247425	g t	-2.0204501
-1.4226639	g u	-2.0204501
-2.2943278	g v	-2.0204501
-2.4718314	g w	-2.0204501
-2.5180607	g x	-2.0204501
-1.744126	g y	-2.0204501
-2.3244925	g z	-2.0204501
-2.5900539	h +	-1.981948
-0.8669283	h </s>	-1.981948
-0.8789961	h a	-1.981948
-1.8504298	h b	-1.981948
-1.6304331	h c	-1.981948
-1.8739725	h d	-1.981948
-0.9535754	h e	-1.981948
-2.2558257	h f	-1.981948
-2.1761747	h g	-1.981948
-2.3184077	h h	-1.981948
-0.8839186	h i	-1.981948
-2.2859904	h j	-1.981948
-1.9993017	h k	-1.981948
-1.8862404	h l	-1.981948
-1.8739725	h m	-1.981948
-1.6974913	h n	-1.981948
-0.9160173	h o	-1.981948
-1.5908665	h p	-1.981948
-2.391551	h q	-1.981948
-1.3466681	h r	-1.981948
-1.5908665	h s	-1.981948
-1.247539	h t	-1.981948
-1.4564255	h u	-1.981948
-2.7386241	h v	-1.981948
-2.1088927	h w	-1.981948
-2.7386241	h x	-1.981948
-1.5604426	h y	-1.981948
-2.3184077	h z	-1.981948
-2.7384631	i +	-2.4645853
-1.157469	i </s>	-2.4645853
-1.3640877	i a	-2.4645853
-1.744712	i b	-2.4645853
-1.0611564	i c	-2.4645853
-1.4616433	i d	-2.4645853
-1.4870198	i e	-2.4645853
-1.8186608	i f	-2.4645853
-1.5317073	i g	-2.4645853
-2.4507971	i h	-2.4645853
-2.1200301	i i	-2.4645853
-2.6837738	i j	-2.4645853
-2.2499002	i k	-2.4645853
-1.3986547	i l	-2.4645853
-1.5070752	i m	-2.4645853
-0.6903544	i n	-2.4645853
-1.1529047	i o	-2.4645853
-1.4789292	i p	-2.4645853
-2.3815024	i q	-2.4645853
-1.5897243	i r	-2.4645853
-1.1173228	i s	-2.4645853
-1.0367382	i t	-2.4645853
-2.1271031	i u	-2.4645853
-1.4121893	i v	-2.4645853
-2.466089	i w	-2.4645853
-1.8827526	i x	-2.4645853
-2.6352075	i y	-2.4645853
-2.0994771	i z	-2.4645853
-2.7689515	j +	-1.6012838
-0.9769161	j </s>	-1.6012838
-0.7326745	j a	-1.6012838
-1.8204722	j b	-1.6012838
-1.6186374	j c	-1.6012838
-1.6885451	j d	-1.6012838
-1.1977758	j e	-1.6012838
-1.9377435	j f	-1.6012838
-2.2773524	j g	-1.6012838
-2.0108868	j h	-1.6012838
-1.242919	j i	-1.6012838
-2.0108868	j j	-1.6012838
-1.9053262	j k	-1.6012838
-1.9053262	j l	-1.6012838
-1.7955105	j m	-1.6012838
-1.7955105	j n	-1.6012838
-1.2039446	j o	-1.6012838
-1.7495183	j p	-1.6012838
-1.242919	j q	-1.6012838
-1.8469566	j r	-1.6012838
-0.8445846	j s	-1.6012838
-1.4813775	j t	-1.6012838
-1.4584562	j u	-1.6012838
-2.2093897	j v	-1.6012838
-1.8469566	j w	-1.6012838
-1.8204722	j x	-1.6012838
-1.6699853	j y	-1.6012838
-1.9053262	j z	-1.6012838
-1.4988761	k +	-1.7498467
-0.5419593	k </s>	-1.7498467
-1.159964	k a	-1.7498467
-1.8371081	k b	-1.7498467
-1.6667637	k c	-1.7498467
-1.8767914	k d	-1.7498467
-0.7906294	k e	-1.7498467
-2.0237244	k f	-1.7498467
-2.201228	k g	-1.7498467
-2.2992003	k h	-1.7498467
-1.0574303	k i	-1.7498467
-2.0863064	k j	-1.7498467
-1.9440734	k k	-1.7498467
-1.6797663	k l	-1.7498467
-1.7672004	k m	-1.7498467
-1.8185482	k n	-1.7498467
-1.3715577	k o	-1.7498467
-1.8767914	k p	-1.7498467
-2.5065228	k q	-1.7498467
-1.9204688	k r	-1.7498467
-1.2432295	k s	-1.7498467
-1.6797663	k t	-1.7498467
-1.5959967	k u	-1.7498467
-2.2474573	k v	-1.7498467
-2.2992003	k w	-1.7498467
-2.2474573	k x	-1.7498467
-1.6299404	k y	-1.7498467
-2.4259153	k z	-1.7498467
-1.9328377	l +	-2.2408166
-0.7540304	l </s>	-2.2408166
-0.9996409	l a	-2.2408166
-2.097989	l b	-2.2408166
-1.7106936	l c	-2.2408166
-1.6019594	l d	-2.2408166
-0.7953774	l e	-2.2408166
-2.1577336	l f	-2.2408166
-2.1979708	l g	-2.2408166
-2.4350433	l h	-2.2408166
-0.8684944	l i	-2.2408166
-2.3890511	l j	-2.2408166
-2.1328411	l k	-2.2408166
-1.1553435	l l	-2.2408166
-1.9483768	l m	-2.2408166
-2.4350433	l n	-2.2408166
-1.0827739	l o	-2.2408166
-1.8373086	l p	-2.2408166
-2.6921979	l q	-2.2408166
-2.2581703	l r	-2.2408166
-1.5484002	l s	-2.2408166
-1.4281342	l t	-2.2408166
-1.4427008	l u	-2.2408166
-2.0869666	l v	-2.2408166
-2.328078	l w	-2.2408166
-2.4864894	l x	-2.2408166
-1.6238791	l y	-2.2408166
-2.4114387	l z	-2.2408166
-2.3786139	m +	-2.1843872
-0.8173621	m </s>	-2.1843872
-0.7600288	m a	-2.1843872
-1.5945045	m b	-2.1843872
-1.4951315	m c	-2.1843872
-1.8999305	m d	-2.1843872
-0.8637193	m e	-2.1843872
-2.2181914	m f	-2.1843872
-2.1013042	m g	-2.1843872
-2.5939902	m h	-2.1843872
-1.0484562	m i	-2.1843872
-2.6357685	m j	-2.1843872
-2.3550093	m k	-2.1843872
-1.5047542	m l	-2.1843872
-1.5527144	m m	-2.1843872
-2.2910371	m n	-2.1843872
-1.097642	m o	-2.1843872
-1.2019492	m p	-2.1843872
-2.2530887	m q	-2.1843872
-2.0305372	m r	-2.1843872
-1.3530129	m s	-2.1843872
-1.7399898	m t	-2.1843872
-1.6542643	m u	-2.1843872
-1.9792677	m v	-2.1843872
-2.1013042	m w	-2.1843872
-2.5939902	m x	-2.1843872
-1.6875404	m y	-2.1843872
-2.8604558	m z	-2.1843872
-3.5340684	n #	-2.35846
-2.78202	n +	-2.35846
-0.7906893	n </s>	-2.35846
-1.1307191	n a	-2.35846
-2.0971111	n b	-2.35846
-1.3050696	n c	-2.35846
-1.1854391	n d	-2.35846
-1.0000423	n e	-2.35846
-1.8255059	n f	-2.35846
-0.8823705	n g	-2.35846
-2.4069636	n h	-2.35846
-1.1289498	n i	-2.35846
-2.2902039	n j	-2.35846
-1.764199	n k	-2.35846
-2.1402009	n l	-2.35846
-2.1587097	n m	-2.35846
-1.7604039	n n	-2.35846
-1.4178482	n o	-2.35846
-1.9761604	n p	-2.35846
-2.823669	n q	-2.35846
-2.3905332	n r	-2.35846
-1.2622268	n s	-2.35846
-0.9871147	n t	-2.35846
-1.7836886	n u	-2.35846
-1.9699945	n v	-2.35846
-2.4418158	n w	-2.35846
-2.3446717	n x	-2.35846
-1.9887613	n y	-2.35846
-2.4797108	n z	-2.35846
-2.647504	o +	-2.4018312
-0.9971787	o </s>	-2.4018312
-1.7848937	o a	-2.4018312
-1.5891488	o b	-2.4018312
-1.4019813	o c	-2.4018312
-1.4725889	o d	-2.4018312
-2.0235421	o e	-2.4018312
-1.531128	o f	-2.4018312
-1.5614042	o g	-2.4018312
-2.3061236	o h	-2.4018312
-1.7848937	o i	-2.4018312
-2.2938557	o j	-2.4018312
-1.9252105	o k	-2.4018312
-1.3013336	o l	-2.4018312
-1.27507	o m	-2.4018312
-0.8037041	o n	-2.4018312
-1.3734586	o o	-2.4018312
-1.3138176	o p	-2.4018312
-2.8114342	o q	-2.4018312
-0.8952763	o r	-2.4018312
-1.2820768	o s	-2.4018312
-1.3852407	o t	-2.4018312
-1.3050413	o u	-2.4018312
-1.9252105	o v	-2.4018312
-1.6424245	o w	-2.4018312
-2.0572759	o x	-2.4018312
-2.1173745	o y	-2.4018312
-2.5724533	o z	-2.4018312
-1.9716252	p +	-2.1863104
-0.7154889	p </s>	-2.1863104
-1.0092862	p a	-2.1863104
-2.011221	p b	-2.1863104
-1.5165181	p c	-2.1863104
-1.8560182	p d	-2.1863104
-1.003139	p e	-2.1863104
-2.0906029	p f	-2.1863104
-1.9531037	p g	-2.1863104
-1.3114493	p h	-2.1863104
-1.3304815	p i	-2.1863104
-2.4903529	p j	-2.1863104
-2.334545	p k	-2.1863104
-1.2607346	p l	-2.1863104
-1.5807621	p m	-2.1863104
-2.2929604	p n	-2.1863104
-1.2006543	p o	-2.1863104
-1.3881947	p p	-2.1863104
-2.3132551	p q	-2.1863104
-1.0595493	p r	-2.1863104
-1.4110037	p s	-2.1863104
-1.3436494	p t	-2.1863104
-1.6471302	p u	-2.1863104
-2.2201146	p v	-2.1863104
-2.3132551	p w	-2.1863104
-2.3805372	p x	-2.1863104
-1.7707217	p y	-2.1863104
-2.8623791	p z	-2.1863104
-2.179922	q +	-1.4232459
-0.8293935	q </s>	-1.4232459
-1.237914	q a	-1.4232459
-1.9208565	q b	-1.4232459
-1.2586463	q c	-1.4232459
-1.9208565	q d	-1.4232459
-1.2804183	q e	-1.4232459
-1.9208565	q f	-1.4232459
-2.0993145	q g	-1.4232459
-2.0993145	q h	-1.4232459
-1.4094576	q i	-1.4232459
-2.179922	q j	-1.4232459
-2.4075231	q k	-1.4232459
-0.8796069	q l	-1.4232459
-1.5105073	q m	-1.4232459
-2.5909136	q n	-1.4232459
-1.7947392	q o	-1.4232459
-1.7597056	q p	-1.4232459
-2.0993145	q q	-1.4232459
-1.8328489	q r	-1.4232459
-1.4741483	q s	-1.4232459
-1.5501906	q t	-1.4232459
-0.6326008	q u	-1.4232459
-2.0313518	q v	-1.4232459
-2.2789802	q w	-1.4232459
-2.179922	q x	-1.4232459
-1.4741483	q y	-1.4232459
-2.4075231	q z	-1.4232459
-2.5569299	r +	-2.3863078
-0.7532352	r </s>	-2.3863078
-0.9442184	r a	-2.3863078
-1.9589653	r b	-2.3863078
-1.4757154	r c	-2.3863078
-1.5572265	r d	-2.3863078
-0.8562439	r e	-2.3863078
-2.0707631	r f	-2.3863078
-1.9045417	r g	-2.3863078
-2.2217083	r h	-2.3863078
-1.0626851	r i	-2.3863078
-2.3878114	r j	-2.3863078
-1.5618491	r k	-2.3863078
-1.9532056	r l	-2.3863078
-1.5503836	r m	-2.3863078
-1.7924554	r n	-2.3863078
-1.0280308	r o	-2.3863078
-1.754635	r p	-2.3863078
-2.5569299	r q	-2.3863078
-1.9475213	r r	-2.3863078
-1.3298069	r s	-2.3863078
-1.3072517	r t	-2.3863078
-1.669401	r u	-2.3863078
-1.7846233	r v	-2.3863078
-2.3577478	r w	-2.3863078
-2.5805346	r x	-2.3863078
-1.5595316	r y	-2.3863078
-3.0623765	r z	-2.3863078
-1.8714728	s +	-2.4451036
-0.615822	s </s>	-2.4451036
-1.3647564	s a	-2.4451036
-2.194133	s b	-2.4451036
-1.3495566	s c	-2.4451036
-1.9104284	s d	-2.4451036
-1.0701568	s e	-2.4451036
-2.2304184	s f	-2.4451036
-2.2700141	s g	-2.4451036
-1.344606	s h	-2.4451036
-1.1281578	s i	-2.4451036
-2.3135854	s j	-2.4451036
-1.843419	s k	-2.4451036
-1.9789606	s l	-2.4451036
-1.7922247	s m	-2.4451036
-2.2210589	s n	-2.4451036
-1.2498928	s o	-2.4451036
-1.3699436	s p	-2.4451036
-1.8098237	s q	-2.4451036
-2.1076213	s r	-2.4451036
-1.2066065	s s	-2.4451036
-0.943896	s t	-2.4451036
-1.5122255	s u	-2.4451036
-2.2912536	s v	-2.4451036
-2.0235982	s w	-2.4451036
-2.664292	s x	-2.4451036
-1.7252303	s y	-2.4451036
-2.2912536	s z	-2.4451036
-3.5634277	t #	-2.3878192
-2.3069505	t +	-2.3878192
-0.7195826	t </s>	-2.3878192
-1.0823674	t a	-2.3878192
-2.1025298	t b	-2.3878192
-1.6024023	t c	-2.3878192
-2.0513217	t d	-2.3878192
-0.8537338	t e	-2.3878192
-2.2276356	t f	-2.3878192
-2.2074018	t g	-2.3878192
-1.4755871	t h	-2.3878192
-0.9072496	t i	-2.3878192
-2.3325532	t j	-2.3878192
-2.4533994	t k	-2.3878192
-1.8012495	t l	-2.3878192
-1.6199332	t m	-2.3878192
-2.1605934	t n	-2.3878192
-1.0794127	t o	-2.3878192
-1.8251758	t p	-2.3878192
-2.5729408	t q	-2.3878192
-1.1932231	t r	-2.3878192
-1.4047135	t s	-2.3878192
-1.6462724	t t	-2.3878192
-1.5158932	t u	-2.3878192
-2.1025298	t v	-2.3878192
-2.0872726	t w	-2.3878192
-2.6214196	t x	-2.3878192
-1.4489279	t y	-2.3878192
-2.4533994	t z	-2.3878192
-2.9046753	u +	-2.048941
-1.1518969	u </s>	-2.048941
-1.3032439	u a	-2.048941
-1.5234185	u b	-2.048941
-1.3892175	u c	-2.048941
-1.4433926	u d	-2.048941
-1.2315096	u e	-2.048941
-2.0351527	u f	-2.048941
-1.8738515	u g	-2.048941
-2.3529834	u h	-2.048941
-1.2018462	u i	-2.048941
-2.5003223	u j	-2.048941
-2.0662946	u k	-2.048941
-1.1931121	u l	-2.048941
-1.3261213	u m	-2.048941
-0.9062574	u n	-2.048941
-2.1758857	u o	-2.048941
-1.2582959	u p	-2.048941
-2.6570469	u q	-2.048941
-1.0648909	u r	-2.048941
-1.0338459	u s	-2.048941
-1.0829615	u t	-2.048941
-2.3854007	u u	-2.048941
-2.3854007	u v	-2.048941
-2.5465516	u w	-2.048941
-1.5935347	u x	-2.048941
-2.1362023	u y	-2.048941
-2.2195631	u z	-2.048941
-2.0484465	v +	-1.8027737
-1.0406763	v </s>	-1.8027737
-0.7967614	v a	-1.8027737
-1.8900351	v b	-1.8027737
-1.4582185	v c	-1.8027737
-1.9510083	v d	-1.8027737
-0.5373635	v e	-1.8027737
-2.2123768	v f	-1.8027737
-2.4108797	v g	-1.8027737
-2.4108797	v h	-1.8027737
-0.7573065	v i	-1.8027737
-2.6585081	v j	-1.8027737
-2.9704414	v k	-1.8027737
-1.8536762	v l	-1.8027737
-1.7326933	v m	-1.8027737
-1.9970005	v n	-1.8027737
-1.3931834	v o	-1.8027737
-1.7599279	v p	-1.8027737
-2.5594499	v q	-1.8027737
-1.7326933	v r	-1.8027737
-1.6599461	v s	-1.8027737
-1.9733958	v t	-1.8027737
-1.6381742	v u	-1.8027737
-2.2123768	v v	-1.8027737
-2.9704414	v w	-1.8027737
-2.5594499	v x	-1.8027737
-2.0484465	v y	-1.8027737
-2.7870509	v z	-1.8027737
-2.5639124	w +	-1.708178
-0.8860491	w </s>	-1.708178
-0.8312528	w a	-1.708178
-1.8564126	w b	-1.708178
-1.6653322	w c	-1.708178
-1.9273664	w d	-1.708178
-0.7506678	w e	-1.708178
-1.814828	w f	-1.708178
-2.0796714	w g	-1.708178
-1.6943897	w h	-1.708178
-0.8722538	w i	-1.708178
-1.9820558	w j	-1.708178
-2.316284	w k	-1.708178
-1.8564126	w l	-1.708178
-1.9273664	w m	-1.708178
-1.8564126	w n	-1.708178
-0.9709194	w o	-1.708178
-1.7768795	w p	-1.708178
-2.3842466	w q	-1.708178
-1.6943897	w r	-1.708178
-1.3926333	w s	-1.708178
-1.9024047	w t	-1.708178
-1.9538508	w u	-1.708178
-2.4648541	w v	-1.708178
-2.1595594	w w	-1.708178
-1.9273664	w x	-1.708178
-1.7954394	w y	-1.708178
-2.0122205	w z	-1.708178
-1.6568228	x +	-1.6059204
-0.4207191	x </s>	-1.6059204
-1.5773604	x a	-1.6059204
-1.6568228	x b	-1.6059204
-1.1963301	x c	-1.6059204
-1.8001472	x d	-1.6059204
-1.4413209	x e	-1.6059204
-1.9423801	x f	-1.6059204
-1.9099629	x g	-1.6059204
-2.0155234	x h	-1.6059204
-1.1785779	x i	-1.6059204
-2.0155234	x j	-1.6059204
-2.4616548	x k	-1.6059204
-1.6931818	x l	-1.6059204
-1.5921321	x m	-1.6059204
-2.0155234	x n	-1.6059204
-1.8797982	x o	-1.6059204
-1.3134806	x p	-1.6059204
-2.1035311	x q	-1.6059204
-2.0573018	x r	-1.6059204
-1.3549498	x s	-1.6059204
-1.3295963	x t	-1.6059204
-1.6232741	x u	-1.6059204
-2.7735881	x v	-1.6059204
-2.0573018	x w	-1.6059204
-1.5102129	x x	-1.6059204
-1.754155	x y	-1.6059204
-1.9423801	x z	-1.6059204
-3.0092171	y #	-1.8336087
-2.0936414	y +	-1.8336087
-0.4095523	y </s>	-1.8336087
-1.4155619	y a	-1.8336087
-1.5256298	y b	-1.8336087
-1.5889862	y c	-1.8336087
-1.8055498	y d	-1.8336087
-1.4451431	y e	-1.8336087
-1.7653526	y f	-1.8336087
-1.9169645	y g	-1.8336087
-2.0936414	y h	-1.8336087
-1.8498505	y i	-1.8336087
-1.8345759	y j	-1.8336087
-2.1518846	y k	-1.8336087
-1.6153496	y l	-1.8336087
-1.6063828	y m	-1.8336087
-1.5406237	y n	-1.8336087
-1.3050666	y o	-1.8336087
-1.4971111	y p	-1.8336087
-2.2191666	y q	-1.8336087
-1.9963799	y r	-1.8336087
-1.0457441	y s	-1.8336087
-1.4330678	y t	-1.8336087
-1.7404832	y u	-1.8336087
-2.3964333	y v	-1.8336087
-1.8821123	y w	-1.8336087
-1.9169645	y x	-1.8336087
-1.6631903	y y	-1.8336087
-1.9751237	y z	-1.8336087
-2.3734433	z +	-1.3891661
-0.7611305	z </s>	-1.3891661
-1.1559594	z a	-1.3891661
-1.5374006	z b	-1.3891661
-1.4578676	z c	-1.3891661
-1.7606594	z d	-1.3891661
-0.9735774	z e	-1.3891661
-1.7606594	z f	-1.3891661
-1.9385197	z g	-1.3891661
-1.1381955	z h	-1.3891661
-1.3906697	z i	-1.3891661
-1.5161108	z j	-1.3891661
-1.7987691	z k	-1.3891661
-1.3906697	z l	-1.3891661
-1.9385197	z m	-1.3891661
-1.4065198	z n	-1.3891661
-1.1651214	z o	-1.3891661
-2.1458422	z p	-1.3891661
-1.8405474	z q	-1.3891661
-2.2449004	z r	-1.3891661
-1.8867767	z s	-1.3891661
-1.6630438	z t	-1.3891661
-1.997272	z u	-1.3891661
-2.2449004	z v	-1.3891661
-1.8867767	z w	-1.3891661
-1.3606061	z x	-1.3891661
-1.4229703	z y	-1.3891661
-1.3906697	z z	-1.3891661

\3-grams:
-0.2162429	# + </s>	-0.30103
-2.3e-06	# </s> <s>	-1.0
-0.6557581	# a m	-0.39794
-0.3699956	# a s	-0.39794
-0.2167115	# d </s>	-0.30103
-0.2272876	# j a	-0.30103
-0.2596412	# n e	-0.30103
-0.5763916	# p c	-0.30103
-0.5875779	# p y	-0.30103
-0.6596511	# w e	-0.3679768
-0.4644176	# w i	-0.3679768
-0.8238481	# w p	-0.3679768
-0.0575395	# x </s>	-0.69897
-0.3244456	+ + </s>	-0.5920758
-1.5333492	+ + b	-0.5920758
-1.0359079	+ + c	-0.5920758
-1.5677912	+ + g	-0.5920758
-1.2716616	+ + l	-0.5920758
-1.4362617	+ + m	-0.5920758
-1.5729423	+ + q	-0.5920758
-1.1958255	+ + s	-0.5920758
-1.5576688	+ + t	-0.5920758
-1.5834314	+ + u	-0.5920758
-1.5286445	+ + w	-0.5920758
-1e-07	+ </s> <s>	-2.2380461
-1.1005253	+ a c	-0.69897
-1.6155341	+ a e	-0.69897
-1.0246437	+ a i	-0.69897
-0.7480358	+ a j	-0.69897
-1.4856653	+ a m	-0.69897
-0.6496865	+ a n	-0.69897
-1.0109655	+ a p	-0.69897
-0.887926	+ a r	-0.69897
-1.614	+ a x	-0.69897
-1.4291201	+ b +	-0.447158
-1.0930816	+ b </s>	-0.447158
-1.0791065	+ b a	-0.447158
-1.3322111	+ b c	-0.447158
-1.3507507	+ b d	-0.447158
-0.9758165	+ b i	-0.447158
-0.5475015	+ b o	-0.447158
-1.0937548	+ b p	-0.447158
-1.2661919	+ b r	-0.447158
-1.2237884	+ b u	-0.447158
-1.4216758	+ c #	-0.8616973
-1.1646035	+ c </s>	-0.8616973
-0.9966064	+ c a	-0.8616973
-1.8540475	+ c b	-0.8616973
-1.5210908	+ c c	-0.8616973
-1.4418821	+ c e	-0.8616973
-1.766551	+ c l	-0.8616973
-1.8230937	+ c m	-0.8616973
-1.3728821	+ c o	-0.8616973
-1.80565	+ c p	-0.8616973
-0.24431	+ c s	-0.8616973
-0.9372802	+ d b	-0.544068
-1.3879658	+ d d	-0.544068
-0.4971257	+ d i	-0.544068
-1.4292157	+ d j	-0.544068
-1.0555348	+ d o	-0.544068
-1.3231788	+ d r	-0.544068
-1.3231788	+ d s	-0.544068
-0.9378495	+ d u	-0.544068
-0.9059143	+ e </s>	-0.4637573
-0.9616617	+ e a	-0.4637573
-1.4140994	+ e b	-0.4637573
-1.287716	+ e c	-0.4637573
-1.1741903	+ e g	-0.4637573
-1.4830787	+ e h	-0.4637573
-0.7560744	+ e l	-0.4637573
-0.9227697	+ e r	-0.4637573
-1.2434917	+ e s	-0.4637573
-1.3128272	+ e t	-0.4637573
-1.1549716	+ e x	-0.4637573
-0.287199	+ f l	-0.5228787
-0.9272952	+ f r	-0.5228787
-0.9449781	+ f u	-0.5228787
-0.8518871	+ g </s>	-0.50515
-0.3964279	+ g i	-0.50515
-1.1302092	+ g l	-0.50515
-1.0653987	+ g r	-0.50515
-0.8638877	+ g u	-0.50515
-0.7356744	+ h </s>	-0.7403627
-1.1581507	+ h a	-0.7403627
-1.3185755	+ h b	-0.7403627
-1.5993308	+ h d	-0.7403627
-0.7955635	+ h i	-0.7403627
-1.3354276	+ h q	-0.7403627
-1.1171006	+ h r	-0.7403627
-0.5146519	+ h t	-0.7403627
-1.2097535	+ i </s>	-0.3590219
-1.4075425	+ i b	-0.3590219
-1.1595594	+ i c	-0.3590219
-1.3419437	+ i e	-0.3590219
-1.4722308	+ i k	-0.3590219
-1.3481271	+ i m	-0.3590219
-0.9190015	+ i n	-0.3590219
-0.8075269	+ i o	-0.3590219
-1.339393	+ i p	-0.3590219
-1.3715843	+ i r	-0.3590219
-1.1894786	+ i s	-0.3590219
-1.14599	+ i t	-0.3590219
-1.0999873	+ i v	-0.3590219
-1.4912902	+ i y	-0.3590219
-1.6621404	+ j </s>	-1.09691
-0.6679551	+ j a	-1.09691
-1.7350191	+ j e	-1.09691
-1.8309862	+ j p	-1.09691
-0.5069055	+ j q	-1.09691
-0.4147927	+ j s	-1.09691
-0.5779503	+ k </s>	-0.4149733
-0.9849163	+ k a	-0.4149733
-1.0860226	+ k d	-0.4149733
-0.5330491	+ k e	-0.4149733
-0.9561645	+ k i	-0.4149733
-1.0151373	+ l a	-0.559308
-0.8308039	+ l e	-0.559308
-0.7562849	+ l i	-0.559308
-1.4484399	+ l j	-0.559308
-1.2419827	+ l o	-0.559308
-1.4553968	+ l q	-0.559308
-0.7382444	+ l t	-0.559308
-0.8300762	+ l u	-0.559308
-1.1507388	+ m </s>	-0.6746107
-0.944309	+ m a	-0.6746107
-1.5850999	+ m c	-0.6746107
-1.0622628	+ m e	-0.6746107
-1.6880188	+ m f	-0.6746107
-1.4184907	+ m i	-0.6746107
-1.5993655	+ m m	-0.6746107
-0.7676629	+ m o	-0.6746107
-1.5434135	+ m s	-0.6746107
-1.3906153	+ m v	-0.6746107
-0.4798223	+ m y	-0.6746107
-0.9719442	+ n </s>	-0.455932
-1.1197414	+ n a	-0.455932
-0.8359809	+ n g	-0.455932
-0.5039388	+ n o	-0.455932
-1.270046	+ n p	-0.455932
-1.065229	+ n t	-0.455932
-1.2536817	+ n u	-0.455932
-0.8509847	+ o </s>	-0.5282738
-1.3996408	+ o e	-0.5282738
-1.0819921	+ o f	-0.5282738
-1.077804	+ o n	-0.5282738
-1.304727	+ o o	-0.5282738
-1.2888511	+ o p	-0.5282738
-0.4762461	+ o r	-0.5282738
-1.0641019	+ o t	-0.5282738
-1.2476563	+ p a	-0.544068
-1.1815053	+ p c	-0.544068
-1.2446047	+ p e	-0.544068
-0.6696937	+ p h	-0.544068
-1.3541254	+ p l	-0.544068
-1.1894669	+ p m	-0.544068
-1.3318784	+ p o	-0.544068
-1.0114312	+ p p	-0.544068
-1.0141058	+ p s	-0.544068
-0.9239797	+ p y	-0.544068
-0.7480295	+ q </s>	-0.3853509
-1.0828507	+ q a	-0.3853509
-1.0946767	+ q e	-0.3853509
-1.145491	+ q m	-0.3853509
-1.2069122	+ q q	-0.3853509
-0.8811838	+ q s	-0.3853509
-0.8885793	+ q t	-0.3853509
-0.9901912	+ r a	-0.7781513
-0.1117046	+ r e	-0.7781513
-1.1221481	+ s </s>	-0.7337321
-1.0711227	+ s a	-0.7337321
-1.2643314	+ s c	-0.7337321
-1.7531657	+ s d	-0.7337321
-0.7706925	+ s e	-0.7337321
-1.2635766	+ s h	-0.7337321
-1.7439514	+ s k	-0.7337321
-0.8828837	+ s p	-0.7337321
-1.0215081	+ s q	-0.7337321
-1.1366114	+ s s	-0.7337321
-0.9457123	+ s t	-0.7337321
-1.2042412	+ s v	-0.7337321
-0.9327236	+ t </s>	-0.455932
-1.0042964	+ t e	-0.455932
-0.9519159	+ t h	-0.455932
-1.255463	+ t l	-0.455932
-0.4826047	+ t o	-0.455932
-1.257788	+ t p	-0.455932
-1.2170242	+ t u	-0.455932
-0.7440753	+ u c	-0.4771213
-0.4506582	+ u i	-0.4771213
-1.0040825	+ u m	-0.4771213
-1.0370066	+ u x	-0.4771213
-0.9666766	+ v b	-0.6766936
-0.8474791	+ v i	-0.6766936
-1.24774	+ v r	-0.6766936
-0.2747755	+ v u	-0.6766936
-1.1627243	+ w </s>	-0.6812412
-1.1403055	+ w a	-0.6812412
-1.3356506	+ w c	-0.6812412
-0.2700333	+ w e	-0.6812412
-0.7108023	+ w i	-0.6812412
-0.1612893	+ x </s>	-0.30103
-0.2857204	+ y e	-0.30103
-0.6761259	+ z e	-0.5642714
-0.7301302	+ z k	-0.5642714
-0.4176147	+ z o	-0.5642714
-6e-06	</s> <s> <s>	-4.2570783
-0.3144243	<num> <num> <num>	-1.877947
-0.288121	<num> <num> k	-1.877947
-0.4463719	<num> k +	-1.6901961
-0.2018272	<num> k </s>	-1.6901961
-0.8433504	<s> # +	-0.30103
-0.7644599	<s> # a	-0.30103
-0.8433504	<s> # j	-0.30103
-0.7298097	<s> # x	-0.30103
-1.7098002	<s> + +	-0.8044802
-1.4767522	<s> + a	-0.8044802
-1.2519295	<s> + b	-0.8044802
-0.978085	<s> + c	-0.8044802
-1.5195297	<s> + d	-0.8044802
-1.2474014	<s> + e	-0.8044802
-1.545583	<s> + g	-0.8044802
-1.3331679	<s> + h	-0.8044802
-1.2039755	<s> + i	-0.8044802
-1.2260384	<s> + j	-0.8044802
-1.670618	<s> + k	-0.8044802
-1.3615135	<s> + l	-0.8044802
-1.3885362	<s> + m	-0.8044802
-1.5396568	<s> + n	-0.8044802
-1.3654366	<s> + o	-0.8044802
-1.1945676	<s> + p	-0.8044802
-1.8180292	<s> + q	-0.8044802
-1.0838708	<s> + s	-0.8044802
-1.3774232	<s> + t	-0.8044802
-1.670618	<s> + u	-0.8044802
-1.7909571	<s> + v	-0.8044802
-1.5223485	<s> + w	-0.8044802
-2.1606352	<s> + x	-0.8044802
-2.1606352	<s> + y	-0.8044802
-0.0979804	<s> <num> <num>	-1.6901961
-0.695047	<s> <num> k	-1.6901961
-4.1321561	<s> <s> #	-3.2573185
-2.6236686	<s> <s> +	-3.2573185
-2.7519866	<s> <s> <num>	-3.2573185
-0.1760613	<s> <s> <s>	-3.2573185
-1.6216545	<s> <s> a	-3.2573185
-1.878135	<s> <s> b	-3.2573185
-1.5573006	<s> <s> c	-3.2573185
-1.8157049	<s> <s> d	-3.2573185
-1.850598	<s> <s> e	-3.2573185
-1.9186817	<s> <s> f	-3.2573185
-1.9693364	<s> <s> g	-3.2573185
-1.9011123	<s> <s> h	-3.2573185
-1.8074028	<s> <s> i	-3.2573185
-2.0199296	<s> <s> j	-3.2573185
-2.2485377	<s> <s> k	-3.2573185
-1.9114378	<s> <s> l	-3.2573185
-1.6762133	<s> <s> m	-3.2573185
-2.0149281	<s> <s> n	-3.2573185
-2.0318288	<s> <s> o	-3.2573185
-1.7077262	<s> <s> p	-3.2573185
-2.4246287	<s> <s> q	-3.2573185
-1.9328557	<s> <s> r	-3.2573185
-1.5033	<s> <s> s	-3.2573185
-1.812573	<s> <s> t	-3.2573185
-2.2304684	<s> <s> u	-3.2573185
-2.138763	<s> <s> v	-3.2573185
-2.0018656	<s> <s> w	-3.2573185
-2.4487015	<s> <s> x	-3.2573185
-2.4420027	<s> <s> y	-3.2573185
-2.3650431	<s> <s> z	-3.2573185
-2.7955338	<s> a +	-1.6901961
-1.7742544	<s> a a	-1.6901961
-1.523083	<s> a b	-1.6901961
-1.0470708	<s> a c	-1.6901961
-1.1077296	<s> a d	-1.6901961
-1.718922	<s> a e	-1.6901961
-1.6699382	<s> a f	-1.6901961
-1.5805752	<s> a g	-1.6901961
-2.2681138	<s> a h	-1.6901961
-1.3451836	<s> a i	-1.6901961
-2.1165685	<s> a j	-1.6901961
-2.2062402	<s> a k	-1.6901961
-1.2631641	<s> a l	-1.6901961
-1.2801232	<s> a m	-1.6901961
-0.9809118	<s> a n	-1.6901961
-1.7548901	<s> a o	-1.6901961
-1.0834828	<s> a p	-1.6901961
-1.9153288	<s> a q	-1.6901961
-1.0516158	<s> a r	-1.6901961
-1.1181234	<s> a s	-1.6901961
-1.4287556	<s> a t	-1.6901961
-1.2327419	<s> a u	-1.6901961
-1.5218173	<s> a v	-1.6901961
-1.9386557	<s> a w	-1.6901961
-1.8144175	<s> a x	-1.6901961
-2.4691317	<s> a y	-1.6901961
-2.2689955	<s> a z	-1.6901961
-2.825075	<s> b +	-1.4407925
-0.8363221	<s> b a	-1.4407925
-1.6002543	<s> b b	-1.4407925
-1.6212944	<s> b c	-1.4407925
-1.4627119	<s> b d	-1.4407925
-0.8956713	<s> b e	-1.4407925
-2.5600863	<s> b f	-1.4407925
-1.8495393	<s> b g	-1.4407925
-2.0835631	<s> b h	-1.4407925
-0.9346739	<s> b i	-1.4407925
-1.9528933	<s> b j	-1.4407925
-2.3817062	<s> b k	-1.4407925
-1.2045984	<s> b l	-1.4407925
-1.8066106	<s> b m	-1.4407925
-2.0161823	<s> b n	-1.4407925
-0.9503143	<s> b o	-1.4407925
-1.6764752	<s> b p	-1.4407925
-2.384665	<s> b q	-1.4407925
-1.0184841	<s> b r	-1.4407925
-1.5055616	<s> b s	-1.4407925
-1.6319179	<s> b t	-1.4407925
-1.0881399	<s> b u	-1.4407925
-2.546948	<s> b v	-1.4407925
-2.3787675	<s> b w	-1.4407925
-2.5405249	<s> b x	-1.4407925
-1.9528933	<s> b y	-1.4407925
-2.5578688	<s> b z	-1.4407925
-2.2270875	<s> c #	-1.7378172
-1.975546	<s> c +	-1.7378172
-0.8738463	<s> c a	-1.7378172
-1.7649484	<s> c b	-1.7378172
-1.3396081	<s> c c	-1.7378172
-1.7163874	<s> c d	-1.7378172
-1.3444256	<s> c e	-1.7378172
-1.7344306	<s> c f	-1.7378172
-1.8784423	<s> c g	-1.7378172
-1.1144441	<s> c h	-1.7378172
-1.166044	<s> c i	-1.7378172
-2.4004081	<s> c j	-1.7378172
-2.1502322	<s> c k	-1.7378172
-1.386046	<s> c l	-1.7378172
-1.6345655	<s> c m	-1.7378172
-1.7030859	<s> c n	-1.7378172
-0.61264	<s> c o	-1.7378172
-1.5256272	<s> c p	-1.7378172
-2.005276	<s> c q	-1.7378172
-1.254375	<s> c r	-1.7378172
-1.4254745	<s> c s	-1.7378172
-1.7101662	<s> c t	-1.7378172
-1.6590422	<s> c u	-1.7378172
-2.179959	<s> c v	-1.7378172
-2.1807288	<s> c w	-1.7378172
-2.2785097	<s> c x	-1.7378172
-2.0321002	<s> c y	-1.7378172
-2.7033798	<s> c z	-1.7378172
-2.0773296	<s> d +	-1.50111
-0.9823419	<s> d a	-1.50111
-1.5381409	<s> d b	-1.50111
-1.4914505	<s> d c	-1.50111
-1.7423434	<s> d d	-1.50111
-0.6762249	<s> d e	-1.50111
-1.6685047	<s> d f	-1.50111
-2.1267904	<s> d g	-1.50111
-1.8081649	<s> d h	-1.50111
-0.852996	<s> d i	-1.50111
-2.0786324	<s> d j	-1.50111
-2.3070554	<s> d k	-1.50111
-1.7728238	<s> d l	-1.50111
-1.5208479	<s> d m	-1.50111
-1.7486036	<s> d n	-1.50111
-1.1092235	<s> d o	-1.50111
-1.643716	<s> d p	-1.50111
-2.0825642	<s> d q	-1.50111
-1.1534904	<s> d r	-1.50111
-1.4257649	<s> d s	-1.50111
-1.7463719	<s> d t	-1.50111
-1.3788467	<s> d u	-1.50111
-1.8456202	<s> d v	-1.50111
-2.0691684	<s> d w	-1.50111
-1.9248064	<s> d x	-1.50111
-1.8400609	<s> d y	-1.50111
-2.6223709	<s> d z	-1.50111
-2.571829	<s> e +	-1.4673614
-1.4184909	<s> e a	-1.4673614
-1.5451452	<s> e b	-1.4673614
-1.0260155	<s> e c	-1.4673614
-1.2089342	<s> e d	-1.4673614
-1.7891254	<s> e e	-1.4673614
-1.7463206	<s> e f	-1.4673614
-1.84372	<s> e g	-1.4673614
-1.6170564	<s> e h	-1.4673614
-1.6592887	<s> e i	-1.4673614
-2.2885265	<s> e j	-1.4673614
-2.1080856	<s> e k	-1.4673614
-1.0383821	<s> e l	-1.4673614
-1.1282867	<s> e m	-1.4673614
-0.9188417	<s> e n	-1.4673614
-2.1737613	<s> e o	-1.4673614
-1.3355082	<s> e p	-1.4673614
-1.9914062	<s> e q	-1.4673614
-1.4147941	<s> e r	-1.4673614
-1.1426288	<s> e s	-1.4673614
-1.3262313	<s> e t	-1.4673614
-1.7778542	<s> e u	-1.4673614
-1.5115229	<s> e v	-1.4673614
-2.5354136	<s> e w	-1.4673614
-1.0438837	<s> e x	-1.4673614
-2.1036939	<s> e y	-1.4673614
-2.2924453	<s> e z	-1.4673614
-0.9280504	<s> f a	-1.4339298
-1.568795	<s> f b	-1.4339298
-1.438602	<s> f c	-1.4339298
-1.816275	<s> f d	-1.4339298
-1.1328698	<s> f e	-1.4339298
-1.9116365	<s> f f	-1.4339298
-2.3327376	<s> f g	-1.4339298
-2.3436931	<s> f h	-1.4339298
-0.7842999	<s> f i	-1.4339298
-2.5089162	<s> f j	-1.4339298
-1.1047491	<s> f l	-1.4339298
-1.7373594	<s> f m	-1.4339298
-2.215945	<s> f n	-1.4339298
-0.8544492	<s> f o	-1.4339298
-1.5889152	<s> f p	-1.4339298
-2.3418479	<s> f q	-1.4339298
-0.9897685	<s> f r	-1.4339298
-1.5805405	<s> f s	-1.4339298
-1.6598709	<s> f t	-1.4339298
-1.0675026	<s> f u	-1.4339298
-2.8156556	<s> f v	-1.4339298
-2.1195598	<s> f w	-1.4339298
-2.0334269	<s> f x	-1.4339298
-2.3238146	<s> f y	-1.4339298
-2.3363588	<s> f z	-1.4339298
-2.288089	<s> g +	-1.3532535
-0.9934196	<s> g a	-1.3532535
-1.6955926	<s> g b	-1.3532535
-1.5412252	<s> g c	-1.3532535
-1.4754924	<s> g d	-1.3532535
-0.8790478	<s> g e	-1.3532535
-1.9960036	<s> g f	-1.3532535
-1.8629993	<s> g g	-1.3532535
-1.790571	<s> g h	-1.3532535
-1.3331296	<s> g i	-1.3532535
-1.9288622	<s> g j	-1.3532535
-2.2932133	<s> g k	-1.3532535
-1.1825374	<s> g l	-1.3532535
-1.3564914	<s> g m	-1.3532535
-1.7901662	<s> g n	-1.3532535
-1.0028059	<s> g o	-1.3532535
-1.4543115	<s> g p	-1.3532535
-1.9986115	<s> g q	-1.3532535
-0.9151969	<s> g r	-1.3532535
-1.3575362	<s> g s	-1.3532535
-1.5718682	<s> g t	-1.3532535
-1.2791928	<s> g u	-1.3532535
-2.1679213	<s> g v	-1.3532535
-2.2945038	<s> g w	-1.3532535
-2.0005778	<s> g x	-1.3532535
-1.6547124	<s> g y	-1.3532535
-2.2893644	<s> g z	-1.3532535
-2.8208963	<s> h +	-1.4186695
-0.7909717	<s> h a	-1.4186695
-1.5856639	<s> h b	-1.4186695
-1.4246244	<s> h c	-1.4186695
-1.6636165	<s> h d	-1.4186695
-1.0239286	<s> h e	-1.4186695
-2.1382421	<s> h f	-1.4186695
-1.9939109	<s> h g	-1.4186695
-2.3545299	<s> h h	-1.4186695
-0.9895316	<s> h i	-1.4186695
-2.1390907	<s> h j	-1.4186695
-1.61273	<s> h k	-1.4186695
-2.0472013	<s> h l	-1.4186695
-1.7946204	<s> h m	-1.4186695
-1.9725558	<s> h n	-1.4186695
-0.9791846	<s> h o	-1.4186695
-1.5557297	<s> h p	-1.4186695
-2.2362336	<s> h q	-1.4186695
-1.0492108	<s> h r	-1.4186695
-1.4754201	<s> h s	-1.4186695
-1.0901619	<s> h t	-1.4186695
-1.345645	<s> h u	-1.4186695
-2.5384303	<s> h v	-1.4186695
-2.0569331	<s> h w	-1.4186695
-2.5384303	<s> h x	-1.4186695
-1.2968437	<s> h y	-1.4186695
-2.1399409	<s> h z	-1.4186695
-1.6822952	<s> i a	-1.5415792
-1.2819852	<s> i b	-1.5415792
-1.0995913	<s> i c	-1.5415792
-1.328183	<s> i d	-1.5415792
-1.6211521	<s> i e	-1.5415792
-1.6521754	<s> i f	-1.5415792
-1.6023615	<s> i g	-1.5415792
-1.8946449	<s> i h	-1.5415792
-2.0262549	<s> i i	-1.5415792
-2.9175941	<s> i j	-1.5415792
-2.3224541	<s> i k	-1.5415792
-1.7091123	<s> i l	-1.5415792
-1.1486869	<s> i m	-1.5415792
-0.5794938	<s> i n	-1.5415792
-1.528606	<s> i o	-1.5415792
-1.1699214	<s> i p	-1.5415792
-1.9802938	<s> i q	-1.5415792
-1.5305503	<s> i r	-1.5415792
-1.1767794	<s> i s	-1.5415792
-1.0188888	<s> i t	-1.5415792
-2.4361961	<s> i u	-1.5415792
-1.6850262	<s> i v	-1.5415792
-1.8572554	<s> i w	-1.5415792
-2.2129973	<s> i x	-1.5415792
-2.8607648	<s> i z	-1.5415792
-2.71688	<s> j +	-1.3050327
-0.5933918	<s> j a	-1.3050327
-1.8116926	<s> j b	-1.3050327
-1.670081	<s> j c	-1.3050327
-1.4920422	<s> j d	-1.3050327
-1.278328	<s> j e	-1.3050327
-1.9362559	<s> j f	-1.3050327
-2.6785158	<s> j g	-1.3050327
-2.2227374	<s> j h	-1.3050327
-1.2514808	<s> j i	-1.3050327
-2.106649	<s> j j	-1.3050327
-2.3679671	<s> j k	-1.3050327
-1.870951	<s> j l	-1.3050327
-1.7180136	<s> j m	-1.3050327
-1.5479639	<s> j n	-1.3050327
-1.0671895	<s> j o	-1.3050327
-1.6764293	<s> j p	-1.3050327
-1.1980329	<s> j q	-1.3050327
-1.6800991	<s> j r	-1.3050327
-0.9244081	<s> j s	-1.3050327
-1.2608528	<s> j t	-1.3050327
-1.2901775	<s> j u	-1.3050327
-1.9463426	<s> j v	-1.3050327
-1.8681009	<s> j w	-1.3050327
-2.0033424	<s> j x	-1.3050327
-1.8568838	<s> j y	-1.3050327
-2.6106659	<s> j z	-1.3050327
-2.2600364	<s> k +	-1.1061647
-0.7985131	<s> k a	-1.1061647
-1.7164314	<s> k b	-1.1061647
-1.7042324	<s> k c	-1.1061647
-1.6551292	<s> k d	-1.1061647
-0.7791156	<s> k e	-1.1061647
-1.7255237	<s> k f	-1.1061647
-2.185964	<s> k g	-1.1061647
-2.4678488	<s> k h	-1.1061647
-0.9269893	<s> k i	-1.1061647
-2.0142083	<s> k j	-1.1061647
-1.6022833	<s> k k	-1.1061647
-1.5895018	<s> k l	-1.1061647
-1.8733251	<s> k m	-1.1061647
-1.3629311	<s> k n	-1.1061647
-0.9517041	<s> k o	-1.1061647
-1.6551292	<s> k p	-1.1061647
-2.2028673	<s> k q	-1.1061647
-1.6014194	<s> k r	-1.1061647
-1.544098	<s> k s	-1.1061647
-1.7053273	<s> k t	-1.1061647
-1.3857148	<s> k u	-1.1061647
-1.7324701	<s> k v	-1.1061647
-2.1926466	<s> k w	-1.1061647
-1.903397	<s> k x	-1.1061647
-1.5384335	<s> k y	-1.1061647
-2.4755258	<s> l +	-1.4087423
-0.8457791	<s> l a	-1.4087423
-1.9818418	<s> l b	-1.4087423
-1.4331298	<s> l c	-1.4087423
-1.6735234	<s> l d	-1.4087423
-0.8094052	<s> l e	-1.4087423
-2.2181231	<s> l f	-1.4087423
-1.877682	<s> l g	-1.4087423
-2.5180613	<s> l h	-1.4087423
-0.6423988	<s> l i	-1.4087423
-1.9310727	<s> l j	-1.4087423
-2.1241989	<s> l k	-1.4087423
-1.6974639	<s> l l	-1.4087423
-1.8270969	<s> l m	-1.4087423
-1.9888994	<s> l n	-1.4087423
-0.9467246	<s> l o	-1.4087423
-1.7469403	<s> l p	-1.4087423
-2.1363979	<s> l q	-1.4087423
-2.0513014	<s> l r	-1.4087423
-1.7013686	<s> l s	-1.4087423
-1.5177325	<s> l t	-1.4087423
-1.2841145	<s> l u	-1.4087423
-1.875328	<s> l v	-1.4087423
-2.0528689	<s> l w	-1.4087423
-1.9895775	<s> l x	-1.4087423
-1.7740813	<s> l y	-1.4087423
-1.9885607	<s> l z	-1.4087423
-2.5750187	<s> m +	-1.6368221
-0.6168727	<s> m a	-1.6368221
-1.7966499	<s> m b	-1.6368221
-1.388182	<s> m c	-1.6368221
-1.7389922	<s> m d	-1.6368221
-0.856811	<s> m e	-1.6368221
-2.1563164	<s> m f	-1.6368221
-2.1037459	<s> m g	-1.6368221
-2.4587232	<s> m h	-1.6368221
-0.8711399	<s> m i	-1.6368221
-2.7538005	<s> m j	-1.6368221
-2.1586715	<s> m k	-1.6368221
-2.0329756	<s> m l	-1.6368221
-1.7950405	<s> m m	-1.6368221
-2.7381493	<s> m n	-1.6368221
-0.8198291	<s> m o	-1.6368221
-1.6583211	<s> m p	-1.6368221
-2.2138339	<s> m q	-1.6368221
-1.7208233	<s> m r	-1.6368221
-1.394265	<s> m s	-1.6368221
-1.7161707	<s> m t	-1.6368221
-1.4287138	<s> m u	-1.6368221
-2.1004881	<s> m v	-1.6368221
-2.7230425	<s> m w	-1.6368221
-2.3632836	<s> m x	-1.6368221
-1.4096555	<s> m y	-1.6368221
-3.0523103	<s> m z	-1.6368221
-0.9019908	<s> n a	-1.3253893
-1.7762019	<s> n b	-1.3253893
-1.3043916	<s> n c	-1.3253893
-1.801022	<s> n d	-1.3253893
-0.65543	<s> n e	-1.3253893
-1.8166748	<s> n f	-1.3253893
-1.3353784	<s> n g	-1.3253893
-1.7812325	<s> n h	-1.3253893
-1.0878062	<s> n i	-1.3253893
-2.4113146	<s> n j	-1.3253893
-2.3516434	<s> n k	-1.3253893
-2.4002625	<s> n l	-1.3253893
-1.7775006	<s> n m	-1.3253893
-2.350947	<s> n n	-1.3253893
-0.8265838	<s> n o	-1.3253893
-1.4334089	<s> n p	-1.3253893
-2.2576289	<s> n q	-1.3253893
-2.2481908	<s> n r	-1.3253893
-1.4520799	<s> n s	-1.3253893
-1.6729832	<s> n t	-1.3253893
-1.2430481	<s> n u	-1.3253893
-1.6881075	<s> n v	-1.3253893
-2.0333032	<s> n w	-1.3253893
-1.9537836	<s> n x	-1.3253893
-1.7734321	<s> n y	-1.3253893
-2.7044723	<s> n z	-1.3253893
-2.41106	<s> o +	-1.2937308
-1.6301671	<s> o a	-1.2937308
-1.2380217	<s> o b	-1.2937308
-1.2469611	<s> o c	-1.2937308
-1.4969653	<s> o d	-1.2937308
-1.864412	<s> o e	-1.2937308
-1.1835807	<s> o f	-1.2937308
-1.9660887	<s> o g	-1.2937308
-1.9373914	<s> o h	-1.2937308
-2.0774116	<s> o i	-1.2937308
-2.1083829	<s> o j	-1.2937308
-1.9243266	<s> o k	-1.2937308
-1.4858187	<s> o l	-1.2937308
-1.3196943	<s> o m	-1.2937308
-1.2303436	<s> o n	-1.2937308
-1.4910171	<s> o o	-1.2937308
-0.7551625	<s> o p	-1.2937308
-2.1185326	<s> o q	-1.2937308
-0.8361501	<s> o r	-1.2937308
-1.3200861	<s> o s	-1.2937308
-1.3612561	<s> o t	-1.2937308
-1.3760582	<s> o u	-1.2937308
-1.6712197	<s> o v	-1.2937308
-1.7421411	<s> o w	-1.2937308
-2.2150001	<s> o x	-1.2937308
-2.0085855	<s> o y	-1.2937308
-2.6947936	<s> o z	-1.2937308
-2.6779269	<s> p +	-1.6060627
-0.8893087	<s> p a	-1.6060627
-1.9488258	<s> p b	-1.6060627
-1.366977	<s> p c	-1.6060627
-1.6876414	<s> p d	-1.6060627
-1.1096428	<s> p e	-1.6060627
-1.9503852	<s> p f	-1.6060627
-2.1740568	<s> p g	-1.6060627
-1.0864875	<s> p h	-1.6060627
-1.243207	<s> p i	-1.6060627
-2.3309392	<s> p j	-1.6060627
-2.1846432	<s> p k	-1.6060627
-1.3174223	<s> p l	-1.6060627
-1.5362449	<s> p m	-1.6060627
-2.2494327	<s> p n	-1.6060627
-1.0052067	<s> p o	-1.6060627
-1.5446032	<s> p p	-1.6060627
-2.1842607	<s> p q	-1.6060627
-0.7334661	<s> p r	-1.6060627
-1.4927633	<s> p s	-1.6060627
-1.690608	<s> p t	-1.6060627
-1.4396385	<s> p u	-1.6060627
-2.1255954	<s> p v	-1.6060627
-2.0768961	<s> p w	-1.6060627
-2.5443289	<s> p x	-1.6060627
-1.5001394	<s> p y	-1.6060627
-2.5549722	<s> p z	-1.6060627
-2.2928702	<s> q +	-0.9467545
-1.1441558	<s> q a	-0.9467545
-1.7270518	<s> q b	-0.9467545
-1.3433075	<s> q c	-0.9467545
-1.7270518	<s> q d	-0.9467545
-1.5580532	<s> q e	-0.9467545
-1.636472	<s> q f	-0.9467545
-1.855649	<s> q g	-0.9467545
-2.0179547	<s> q h	-0.9467545
-1.2152035	<s> q i	-0.9467545
-2.2928702	<s> q j	-0.9467545
-2.0391509	<s> q k	-0.9467545
-1.3871898	<s> q l	-0.9467545
-1.328202	<s> q m	-0.9467545
-2.3336897	<s> q n	-0.9467545
-1.5543894	<s> q o	-0.9467545
-1.4894471	<s> q p	-0.9467545
-2.280074	<s> q q	-0.9467545
-1.7200501	<s> q r	-0.9467545
-1.3253936	<s> q s	-0.9467545
-1.2568156	<s> q t	-0.9467545
-0.5484231	<s> q u	-0.9467545
-1.8509293	<s> q v	-0.9467545
-2.0249058	<s> q x	-0.9467545
-1.0858956	<s> q y	-0.9467545
-2.3196525	<s> q z	-0.9467545
-0.9558224	<s> r a	-1.4039121
-1.8066488	<s> r b	-1.4039121
-1.479047	<s> r c	-1.4039121
-1.7499323	<s> r d	-1.4039121
-0.4357522	<s> r e	-1.4039121
-1.6659581	<s> r f	-1.4039121
-2.0178994	<s> r g	-1.4039121
-1.418243	<s> r h	-1.4039121
-1.1007946	<s> r i	-1.4039121
-2.7749521	<s> r j	-1.4039121
-2.3854265	<s> r k	-1.4039121
-2.0202638	<s> r l	-1.4039121
-1.8306774	<s> r m	-1.4039121
-2.0113982	<s> r n	-1.4039121
-0.9470937	<s> r o	-1.4039121
-1.7597977	<s> r p	-1.4039121
-2.2090651	<s> r q	-1.4039121
-2.0951511	<s> r r	-1.4039121
-1.6089242	<s> r s	-1.4039121
-1.5117851	<s> r t	-1.4039121
-1.4467721	<s> r u	-1.4039121
-2.1727834	<s> r v	-1.4039121
-2.3255551	<s> r w	-1.4039121
-2.1140229	<s> r x	-1.4039121
-2.5841475	<s> r y	-1.4039121
-2.5129923	<s> r z	-1.4039121
-3.1033033	<s> s +	-1.8064312
-1.0729494	<s> s a	-1.8064312
-2.1524089	<s> s b	-1.8064312
-1.2730298	<s> s c	-1.8064312
-1.801126	<s> s d	-1.8064312
-0.969926	<s> s e	-1.8064312
-2.029385	<s> s f	-1.8064312
-2.2766116	<s> s g	-1.8064312
-1.1506487	<s> s h	-1.8064312
-1.1808519	<s> s i	-1.8064312
-1.9560538	<s> s j	-1.8064312
-1.5022982	<s> s k	-1.8064312
-1.742481	<s> s l	-1.8064312
-1.5900634	<s> s m	-1.8064312
-1.8370447	<s> s n	-1.8064312
-1.0349834	<s> s o	-1.8064312
-1.0943058	<s> s p	-1.8064312
-1.5618486	<s> s q	-1.8064312
-1.9112392	<s> s r	-1.8064312
-1.5594782	<s> s s	-1.8064312
-1.0174977	<s> s t	-1.8064312
-1.1892362	<s> s u	-1.8064312
-1.9337771	<s> s v	-1.8064312
-1.6223108	<s> s w	-1.8064312
-2.6294307	<s> s x	-1.8064312
-1.5259176	<s> s y	-1.8064312
-2.1536452	<s> s z	-1.8064312
-2.8812114	<s> t +	-1.5041435
-1.0533611	<s> t a	-1.5041435
-1.848677	<s> t b	-1.5041435
-1.4487302	<s> t c	-1.5041435
-1.8477292	<s> t d	-1.5041435
-0.6880712	<s> t e	-1.5041435
-2.080603	<s> t f	-1.5041435
-2.2222285	<s> t g	-1.5041435
-1.1437943	<s> t h	-1.5041435
-1.162139	<s> t i	-1.5041435
-2.2257669	<s> t j	-1.5041435
-2.2283586	<s> t k	-1.5041435
-2.1275198	<s> t l	-1.5041435
-1.6000938	<s> t m	-1.5041435
-2.2206296	<s> t n	-1.5041435
-0.9216222	<s> t o	-1.5041435
-1.64762	<s> t p	-1.5041435
-2.0859539	<s> t q	-1.5041435
-0.8758288	<s> t r	-1.5041435
-1.4432599	<s> t s	-1.5041435
-1.8016598	<s> t t	-1.5041435
-1.4327643	<s> t u	-1.5041435
-1.8144985	<s> t v	-1.5041435
-1.8854816	<s> t w	-1.5041435
-2.1527082	<s> t x	-1.5041435
-1.6811921	<s> t y	-1.5041435
-2.8960723	<s> t z	-1.5041435
-2.522503	<s> u +	-1.1550829
-1.4491515	<s> u a	-1.1550829
-1.5476678	<s> u b	-1.1550829
-1.0584701	<s> u c	-1.1550829
-1.4258976	<s> u d	-1.1550829
-1.4415811	<s> u e	-1.1550829
-1.9098439	<s> u f	-1.1550829
-1.6151242	<s> u g	-1.1550829
-1.6836402	<s> u h	-1.1550829
-1.2233735	<s> u i	-1.1550829
-1.7424807	<s> u k	-1.1550829
-1.4037234	<s> u l	-1.1550829
-1.4169423	<s> u m	-1.1550829
-0.5716092	<s> u n	-1.1550829
-2.2008251	<s> u o	-1.1550829
-1.1674895	<s> u p	-1.1550829
-1.5323982	<s> u r	-1.1550829
-1.1694307	<s> u s	-1.1550829
-1.2569369	<s> u t	-1.1550829
-1.9226361	<s> u u	-1.1550829
-1.8278251	<s> u v	-1.1550829
-1.9258939	<s> u w	-1.1550829
-1.8714148	<s> u x	-1.1550829
-2.2039154	<s> u z	-1.1550829
-2.5345706	<s> v +	-1.224274
-0.9062784	<s> v a	-1.224274
-1.6527032	<s> v b	-1.224274
-1.3950885	<s> v c	-1.224274
-1.8995921	<s> v d	-1.224274
-0.801002	<s> v e	-1.224274
-1.7108802	<s> v f	-1.224274
-2.3006022	<s> v g	-1.224274
-2.1312638	<s> v h	-1.224274
-0.5913249	<s> v i	-1.224274
-2.3094271	<s> v j	-1.224274
-1.7559174	<s> v l	-1.224274
-1.4057144	<s> v m	-1.224274
-2.2696972	<s> v n	-1.224274
-1.1596511	<s> v o	-1.224274
-1.4337208	<s> v p	-1.224274
-2.3064655	<s> v q	-1.224274
-1.5629292	<s> v r	-1.224274
-1.3539402	<s> v s	-1.224274
-1.825238	<s> v t	-1.224274
-1.2685838	<s> v u	-1.224274
-2.0038199	<s> v v	-1.224274
-2.0127324	<s> v x	-1.224274
-2.2751552	<s> v y	-1.224274
-2.6048378	<s> v z	-1.224274
-2.4368377	<s> w +	-1.3222193
-0.8505903	<s> w a	-1.3222193
-1.8857742	<s> w b	-1.3222193
-1.653782	<s> w c	-1.3222193
-2.0277407	<s> w d	-1.3222193
-0.6470727	<s> w e	-1.3222193
-1.5948119	<s> w f	-1.3222193
-2.0355179	<s> w g	-1.3222193
-1.5094117	<s> w h	-1.3222193
-0.71368	<s> w i	-1.3222193
-2.1219983	<s> w j	-1.3222193
-2.7003737	<s> w k	-1.3222193
-1.6976013	<s> w l	-1.3222193
-1.833504	<s> w m	-1.3222193
-2.225207	<s> w n	-1.3222193
-1.0302343	<s> w o	-1.3222193
-1.7344119	<s> w p	-1.3222193
-2.139587	<s> w q	-1.3222193
-1.5908477	<s> w r	-1.3222193
-1.5747995	<s> w s	-1.3222193
-1.8880034	<s> w t	-1.3222193
-1.7004942	<s> w u	-1.3222193
-2.4329013	<s> w v	-1.3222193
-2.0386682	<s> w w	-1.3222193
-1.5976658	<s> w x	-1.3222193
-1.7351972	<s> w y	-1.3222193
-2.0323903	<s> w z	-1.3222193
-1.9282798	<s> x +	-0.9110589
-1.3124507	<s> x a	-0.9110589
-1.3603762	<s> x b	-0.9110589
-1.2051306	<s> x c	-0.9110589
-1.6078007	<s> x d	-0.9110589
-1.5659152	<s> x e	-0.9110589
-1.5425098	<s> x f	-0.9110589
-1.7057141	<s> x g	-0.9110589
-1.5458123	<s> x h	-0.9110589
-1.004171	<s> x i	-0.9110589
-1.8291359	<s> x j	-0.9110589
-2.3036981	<s> x k	-0.9110589
-1.3625446	<s> x l	-0.9110589
-1.1753829	<s> x m	-0.9110589
-1.621394	<s> x n	-0.9110589
-2.2101326	<s> x o	-0.9110589
-1.186727	<s> x p	-0.9110589
-1.7178589	<s> x q	-0.9110589
-1.4828866	<s> x r	-0.9110589
-1.0592939	<s> x s	-0.9110589
-1.5455668	<s> x t	-0.9110589
-1.4057672	<s> x u	-0.9110589
-2.3231089	<s> x v	-0.9110589
-1.9928294	<s> x w	-0.9110589
-1.307635	<s> x x	-0.9110589
-1.4142541	<s> x y	-0.9110589
-1.6174666	<s> x z	-0.9110589
-0.9314022	<s> y a	-0.9313796
-2.0971364	<s> y b	-0.9313796
-1.7817029	<s> y c	-0.9313796
-1.5397091	<s> y d	-0.9313796
-1.1722091	<s> y e	-0.9313796
-1.2177504	<s> y f	-0.9313796
-1.981843	<s> y g	-0.9313796
-1.7221151	<s> y h	-0.9313796
-1.4237632	<s> y i	-0.9313796
-1.3301331	<s> y j	-0.9313796
-2.0072457	<s> y k	-0.9313796
-1.5958129	<s> y l	-0.9313796
-1.523952	<s> y m	-0.9313796
-1.9072142	<s> y n	-0.9313796
-0.8796637	<s> y o	-0.9313796
-1.8949228	<s> y p	-0.9313796
-2.2830322	<s> y q	-0.9313796
-1.9918265	<s> y r	-0.9313796
-1.2550353	<s> y s	-0.9313796
-2.054276	<s> y t	-0.9313796
-1.1567898	<s> y u	-0.9313796
-1.8543807	<s> y v	-0.9313796
-1.8224656	<s> y w	-0.9313796
-1.5459947	<s> y x	-0.9313796
-1.0776661	<s> y y	-0.9313796
-1.5487166	<s> y z	-0.9313796
-2.3696368	<s> z +	-1.0
-1.2746044	<s> z a	-1.0
-1.4727495	<s> z b	-1.0
-1.4652929	<s> z c	-1.0
-1.4880579	<s> z d	-1.0
-0.9561377	<s> z e	-1.0
-1.439489	<s> z f	-1.0
-1.8965201	<s> z g	-1.0
-0.9113001	<s> z h	-1.0
-1.4124809	<s> z i	-1.0
-1.2753382	<s> z j	-1.0
-1.7702156	<s> z k	-1.0
-1.2372188	<s> z l	-1.0
-2.0533325	<s> z m	-1.0
-1.2103202	<s> z n	-1.0
-1.0769619	<s> z o	-1.0
-2.3409485	<s> z p	-1.0
-1.6104699	<s> z q	-1.0
-2.3550558	<s> z r	-1.0
-1.7777399	<s> z s	-1.0
-1.4342954	<s> z t	-1.0
-2.0605502	<s> z u	-1.0
-1.7777399	<s> z w	-1.0
-1.5047034	<s> z x	-1.0
-1.3016399	<s> z y	-1.0
-1.566319	<s> z z	-1.0
-0.4171201	a # </s>	-0.30103
-0.5068344	a # x	-0.30103
-0.5592753	a + </s>	-0.544068
-1.3110364	a + a	-0.544068
-1.6092157	a + b	-0.544068
-1.368959	a + c	-0.544068
-1.5968114	a + d	-0.544068
-1.5907397	a + e	-0.544068
-1.6556531	a + g	-0.544068
-1.5085823	a + h	-0.544068
-1.0162305	a + j	-0.544068
-1.3613375	a + l	-0.544068
-1.4843214	a + m	-0.544068
-1.6029693	a + o	-0.544068
-1.3473441	a + p	-0.544068
-0.8984385	a + s	-0.544068
-1.3832111	a + v	-0.544068
-1.368507	a + w	-0.544068
-0.0	a </s> <s>	-3.0457141
-0.6145512	a a </s>	-0.7382797
-1.3031196	a a a	-0.7382797
-1.8490004	a a b	-0.7382797
-1.3007241	a a c	-0.7382797
-1.2484237	a a d	-0.7382797
-1.6763245	a a e	-0.7382797
-1.3609872	a a g	-0.7382797
-1.9773806	a a h	-0.7382797
-1.6136565	a a i	-0.7382797
-1.9522827	a a k	-0.7382797
-1.6136381	a a l	-0.7382797
-1.3185965	a a m	-0.7382797
-1.0988347	a a n	-0.7382797
-1.334104	a a p	-0.7382797
-1.4439993	a a r	-0.7382797
-0.833401	a a s	-0.7382797
-1.5995429	a a t	-0.7382797
-1.4996867	a a u	-0.7382797
-1.6098295	a a v	-0.7382797
-2.3643817	a b +	-1.0606978
-0.7061386	a b </s>	-1.0606978
-0.9728162	a b a	-1.0606978
-1.1582872	a b b	-1.0606978
-1.2674595	a b c	-1.0606978
-1.9971225	a b d	-1.0606978
-1.2500992	a b e	-1.0606978
-2.3543022	a b h	-1.0606978
-0.986268	a b i	-1.0606978
-0.8207006	a b l	-1.0606978
-2.2233991	a b m	-1.0606978
-2.3444514	a b n	-1.0606978
-1.197337	a b o	-1.0606978
-1.9942139	a b p	-1.0606978
-1.6923898	a b r	-1.0606978
-1.2561864	a b s	-1.0606978
-2.0384232	a b t	-1.0606978
-1.4263337	a b u	-1.0606978
-2.3643817	a b v	-1.0606978
-2.3643817	a b w	-1.0606978
-2.0769958	a b x	-1.0606978
-1.7750051	a b y	-1.0606978
-2.7596249	a c #	-1.3589214
-2.7148218	a c +	-1.3589214
-1.0450259	a c </s>	-1.3589214
-1.4172152	a c a	-1.3589214
-2.2726362	a c b	-1.3589214
-1.0343637	a c c	-1.3589214
-2.0577775	a c d	-1.3589214
-1.0180397	a c e	-1.3589214
-2.2835952	a c f	-1.3589214
-2.2789471	a c g	-1.3589214
-0.9941309	a c h	-1.3589214
-1.4399694	a c i	-1.3589214
-2.7544123	a c j	-1.3589214
-0.9281352	a c k	-1.3589214
-1.1284084	a c l	-1.3589214
-1.8127243	a c m	-1.3589214
-2.1548667	a c n	-1.3589214
-1.4026822	a c o	-1.3589214
-2.372418	a c p	-1.3589214
-2.0034868	a c q	-1.3589214
-1.5811045	a c r	-1.3589214
-1.6623679	a c s	-1.3589214
-0.7419407	a c t	-1.3589214
-2.1324386	a c u	-1.3589214
-2.7441713	a c v	-1.3589214
-2.7649008	a c x	-1.3589214
-2.165862	a c y	-1.3589214
-1.9426786	a d +	-1.2401651
-0.6441128	a d </s>	-1.2401651
-1.0415879	a d a	-1.2401651
-1.8249453	a d b	-1.2401651
-1.673557	a d c	-1.2401651
-1.4945329	a d d	-1.2401651
-0.7296099	a d e	-1.2401651
-2.2839612	a d f	-1.2401651
-2.2789008	a d g	-1.2401651
-2.0214297	a d h	-1.2401651
-1.0757229	a d i	-1.2401651
-2.5993467	a d j	-1.2401651
-2.5713337	a d k	-1.2401651
-2.2701844	a d l	-1.2401651
-1.2611997	a d m	-1.2401651
-2.3008272	a d n	-1.2401651
-1.0266711	a d o	-1.2401651
-1.9206304	a d p	-1.2401651
-1.8054875	a d r	-1.2401651
-1.4490207	a d s	-1.2401651
-1.9278561	a d t	-1.2401651
-1.9784392	a d u	-1.2401651
-1.502668	a d v	-1.2401651
-1.792494	a d w	-1.2401651
-2.5863891	a d x	-1.2401651
-1.9261779	a d y	-1.2401651
-0.568796	a e </s>	-0.7346856
-1.4607883	a e a	-0.7346856
-1.4090045	a e b	-0.7346856
-1.3375283	a e c	-0.7346856
-1.3809212	a e d	-0.7346856
-1.3869229	a e e	-0.7346856
-1.7227502	a e f	-0.7346856
-1.3348956	a e g	-0.7346856
-2.0320697	a e j	-0.7346856
-2.001473	a e k	-0.7346856
-1.2668079	a e l	-0.7346856
-1.2984391	a e m	-0.7346856
-1.3645924	a e n	-0.7346856
-1.7066823	a e o	-0.7346856
-1.5191663	a e p	-0.7346856
-0.9606948	a e r	-0.7346856
-1.1773403	a e s	-0.7346856
-1.5706731	a e t	-0.7346856
-1.9635291	a e w	-0.7346856
-1.8932975	a e x	-0.7346856
-1.9832035	a e y	-0.7346856
-0.8457638	a f </s>	-0.7931284
-1.0886075	a f a	-0.7931284
-1.6642042	a f c	-0.7931284
-0.9408211	a f e	-0.7931284
-0.7707478	a f f	-0.7931284
-2.0470743	a f h	-0.7931284
-1.2446685	a f i	-0.7931284
-1.5821121	a f k	-0.7931284
-1.4671466	a f l	-0.7931284
-1.9487975	a f m	-0.7931284
-1.5807141	a f n	-0.7931284
-1.2774188	a f o	-0.7931284
-1.9328084	a f p	-0.7931284
-1.3597231	a f r	-0.7931284
-1.858005	a f s	-0.7931284
-0.8839925	a f t	-0.7931284
-1.8034373	a f u	-0.7931284
-1.7258982	a f x	-0.7931284
-2.0310357	a f z	-0.7931284
-1.18404	a g </s>	-1.2352127
-1.2905971	a g a	-1.2352127
-2.373747	a g b	-1.2352127
-2.3238042	a g c	-1.2352127
-0.289962	a g e	-1.2352127
-2.4032248	a g f	-1.2352127
-1.525168	a g g	-1.2352127
-1.0528082	a g i	-1.2352127
-2.0254163	a g l	-1.2352127
-1.6281769	a g m	-1.2352127
-1.3779798	a g n	-1.2352127
-1.2965207	a g o	-1.2352127
-1.1791601	a g r	-1.2352127
-2.0527288	a g s	-1.2352127
-1.7761424	a g u	-1.2352127
-1.8285401	a g v	-1.2352127
-0.8304135	a h </s>	-0.5688916
-0.8830855	a h a	-0.5688916
-1.4194693	a h c	-0.5688916
-1.2091909	a h e	-0.5688916
-1.7652474	a h h	-0.5688916
-1.0054869	a h i	-0.5688916
-1.7310531	a h k	-0.5688916
-1.2913624	a h l	-0.5688916
-1.4515744	a h m	-0.5688916
-1.6718601	a h n	-0.5688916
-0.842084	a h o	-0.5688916
-1.642157	a h p	-0.5688916
-1.2235513	a h r	-0.5688916
-1.642157	a h s	-0.5688916
-1.5067715	a h t	-0.5688916
-1.2437233	a h u	-0.5688916
-1.7453795	a h w	-0.5688916
-1.9724252	a i +	-1.0413927
-0.8148	a i </s>	-1.0413927
-1.6036233	a i a	-1.0413927
-2.2896351	a i b	-1.0413927
-1.4048861	a i c	-1.0413927
-1.4190148	a i d	-1.0413927
-2.0019577	a i e	-1.0413927
-1.8134327	a i f	-1.0413927
-1.6956192	a i g	-1.0413927
-2.4181107	a i h	-1.0413927
-1.951594	a i i	-1.0413927
-2.1246873	a i k	-1.0413927
-0.993395	a i l	-1.0413927
-1.5637758	a i m	-1.0413927
-0.6156065	a i n	-1.0413927
-1.6220478	a i o	-1.0413927
-1.8694339	a i p	-1.0413927
-0.9840671	a i r	-1.0413927
-1.3777462	a i s	-1.0413927
-1.2983323	a i t	-1.0413927
-2.1151233	a i u	-1.0413927
-1.8536084	a i v	-1.0413927
-2.4193795	a i w	-1.0413927
-1.7287775	a i x	-1.0413927
-2.4309686	a i y	-1.0413927
-2.1126081	a i z	-1.0413927
-0.9867122	a j </s>	-0.7269987
-0.3659934	a j a	-0.7269987
-1.2711768	a j e	-0.7269987
-0.9397409	a j i	-0.7269987
-1.1294587	a j o	-0.7269987
-1.6166999	a j p	-0.7269987
-1.0490639	a j s	-0.7269987
-1.5629188	a j u	-0.7269987
-1.6258352	a j x	-0.7269987
-0.8170562	a k </s>	-0.8176598
-0.9651518	a k a	-0.8176598
-1.8493258	a k c	-0.8176598
-1.8897308	a k d	-0.8176598
-0.3924605	a k e	-0.8176598
-0.9987468	a k i	-0.8176598
-1.8996141	a k k	-0.8176598
-1.7610072	a k o	-0.8176598
-1.8962946	a k r	-0.8176598
-1.5166845	a k s	-0.8176598
-1.6034484	a k t	-0.8176598
-1.2350348	a k u	-0.8176598
-1.9342841	a k w	-0.8176598
-1.9415631	a k z	-0.8176598
-2.7786626	a l +	-1.4919217
-0.5089189	a l </s>	-1.4919217
-1.3396081	a l a	-1.4919217
-2.0975048	a l b	-1.4919217
-1.5379363	a l c	-1.4919217
-1.9064545	a l d	-1.4919217
-0.9355969	a l e	-1.4919217
-1.8823758	a l f	-1.4919217
-1.8830331	a l g	-1.4919217
-2.1829894	a l h	-1.4919217
-0.9846915	a l i	-1.4919217
-1.6807727	a l k	-1.4919217
-0.9566366	a l l	-1.4919217
-1.6781658	a l m	-1.4919217
-2.8517141	a l n	-1.4919217
-1.7118588	a l o	-1.4919217
-2.0227712	a l p	-1.4919217
-1.8839109	a l r	-1.4919217
-1.4472691	a l s	-1.4919217
-1.3343702	a l t	-1.4919217
-1.7792024	a l u	-1.4919217
-2.0971457	a l v	-1.4919217
-2.5640481	a l w	-1.4919217
-2.5714738	a l x	-1.4919217
-1.4817172	a l y	-1.4919217
-0.8018212	a m </s>	-1.31133
-1.0249255	a m a	-1.31133
-1.3740936	a m b	-1.31133
-1.9458808	a m c	-1.31133
-2.0743111	a m d	-1.31133
-0.6988787	a m e	-1.31133
-2.3765753	a m f	-1.31133
-2.630818	a m g	-1.31133
-2.3946292	a m h	-1.31133
-1.150129	a m i	-1.31133
-2.2164551	a m k	-1.31133
-1.5395379	a m l	-1.31133
-1.3728061	a m m	-1.31133
-2.6569957	a m n	-1.31133
-1.3476057	a m o	-1.31133
-0.7769468	a m p	-1.31133
-2.0826191	a m r	-1.31133
-1.5022017	a m s	-1.31133
-1.899378	a m t	-1.31133
-1.8927495	a m u	-1.31133
-2.1957562	a m v	-1.31133
-1.4737924	a m w	-1.31133
-2.6824622	a m x	-1.31133
-2.5293353	a m y	-1.31133
-2.6945506	a m z	-1.31133
-2.7489271	a n +	-1.6442113
-0.7915201	a n </s>	-1.6442113
-0.9802777	a n a	-1.6442113
-2.0096602	a n b	-1.6442113
-1.1232344	a n c	-1.6442113
-0.8558894	a n d	-1.6442113
-1.5878966	a n e	-1.6442113
-2.1354968	a n f	-1.6442113
-0.8995909	a n g	-1.6442113
-2.5675622	a n h	-1.6442113
-1.3970686	a n i	-1.6442113
-2.0125614	a n j	-1.6442113
-1.6051408	a n k	-1.6442113
-2.095951	a n l	-1.6442113
-2.0963225	a n m	-1.6442113
-1.5219776	a n n	-1.6442113
-1.7371018	a n o	-1.6442113
-2.4282819	a n p	-1.6442113
-2.7357698	a n r	-1.6442113
-1.2053557	a n s	-1.6442113
-1.0151222	a n t	-1.6442113
-2.0409901	a n u	-1.6442113
-2.1412278	a n v	-1.6442113
-3.0109093	a n x	-1.6442113
-1.7523991	a n y	-1.6442113
-2.1514427	a n z	-1.6442113
-0.5024985	a o </s>	-0.7067953
-1.6761187	a o a	-0.7067953
-1.6398604	a o b	-0.7067953
-1.3615242	a o c	-0.7067953
-1.4762272	a o d	-0.7067953
-1.6263686	a o f	-0.7067953
-1.8440206	a o g	-0.7067953
-1.9153541	a o i	-0.7067953
-1.7245586	a o j	-0.7067953
-1.6948514	a o k	-0.7067953
-1.7271577	a o l	-0.7067953
-1.1371152	a o m	-0.7067953
-1.3122519	a o n	-0.7067953
-1.5821976	a o o	-0.7067953
-1.3443743	a o p	-0.7067953
-2.0347136	a o q	-0.7067953
-1.1381101	a o s	-0.7067953
-1.2099844	a o t	-0.7067953
-1.9483846	a o v	-0.7067953
-1.3958911	a o w	-0.7067953
-1.7082155	a o x	-0.7067953
-2.0243712	a o z	-0.7067953
-1.9078562	a p +	-1.2314696
-0.7219263	a p </s>	-1.2314696
-1.0445459	a p a	-1.2314696
-1.7694537	a p b	-1.2314696
-1.6399124	a p c	-1.2314696
-2.1045885	a p d	-1.2314696
-1.2231762	a p e	-1.2314696
-2.0058579	a p f	-1.2314696
-2.1137335	a p g	-1.2314696
-1.0704567	a p h	-1.2314696
-1.1357001	a p i	-1.2314696
-2.1358517	a p k	-1.2314696
-1.5032285	a p l	-1.2314696
-1.5628446	a p m	-1.2314696
-2.577353	a p n	-1.2314696
-1.6961745	a p o	-1.2314696
-0.7154756	a p p	-1.2314696
-2.135042	a p q	-1.2314696
-1.5095051	a p r	-1.2314696
-1.5164573	a p s	-1.2314696
-1.3476229	a p t	-1.2314696
-1.88407	a p u	-1.2314696
-2.2968499	a p v	-1.2314696
-2.3027603	a p w	-1.2314696
-2.2449028	a p y	-1.2314696
-0.7487198	a q </s>	-0.5006024
-1.1494098	a q a	-0.5006024
-1.1546559	a q c	-0.5006024
-1.1599661	a q e	-0.5006024
-1.5213623	a q f	-0.5006024
-1.1875374	a q i	-0.5006024
-1.1676019	a q l	-0.5006024
-1.2049615	a q m	-0.5006024
-1.4974732	a q p	-0.5006024
-1.5092535	a q r	-0.5006024
-1.1990754	a q s	-0.5006024
-0.6878962	a q u	-0.5006024
-2.2392933	a r +	-1.5295093
-0.9419313	a r </s>	-1.5295093
-1.2727884	a r a	-1.5295093
-1.976665	a r b	-1.5295093
-1.0701779	a r c	-1.5295093
-1.1073952	a r d	-1.5295093
-0.9872578	a r e	-1.5295093
-2.4365044	a r f	-1.5295093
-1.9748843	a r g	-1.5295093
-1.2021461	a r i	-1.5295093
-1.7950648	a r j	-1.5295093
-1.0165323	a r k	-1.5295093
-1.8549457	a r l	-1.5295093
-1.5340069	a r m	-1.5295093
-1.8868434	a r n	-1.5295093
-1.9258867	a r o	-1.5295093
-1.8490537	a r p	-1.5295093
-1.986774	a r q	-1.5295093
-1.7599788	a r r	-1.5295093
-1.6178058	a r s	-1.5295093
-0.7646968	a r t	-1.5295093
-2.0121795	a r u	-1.5295093
-1.9701127	a r v	-1.5295093
-2.4511523	a r w	-1.5295093
-2.4575844	a r x	-1.5295093
-1.5694253	a r y	-1.5295093
-0.8186182	a s </s>	-1.4644353
-1.6322205	a s a	-1.4644353
-1.1349107	a s c	-1.4644353
-2.0850151	a s d	-1.4644353
-0.9442984	a s e	-1.4644353
-2.4785965	a s f	-1.4644353
-2.4809027	a s g	-1.4644353
-1.1836606	a s h	-1.4644353
-1.1023831	a s i	-1.4644353
-1.6825004	a s k	-1.4644353
-2.7166281	a s l	-1.4644353
-1.8358154	a s m	-1.4644353
-1.4048125	a s o	-1.4644353
-1.4462912	a s p	-1.4644353
-2.2829974	a s q	-1.4644353
-2.1865437	a s r	-1.4644353
-0.8274592	a s s	-1.4644353
-0.8598982	a s t	-1.4644353
-1.6708866	a s u	-1.4644353
-2.7605563	a s v	-1.4644353
-1.4192158	a s y	-1.4644353
-2.3137481	a s z	-1.4644353
-1.0064715	a t </s>	-1.5682017
-0.9821265	a t a	-1.5682017
-2.8410535	a t b	-1.5682017
-1.5771859	a t c	-1.5682017
-2.569095	a t d	-1.5682017
-0.7704905	a t e	-1.5682017
-2.2946478	a t f	-1.5682017
-1.4835291	a t h	-1.5682017
-0.4749014	a t i	-1.5682017
-2.5930938	a t k	-1.5682017
-1.8190392	a t l	-1.5682017
-1.8488771	a t m	-1.5682017
-2.5777831	a t n	-1.5682017
-1.1055835	a t o	-1.5682017
-2.1839755	a t p	-1.5682017
-1.6698272	a t r	-1.5682017
-1.7101465	a t s	-1.5682017
-1.4558289	a t t	-1.5682017
-1.6886705	a t u	-1.5682017
-2.4090534	a t v	-1.5682017
-2.6595903	a t y	-1.5682017
-2.8782271	a t z	-1.5682017
-1.2886853	a u </s>	-0.9945371
-2.0285703	a u b	-0.9945371
-0.9791668	a u d	-0.9945371
-1.7304752	a u e	-0.9945371
-2.1388819	a u f	-0.9945371
-1.3404853	a u g	-0.9945371
-1.4992314	a u i	-0.9945371
-1.1975437	a u l	-0.9945371
-1.5214984	a u m	-0.9945371
-1.2451165	a u n	-0.9945371
-1.8750509	a u o	-0.9945371
-1.9238708	a u p	-0.9945371
-1.2265498	a u r	-0.9945371
-1.0689658	a u s	-0.9945371
-0.4636831	a u t	-0.9945371
-1.273968	a u x	-0.9945371
-1.1929915	a v </s>	-1.3087168
-0.2897922	a v a	-1.3087168
-2.2824092	a v c	-1.3087168
-0.6620175	a v e	-1.3087168
-2.4318575	a v g	-1.3087168
-0.9436562	a v i	-1.3087168
-1.8320002	a v l	-1.3087168
-2.1242342	a v n	-1.3087168
-1.7092886	a v o	-1.3087168
-2.3602576	a v p	-1.3087168
-1.733935	a v r	-1.3087168
-2.3387938	a v s	-1.3087168
-2.3945837	a v t	-1.3087168
-2.4036065	a v y	-1.3087168
-0.5704635	a w </s>	-0.7826518
-0.7229048	a w a	-0.7826518
-1.8994542	a w b	-0.7826518
-1.6465008	a w d	-0.7826518
-0.9517074	a w e	-0.7826518
-1.6355416	a w f	-0.7826518
-1.025485	a w i	-0.7826518
-1.6692853	a w k	-0.7826518
-1.9115435	a w m	-0.7826518
-1.1599971	a w o	-0.7826518
-1.8838414	a w p	-0.7826518
-1.9589941	a w q	-0.7826518
-1.1032313	a w s	-0.7826518
-1.9074762	a w t	-0.7826518
-1.9635764	a w v	-0.7826518
-1.6333826	a w y	-0.7826518
-1.3305607	a x +	-0.7857044
-0.3550892	a x </s>	-0.7857044
-1.5200429	a x a	-0.7857044
-1.9125592	a x b	-0.7857044
-1.2714369	a x c	-0.7857044
-1.5458088	a x d	-0.7857044
-1.837149	a x e	-0.7857044
-1.9732234	a x g	-0.7857044
-1.9913526	a x h	-0.7857044
-1.0978735	a x i	-0.7857044
-1.7253389	a x j	-0.7857044
-1.892444	a x m	-0.7857044
-1.4360093	a x o	-0.7857044
-1.9975679	a x r	-0.7857044
-1.3796951	a x s	-0.7857044
-1.3751915	a x t	-0.7857044
-1.2547397	a x u	-0.7857044
-1.7286964	a x w	-0.7857044
-1.8639171	a x x	-0.7857044
-0.36911	a y </s>	-0.9754318
-1.0030394	a y a	-0.9754318
-1.8621218	a y b	-0.9754318
-1.6217771	a y c	-0.9754318
-1.9122948	a y d	-0.9754318
-1.0800754	a y e	-0.9754318
-1.548652	a y f	-0.9754318
-1.7656301	a y g	-0.9754318
-1.9180311	a y i	-0.9754318
-1.4645564	a y l	-0.9754318
-1.7330087	a y m	-0.9754318
-1.7230669	a y n	-0.9754318
-1.4319381	a y o	-0.9754318
-1.3935574	a y p	-0.9754318
-2.1966751	a y r	-0.9754318
-1.16925	a y s	-0.9754318
-1.7038411	a y t	-0.9754318
-1.9028997	a y u	-0.9754318
-2.2429263	a y v	-0.9754318
-1.9218978	a y w	-0.9754318
-1.103671	a z </s>	-0.6184504
-0.9609689	a z a	-0.6184504
-1.5934047	a z b	-0.6184504
-0.8090695	a z e	-0.6184504
-1.1847694	a z i	-0.6184504
-1.2263461	a z k	-0.6184504
-1.5480492	a z l	-0.6184504
-1.6717829	a z m	-0.6184504
-0.7835488	a z o	-0.6184504
-1.6243626	a z t	-0.6184504
-1.2367358	a z u	-0.6184504
-1.1894592	a z y	-0.6184504
-1.1847694	a z z	-0.6184504
-0.4893659	b + </s>	-0.3853509
-1.1091853	b + a	-0.3853509
-1.1091853	b + h	-0.3853509
-1.0235885	b + j	-0.3853509
-1.0950812	b + m	-0.3853509
-1.1608848	b + o	-0.3853509
-1.1608848	b + w	-0.3853509
-1e-07	b </s> <s>	-2.510545
-1.7751355	b a +	-1.2376873
-0.800231	b a </s>	-1.2376873
-1.9373336	b a a	-1.2376873
-1.5811715	b a b	-1.2376873
-1.2736666	b a c	-1.2376873
-1.7845763	b a d	-1.2376873
-1.7413384	b a g	-1.2376873
-1.4959191	b a i	-1.2376873
-2.0577929	b a k	-1.2376873
-1.1175394	b a l	-1.2376873
-1.7087411	b a m	-1.2376873
-0.9113169	b a n	-1.2376873
-1.6458428	b a o	-1.2376873
-1.5640578	b a p	-1.2376873
-2.2459046	b a q	-1.2376873
-1.0986377	b a r	-1.2376873
-0.786152	b a s	-1.2376873
-1.0311811	b a t	-1.2376873
-2.4387446	b a u	-1.2376873
-2.4733757	b a x	-1.2376873
-1.433367	b a y	-1.2376873
-0.804525	b b </s>	-0.6173
-1.1760281	b b a	-0.6173
-1.7501785	b b b	-0.6173
-1.5185218	b b c	-0.6173
-1.5377805	b b d	-0.6173
-0.9342144	b b e	-0.6173
-1.7885238	b b g	-0.6173
-1.8928049	b b h	-0.6173
-0.8597336	b b i	-0.6173
-1.8474718	b b j	-0.6173
-1.9090321	b b k	-0.6173
-1.601979	b b l	-0.6173
-1.5434435	b b m	-0.6173
-1.8833518	b b n	-0.6173
-0.8615084	b b o	-0.6173
-1.7524784	b b p	-0.6173
-1.6202971	b b r	-0.6173
-1.6429916	b b s	-0.6173
-1.5775221	b b t	-0.6173
-1.2061391	b b u	-0.6173
-1.5900315	b b y	-0.6173
-1.9241094	b c +	-0.7426789
-0.3680218	b c </s>	-0.7426789
-1.2216608	b c a	-0.7426789
-1.4700518	b c b	-0.7426789
-1.4128047	b c c	-0.7426789
-1.620416	b c d	-0.7426789
-1.4443854	b c e	-0.7426789
-1.5583335	b c h	-0.7426789
-1.69812	b c i	-0.7426789
-1.1729213	b c m	-0.7426789
-1.6304935	b c n	-0.7426789
-1.1843742	b c o	-0.7426789
-1.3307898	b c p	-0.7426789
-1.7306598	b c r	-0.7426789
-1.6949962	b c s	-0.7426789
-1.3584873	b c t	-0.7426789
-1.9479634	b c w	-0.7426789
-1.3086018	b d +	-0.60206
-0.5177415	b d </s>	-0.60206
-1.2546	b d a	-0.60206
-1.715584	b d b	-0.60206
-1.7562802	b d c	-0.60206
-1.5471001	b d d	-0.60206
-0.9499419	b d e	-0.60206
-1.8085284	b d g	-0.60206
-1.5732119	b d h	-0.60206
-1.3931738	b d i	-0.60206
-1.795763	b d l	-0.60206
-1.2594016	b d m	-0.60206
-1.4176589	b d n	-0.60206
-1.4167284	b d o	-0.60206
-1.399966	b d p	-0.60206
-1.4668098	b d r	-0.60206
-1.6530707	b d s	-0.60206
-1.819777	b d t	-0.60206
-1.7185826	b d u	-0.60206
-1.8679331	b d x	-0.60206
-1.5646841	b d y	-0.60206
-1.0048648	b e </s>	-1.1445742
-0.9556373	b e a	-1.1445742
-2.2920673	b e b	-1.1445742
-1.5327727	b e c	-1.1445742
-1.6892042	b e d	-1.1445742
-1.4184622	b e e	-1.1445742
-2.1129709	b e f	-1.1445742
-1.7384779	b e h	-1.1445742
-1.2619554	b e i	-1.1445742
-1.1421546	b e l	-1.1445742
-1.0505869	b e n	-1.1445742
-2.356248	b e o	-1.1445742
-2.0603623	b e p	-1.1445742
-0.5301296	b e r	-1.1445742
-1.1555023	b e s	-1.1445742
-1.4037005	b e t	-1.1445742
-2.3830829	b e u	-1.1445742
-1.928607	b e v	-1.1445742
-2.2885374	b e x	-1.1445742
-1.9437037	b e y	-1.1445742
-0.7614705	b f </s>	-0.30103
-0.8197532	b f f	-0.30103
-0.7359503	b f o	-0.30103
-0.7899856	b f t	-0.30103
-0.2200657	b g </s>	-0.7439371
-1.3467142	b g a	-0.7439371
-1.7027175	b g c	-0.7439371
-1.4522253	b g d	-0.7439371
-1.6543733	b g h	-0.7439371
-1.3185943	b g i	-0.7439371
-1.2528105	b g l	-0.7439371
-1.6628839	b g m	-0.7439371
-1.720574	b g p	-0.7439371
-1.6715646	b g s	-0.7439371
-1.4432479	b g y	-0.7439371
-0.4717673	b h </s>	-0.4191293
-1.0089753	b h a	-0.4191293
-1.2780974	b h d	-0.4191293
-1.2996577	b h g	-0.4191293
-1.3058416	b h h	-0.4191293
-1.2780974	b h m	-0.4191293
-1.2411523	b h p	-0.4191293
-1.2358189	b h y	-0.4191293
-0.878296	b i </s>	-1.0680244
-1.5269566	b i a	-1.0680244
-2.0470124	b i b	-1.0680244
-1.3506474	b i c	-1.0680244
-1.6667376	b i d	-1.0680244
-1.5404847	b i e	-1.0680244
-2.2996778	b i f	-1.0680244
-1.401339	b i g	-1.0680244
-1.9280823	b i i	-1.0680244
-1.8138687	b i k	-1.0680244
-0.7492492	b i l	-1.0680244
-1.5423842	b i m	-1.0680244
-1.0033684	b i n	-1.0680244
-1.0949484	b i o	-1.0680244
-1.8541625	b i p	-1.0680244
-2.3901205	b i q	-1.0680244
-1.4956799	b i r	-1.0680244
-1.6000937	b i s	-1.0680244
-0.8157685	b i t	-1.0680244
-2.3609572	b i u	-1.0680244
-2.3968761	b i w	-1.0680244
-1.7053713	b i x	-1.0680244
-1.8082732	b i z	-1.0680244
-0.8014804	b j </s>	-0.5496719
-1.1088028	b j a	-0.5496719
-1.5242503	b j b	-0.5496719
-1.0772212	b j c	-0.5496719
-0.5229672	b j e	-0.5496719
-1.5391581	b j f	-0.5496719
-1.5468084	b j h	-0.5496719
-1.520602	b j m	-0.5496719
-1.4565398	b j t	-0.5496719
-1.5279296	b j w	-0.5496719
-1.2417514	b j y	-0.5496719
-0.3675073	b k </s>	-0.4771213
-0.9487018	b k i	-0.4771213
-1.0372338	b k u	-0.4771213
-0.7582498	b k y	-0.4771213
-1.2620037	b l </s>	-1.0225658
-0.9555882	b l a	-1.0225658
-2.0873912	b l c	-1.0225658
-2.060327	b l d	-1.0225658
-0.3830609	b l e	-1.0225658
-2.1555631	b l f	-1.0225658
-0.9192075	b l i	-1.0225658
-1.8871293	b l l	-1.0225658
-2.1753689	b l n	-1.0225658
-0.9144587	b l o	-1.0225658
-2.1129514	b l p	-1.0225658
-2.0450502	b l s	-1.0225658
-1.1003166	b l u	-1.0225658
-2.1483627	b l v	-1.0225658
-1.6727542	b l y	-1.0225658
-0.6894582	b m </s>	-0.6312182
-0.8809741	b m a	-0.6312182
-1.7227638	b m b	-0.6312182
-0.9532249	b m c	-0.6312182
-1.5388402	b m d	-0.6312182
-1.013548	b m e	-0.6312182
-1.8415931	b m f	-0.6312182
-1.3892085	b m g	-0.6312182
-1.4698561	b m i	-0.6312182
-1.2799332	b m j	-0.6312182
-1.4777399	b m l	-0.6312182
-1.7092001	b m m	-0.6312182
-1.4995328	b m o	-0.6312182
-1.5579812	b m p	-0.6312182
-1.8191304	b m r	-0.6312182
-1.1231772	b m s	-0.6312182
-1.7634386	b m t	-0.6312182
-1.5555597	b m w	-0.6312182
-0.5253576	b n </s>	-0.4436975
-1.3677587	b n b	-0.4436975
-1.2378217	b n c	-0.4436975
-0.9851061	b n d	-0.4436975
-0.9355551	b n e	-0.4436975
-1.059489	b n g	-0.4436975
-1.3584948	b n p	-0.4436975
-1.2241545	b n s	-0.4436975
-1.3379604	b n u	-0.4436975
-1.9380512	b o +	-1.0253059
-0.9387141	b o </s>	-1.0253059
-1.4496448	b o a	-1.0253059
-1.6716697	b o b	-1.0253059
-1.8221927	b o c	-1.0253059
-1.5288148	b o d	-1.0253059
-1.7041792	b o e	-1.0253059
-2.1963021	b o g	-1.0253059
-2.0961849	b o h	-1.0253059
-2.0411842	b o i	-1.0253059
-2.3103121	b o k	-1.0253059
-1.5629602	b o l	-1.0253059
-1.5583199	b o m	-1.0253059
-1.1025061	b o n	-1.0253059
-0.6824255	b o o	-1.0253059
-1.9162364	b o p	-1.0253059
-1.1636106	b o r	-1.0253059
-1.1850552	b o s	-1.0253059
-1.3083124	b o t	-1.0253059
-1.4130092	b o u	-1.0253059
-2.3103121	b o v	-1.0253059
-1.870635	b o w	-1.0253059
-1.0215161	b o x	-1.0253059
-1.566469	b o y	-1.0253059
-2.3951184	b o z	-1.0253059
-1.8385843	b p +	-0.7269987
-0.3994622	b p </s>	-0.7269987
-0.8435922	b p a	-0.7269987
-1.3644359	b p c	-0.7269987
-1.8206764	b p d	-0.7269987
-1.3603645	b p e	-0.7269987
-1.8531918	b p f	-0.7269987
-1.6644868	b p h	-0.7269987
-1.3347914	b p i	-0.7269987
-1.6423228	b p l	-0.7269987
-1.2602449	b p m	-0.7269987
-1.2089227	b p o	-0.7269987
-1.4858482	b p p	-0.7269987
-1.5398915	b p r	-0.7269987
-1.4910967	b p s	-0.7269987
-0.306434	b q </s>	-0.4771213
-0.9388841	b q b	-0.4771213
-0.9321569	b q p	-0.4771213
-1.1358687	b r </s>	-0.9661417
-0.6284418	b r a	-0.9661417
-2.099908	b r b	-0.9661417
-1.766273	b r c	-0.9661417
-0.9340319	b r e	-0.9661417
-0.6338933	b r i	-0.9661417
-2.0990417	b r l	-0.9661417
-2.0087311	b r m	-0.9661417
-0.747016	b r o	-0.9661417
-2.0625417	b r p	-0.9661417
-2.0981771	b r r	-0.9661417
-1.9275442	b r s	-0.9661417
-1.4900513	b r t	-0.9661417
-1.5325173	b r u	-0.9661417
-2.1407945	b r w	-0.9661417
-2.0115519	b r y	-0.9661417
-0.5643179	b s </s>	-0.8814481
-1.1933661	b s a	-0.8814481
-1.1452795	b s c	-0.8814481
-1.4189477	b s d	-0.8814481
-0.9184084	b s e	-0.8814481
-2.0966475	b s g	-0.8814481
-1.3722396	b s h	-0.8814481
-1.3346292	b s i	-0.8814481
-2.0259847	b s m	-0.8814481
-2.0921038	b s n	-0.8814481
-1.3576681	b s o	-0.8814481
-1.1938229	b s p	-0.8814481
-2.0298839	b s q	-0.8814481
-1.5219734	b s s	-0.8814481
-0.9592354	b s t	-0.8814481
-1.9454345	b s u	-0.8814481
-1.8001647	b s w	-0.8814481
-1.6464742	b s z	-0.8814481
-0.6334511	b t </s>	-0.5314789
-1.3815505	b t b	-0.5314789
-1.1793344	b t c	-0.5314789
-1.6532324	b t d	-0.5314789
-1.0947156	b t e	-0.5314789
-1.3867918	b t g	-0.5314789
-1.5309669	b t h	-0.5314789
-1.1213062	b t i	-0.5314789
-1.6151826	b t l	-0.5314789
-1.1957758	b t o	-0.5314789
-0.9322277	b t r	-0.5314789
-1.2941506	b t s	-0.5314789
-1.3815505	b t v	-0.5314789
-1.5218763	b t y	-0.5314789
-1.6852214	b t z	-0.5314789
-0.776535	b u </s>	-0.9283068
-1.792531	b u a	-0.9283068
-2.0623682	b u b	-0.9283068
-1.6946856	b u c	-0.9283068
-1.7069967	b u d	-0.9283068
-1.7650364	b u e	-0.9283068
-1.9452265	b u f	-0.9283068
-1.2366672	b u g	-0.9283068
-2.2478397	b u h	-0.9283068
-0.9587076	b u i	-0.9283068
-2.2117812	b u k	-0.9283068
-1.3134828	b u l	-0.9283068
-1.5837059	b u m	-0.9283068
-1.4540837	b u n	-0.9283068
-1.9342167	b u p	-0.9283068
-1.1145001	b u r	-0.9283068
-0.7443866	b u s	-0.9283068
-1.179443	b u t	-0.9283068
-2.2507415	b u u	-0.9283068
-2.2507415	b u v	-0.9283068
-2.0896222	b u x	-0.9283068
-1.1387235	b u y	-0.9283068
-1.6731677	b u z	-0.9283068
-1.01314	b v </s>	-0.4771213
-0.786784	b v e	-0.4771213
-0.3388624	b v i	-0.4771213
-1.0961136	b v o	-0.4771213
-1.1398999	b v p	-0.4771213
-0.6266266	b w </s>	-0.4259687
-0.9288297	b w a	-0.4259687
-0.7150746	b w b	-0.4259687
-1.1511707	b w c	-0.4259687
-0.9475975	b w i	-0.4259687
-0.9888653	b w o	-0.4259687
-0.0702705	b x </s>	-0.8750613
-1.1393329	b x s	-0.8750613
-0.2681583	b y </s>	-0.7533277
-1.4414126	b y a	-0.7533277
-0.9193432	b y d	-0.7533277
-1.4184638	b y o	-0.7533277
-1.1266424	b y s	-0.7533277
-0.9060273	b y t	-0.7533277
-0.3565492	b z </s>	-0.4259687
-0.8599113	b z c	-0.4259687
-0.7829049	b z e	-0.4259687
-0.4017209	c # </s>	-0.6232493
-0.9295142	c # a	-0.6232493
-1.2487459	c # n	-0.6232493
-0.9553877	c # p	-0.6232493
-0.658245	c # w	-0.6232493
-0.3548695	c + +	-0.7242759
-0.7175574	c + </s>	-0.7242759
-1.6323624	c + b	-0.7242759
-1.6194108	c + e	-0.7242759
-1.6641754	c + g	-0.7242759
-1.4520602	c + j	-0.7242759
-0.9821414	c + m	-0.7242759
-1.6280022	c + o	-0.7242759
-1.6689165	c + q	-0.7242759
-1.501011	c + s	-0.7242759
-0.0	c </s> <s>	-2.923762
-0.9921675	c a </s>	-1.4348465
-1.7468955	c a a	-1.4348465
-1.772422	c a b	-1.4348465
-1.5546031	c a c	-1.4348465
-0.9573937	c a d	-1.4348465
-1.7866301	c a e	-1.4348465
-2.1685524	c a f	-1.4348465
-2.3030147	c a h	-1.4348465
-2.1297394	c a i	-1.4348465
-2.0045589	c a k	-1.4348465
-0.8577843	c a l	-1.4348465
-1.2144757	c a m	-1.4348465
-1.1266638	c a n	-1.4348465
-2.2881498	c a o	-1.4348465
-1.2056094	c a p	-1.4348465
-2.7686482	c a q	-1.4348465
-1.017642	c a r	-1.4348465
-1.1288546	c a s	-1.4348465
-0.8523131	c a t	-1.4348465
-2.2712139	c a u	-1.4348465
-2.0429522	c a v	-1.4348465
-2.2858311	c a x	-1.4348465
-2.4129368	c a y	-1.4348465
-0.7180928	c b </s>	-0.6741464
-0.8359719	c b a	-0.6741464
-1.3892897	c b b	-0.6741464
-1.1134818	c b c	-0.6741464
-1.3919276	c b d	-0.6741464
-1.3473981	c b e	-0.6741464
-1.7970369	c b g	-0.6741464
-1.1713696	c b i	-0.6741464
-1.9031583	c b k	-0.6741464
-1.4512147	c b l	-0.6741464
-1.5457126	c b m	-0.6741464
-1.6034228	c b n	-0.6741464
-1.2585607	c b o	-0.6741464
-1.5382368	c b p	-0.6741464
-1.3349736	c b r	-0.6741464
-1.1630461	c b s	-0.6741464
-1.8296121	c b t	-0.6741464
-1.3050827	c b u	-0.6741464
-2.3423916	c c +	-1.062411
-0.6127743	c c </s>	-1.062411
-1.0599404	c c a	-1.062411
-2.0547613	c c b	-1.062411
-1.7218045	c c c	-1.062411
-1.435088	c c d	-1.062411
-1.0472013	c c e	-1.062411
-1.9034697	c c f	-1.062411
-2.0623359	c c g	-1.062411
-1.1707319	c c i	-1.062411
-1.9672647	c c l	-1.062411
-1.6720775	c c m	-1.062411
-1.4382128	c c n	-1.062411
-0.8511918	c c o	-1.062411
-1.3078177	c c p	-1.062411
-1.5035052	c c r	-1.062411
-1.3978893	c c s	-1.062411
-1.4295738	c c t	-1.062411
-1.668697	c c u	-1.062411
-2.0844219	c c v	-1.062411
-2.3725371	c c w	-1.062411
-2.0679288	c c y	-1.062411
-0.5687806	c d </s>	-0.7308591
-1.1148641	c d a	-0.7308591
-1.8443832	c d b	-0.7308591
-1.1250766	c d c	-0.7308591
-1.6758992	c d d	-0.7308591
-1.1823108	c d e	-0.7308591
-1.9447942	c d f	-0.7308591
-1.9373275	c d g	-0.7308591
-1.7020111	c d h	-0.7308591
-1.2470968	c d i	-0.7308591
-1.5517573	c d k	-0.7308591
-1.5287651	c d l	-0.7308591
-1.1174448	c d m	-0.7308591
-1.5464581	c d n	-0.7308591
-1.4279987	c d o	-0.7308591
-1.5287651	c d p	-0.7308591
-1.4656733	c d r	-0.7308591
-1.4656733	c d s	-0.7308591
-1.3310994	c d t	-0.7308591
-1.9620787	c d w	-0.7308591
-2.0390458	c d z	-0.7308591
-2.400413	c e +	-1.3802112
-0.4067724	c e </s>	-1.3802112
-1.6090027	c e a	-1.3802112
-1.7949302	c e b	-1.3802112
-1.5673094	c e c	-1.3802112
-1.7792588	c e d	-1.3802112
-1.8959501	c e e	-1.3802112
-2.3869632	c e f	-1.3802112
-1.9995574	c e g	-1.3802112
-2.6795589	c e h	-1.3802112
-1.8599276	c e i	-1.3802112
-1.0577766	c e l	-1.3802112
-1.732781	c e m	-1.3802112
-1.041252	c e n	-1.3802112
-1.8622186	c e o	-1.3802112
-1.2532426	c e p	-1.3802112
-1.2362661	c e r	-1.3802112
-0.9618096	c e s	-1.3802112
-1.515424	c e t	-1.3802112
-2.2215305	c e u	-1.3802112
-2.6029346	c e v	-1.3802112
-2.5525831	c e x	-1.3802112
-0.7078074	c f </s>	-0.60206
-0.6801764	c f a	-0.60206
-1.2660019	c f c	-0.60206
-1.2964414	c f d	-0.60206
-1.1745123	c f e	-0.60206
-1.7648594	c f g	-0.60206
-1.5359857	c f l	-0.60206
-1.7003572	c f m	-0.60206
-1.1179742	c f o	-0.60206
-1.2853237	c f p	-0.60206
-1.78174	c f q	-0.60206
-1.5112874	c f r	-0.60206
-1.4020519	c f s	-0.60206
-1.465743	c f t	-0.60206
-1.57056	c f u	-0.60206
-1.7329476	c f x	-0.60206
-0.4279422	c g </s>	-0.6328739
-1.2450571	c g a	-0.6328739
-1.7939492	c g b	-0.6328739
-1.497124	c g c	-0.6328739
-1.5427375	c g f	-0.6328739
-1.7771262	c g g	-0.6328739
-0.9919896	c g i	-0.6328739
-1.4432375	c g l	-0.6328739
-1.1226951	c g m	-0.6328739
-1.3935959	c g o	-0.6328739
-1.5054818	c g r	-0.6328739
-1.6981342	c g s	-0.6328739
-1.7833587	c g t	-0.6328739
-1.4413293	c g u	-0.6328739
-1.5439415	c g v	-0.6328739
-1.8390995	c g w	-0.6328739
-1.8296861	c g z	-0.6328739
-2.760388	c h +	-1.423602
-0.7093282	c h </s>	-1.423602
-0.7723282	c h a	-1.423602
-2.2635954	c h b	-1.423602
-2.0419271	c h c	-1.423602
-2.6689093	c h d	-1.423602
-0.7829068	c h e	-1.423602
-2.1696306	c h f	-1.423602
-2.4522245	c h g	-1.423602
-0.6747241	c h i	-1.423602
-2.7364795	c h j	-1.423602
-2.4369529	c h k	-1.423602
-1.922074	c h l	-1.423602
-1.9215648	c h m	-1.423602
-1.2479948	c h n	-1.423602
-1.28303	c h o	-1.423602
-2.3720279	c h p	-1.423602
-1.5539804	c h r	-1.423602
-2.1235159	c h s	-1.423602
-1.9219633	c h t	-1.423602
-1.5110776	c h u	-1.423602
-2.1642582	c h w	-1.423602
-2.5723896	c h y	-1.423602
-1.1321517	c i </s>	-1.161368
-0.7778681	c i a	-1.161368
-1.894978	c i b	-1.161368
-1.2842666	c i c	-1.161368
-1.7759833	c i d	-1.161368
-1.0532828	c i e	-1.161368
-1.6191457	c i f	-1.161368
-1.9727311	c i g	-1.161368
-1.5786398	c i i	-1.161368
-2.2121828	c i k	-1.161368
-1.5018312	c i l	-1.161368
-1.5527224	c i m	-1.161368
-1.0114286	c i n	-1.161368
-1.5126932	c i o	-1.161368
-1.2235853	c i p	-1.161368
-2.5003038	c i q	-1.161368
-1.6597789	c i r	-1.161368
-1.1294238	c i s	-1.161368
-0.8322641	c i t	-1.161368
-2.4700267	c i u	-1.161368
-2.0748579	c i v	-1.161368
-2.2230864	c i w	-1.161368
-2.1771441	c i x	-1.161368
-2.5180836	c i y	-1.161368
-0.6803132	c j </s>	-0.462398
-0.7765976	c j a	-0.462398
-1.3687532	c j c	-0.462398
-1.4219838	c j h	-0.462398
-1.4219838	c j j	-0.462398
-1.397889	c j m	-0.462398
-0.9602407	c j p	-0.462398
-1.4046379	c j r	-0.462398
-1.1172589	c j y	-0.462398
-1.4114934	c j z	-0.462398
-1.744853	c k +	-0.939935
-0.4695581	c k </s>	-0.939935
-1.3826017	c k a	-0.939935
-1.3493708	c k b	-0.939935
-1.5784473	c k c	-0.939935
-1.7991747	c k d	-0.939935
-0.7532764	c k e	-0.939935
-1.8113149	c k f	-0.939935
-2.2590701	c k g	-0.939935
-2.2707319	c k h	-0.939935
-1.2372634	c k i	-0.939935
-1.8154382	c k j	-0.939935
-1.9219109	c k l	-0.939935
-1.9380906	c k m	-0.939935
-1.4738014	c k o	-0.939935
-1.9548965	c k p	-0.939935
-1.8031838	c k r	-0.939935
-1.1060757	c k s	-0.939935
-1.7758672	c k t	-0.939935
-1.5713046	c k u	-0.939935
-2.2648619	c k v	-0.939935
-2.2707319	c k w	-0.939935
-1.9114499	c k y	-0.939935
-2.2827154	c k z	-0.939935
-0.8509417	c l </s>	-1.2324096
-0.9101732	c l a	-1.2324096
-2.2483758	c l c	-1.2324096
-2.2241124	c l d	-1.2324096
-0.5197443	c l e	-1.2324096
-0.8179539	c l i	-1.2324096
-2.3066447	c l k	-1.2324096
-1.6553533	c l l	-1.2324096
-2.2870135	c l m	-1.2324096
-0.7891538	c l o	-1.2324096
-2.2711436	c l p	-1.2324096
-1.2868246	c l u	-1.2324096
-1.9829149	c l y	-1.2324096
-1.8152907	c m +	-0.7749927
-0.6248051	c m </s>	-0.7749927
-0.7565695	c m a	-0.7749927
-1.4753726	c m b	-0.7749927
-1.6996802	c m c	-0.7749927
-1.6195776	c m d	-0.7749927
-1.4250981	c m e	-0.7749927
-1.6399061	c m f	-0.7749927
-2.0640488	c m g	-0.7749927
-1.3544503	c m i	-0.7749927
-2.1142073	c m j	-0.7749927
-1.814179	c m k	-0.7749927
-1.4628333	c m l	-0.7749927
-1.4698107	c m m	-0.7749927
-2.0884043	c m n	-0.7749927
-1.1438623	c m o	-0.7749927
-1.2101362	c m p	-0.7749927
-2.0523648	c m r	-0.7749927
-1.1358412	c m s	-0.7749927
-1.6028798	c m t	-0.7749927
-1.7370685	c m u	-0.7749927
-1.968734	c m y	-0.7749927
-2.1231606	c m z	-0.7749927
-0.7561489	c n </s>	-0.7683914
-0.861334	c n a	-0.7683914
-1.4503358	c n b	-0.7683914
-1.0028194	c n c	-0.7683914
-0.7270026	c n e	-0.7683914
-1.4722206	c n g	-0.7683914
-1.6192426	c n i	-0.7683914
-1.9123101	c n j	-0.7683914
-1.590292	c n n	-0.7683914
-1.2842704	c n o	-0.7683914
-1.0896628	c n p	-0.7683914
-1.9187542	c n r	-0.7683914
-1.3624085	c n s	-0.7683914
-1.3948455	c n t	-0.7683914
-1.8797515	c n v	-0.7683914
-1.0156878	c o </s>	-1.5298793
-1.6224268	c o a	-1.5298793
-1.927001	c o b	-1.5298793
-1.4959346	c o c	-1.5298793
-1.3561057	c o d	-1.5298793
-2.1157882	c o e	-1.5298793
-2.0835977	c o f	-1.5298793
-1.7746754	c o g	-1.5298793
-2.1043289	c o i	-1.5298793
-2.8600982	c o j	-1.5298793
-2.8011529	c o k	-1.5298793
-1.2952022	c o l	-1.5298793
-0.7390258	c o m	-1.5298793
-0.6905808	c o n	-1.5298793
-1.4185094	c o o	-1.5298793
-1.4923668	c o p	-1.5298793
-2.8942912	c o q	-1.5298793
-1.006705	c o r	-1.5298793
-1.3389231	c o s	-1.5298793
-1.956404	c o t	-1.5298793
-1.184269	c o u	-1.5298793
-1.8207118	c o v	-1.5298793
-2.7206711	c o w	-1.5298793
-2.8271808	c o x	-1.5298793
-0.4303804	c p </s>	-0.8398968
-0.980828	c p a	-0.8398968
-1.8710485	c p b	-0.8398968
-1.5451898	c p c	-0.8398968
-1.4184065	c p d	-0.8398968
-1.4891066	c p e	-0.8398968
-2.1428097	c p f	-0.8398968
-1.8645863	c p g	-0.8398968
-1.433263	c p i	-0.8398968
-1.9025463	c p j	-0.8398968
-1.1663895	c p l	-0.8398968
-1.5545123	c p m	-0.8398968
-2.1700183	c p n	-0.8398968
-1.4787975	c p o	-0.8398968
-1.4432773	c p p	-0.8398968
-2.1721836	c p q	-0.8398968
-1.3693098	c p r	-0.8398968
-1.625544	c p s	-0.8398968
-1.7304544	c p t	-0.8398968
-2.0323463	c p u	-0.8398968
-1.8887666	c p v	-0.8398968
-2.1721836	c p w	-0.8398968
-1.8979043	c p x	-0.8398968
-1.5759747	c p y	-0.8398968
-1.0081619	c q </s>	-0.4881166
-0.9252134	c q a	-0.4881166
-1.168029	c q c	-0.4881166
-0.9316663	c q e	-0.4881166
-1.5391073	c q f	-0.4881166
-1.4241224	c q i	-0.4881166
-1.1682445	c q l	-0.4881166
-1.4555383	c q m	-0.4881166
-1.5197964	c q o	-0.4881166
-1.4448118	c q s	-0.4881166
-1.2280032	c q t	-0.4881166
-0.6464058	c q u	-0.4881166
-1.5733321	c q w	-0.4881166
-1.2274767	c r </s>	-1.188114
-1.0837634	c r a	-1.188114
-1.4401143	c r c	-1.188114
-2.2831264	c r d	-1.188114
-0.8472994	c r e	-1.188114
-2.132126	c r f	-1.188114
-2.4199681	c r h	-1.188114
-0.6840753	c r i	-1.188114
-2.1221579	c r l	-1.188114
-1.2484629	c r m	-1.188114
-2.3507892	c r n	-1.188114
-0.676011	c r o	-1.188114
-1.82995	c r p	-1.188114
-2.1216108	c r r	-1.188114
-2.0061063	c r s	-1.188114
-1.8717588	c r t	-1.188114
-1.1789143	c r u	-1.188114
-1.2487559	c r y	-1.188114
-2.4597782	c r z	-1.188114
-2.0262894	c s +	-1.1675635
-0.3991324	c s </s>	-1.1675635
-1.5049541	c s a	-1.1675635
-2.214632	c s b	-1.1675635
-1.6407325	c s c	-1.1675635
-1.9148142	c s d	-1.1675635
-1.2045238	c s e	-1.1675635
-2.0523853	c s g	-1.1675635
-1.8414463	c s h	-1.1675635
-1.6039485	c s i	-1.1675635
-2.4193156	c s k	-1.1675635
-2.1952231	c s l	-1.1675635
-2.017928	c s m	-1.1675635
-1.5328364	c s o	-1.1675635
-1.6433879	c s p	-1.1675635
-2.4104627	c s q	-1.1675635
-2.0443487	c s r	-1.1675635
-0.6261328	c s s	-1.1675635
-1.4100738	c s t	-1.1675635
-2.3077549	c s u	-1.1675635
-2.4974986	c s v	-1.1675635
-1.9217109	c s w	-1.1675635
-1.8112319	c s y	-1.1675635
-1.9325896	c s z	-1.1675635
-1.7858076	c t +	-1.2405492
-0.6664335	c t </s>	-1.2405492
-1.7891863	c t a	-1.2405492
-2.5602396	c t b	-1.2405492
-1.8884048	c t c	-1.2405492
-2.1303454	c t d	-1.2405492
-1.1836274	c t e	-1.2405492
-2.306452	c t f	-1.2405492
-2.5758796	c t g	-1.2405492
-2.1857398	c t h	-1.2405492
-0.6742522	c t i	-1.2405492
-2.0239877	c t j	-1.2405492
-1.995522	c t l	-1.2405492
-1.6131916	c t m	-1.2405492
-2.3014852	c t n	-1.2405492
-0.8054555	c t o	-1.2405492
-1.8340835	c t p	-1.2405492
-1.1121215	c t r	-1.2405492
-1.2770537	c t s	-1.2405492
-2.2294858	c t t	-1.2405492
-1.227507	c t u	-1.2405492
-1.9227007	c t v	-1.2405492
-2.5576869	c t w	-1.2405492
-2.6132755	c t x	-1.2405492
-2.3622054	c t y	-1.2405492
-0.9173091	c u </s>	-0.9731279
-1.7104891	c u a	-0.9731279
-1.2770954	c u b	-0.9731279
-1.7322173	c u c	-0.9731279
-1.9615915	c u d	-0.9731279
-1.6897964	c u e	-0.9731279
-1.6805143	c u i	-0.9731279
-1.004285	c u l	-0.9731279
-1.162094	c u m	-0.9731279
-1.3812196	c u n	-0.9731279
-1.3837329	c u p	-0.9731279
-0.6678938	c u r	-0.9731279
-0.8398543	c u s	-0.9731279
-0.9662579	c u t	-0.9731279
-2.1116034	c u z	-0.9731279
-0.711102	c v </s>	-0.5149098
-0.981527	c v a	-0.5149098
-1.498752	c v b	-0.5149098
-0.9410749	c v d	-0.5149098
-0.9339069	c v e	-0.5149098
-0.8640309	c v i	-0.5149098
-1.4758336	c v m	-0.5149098
-1.4803215	c v p	-0.5149098
-1.4758336	c v r	-0.5149098
-1.0456659	c v s	-0.5149098
-1.2305921	c v t	-0.5149098
-0.6399906	c w </s>	-0.4393327
-1.0760628	c w a	-0.4393327
-1.4514356	c w b	-0.4393327
-1.1645347	c w c	-0.4393327
-0.9024949	c w e	-0.4393327
-1.4452344	c w f	-0.4393327
-0.8547775	c w i	-0.4393327
-1.4673375	c w j	-0.4393327
-1.4940573	c w k	-0.4393327
-1.1599882	c w o	-0.4393327
-1.346524	c w s	-0.4393327
-1.4705889	c w z	-0.4393327
-0.5414353	c x </s>	-0.4191293
-0.9844993	c x b	-0.4191293
-1.0017925	c x f	-0.4191293
-0.9190493	c x i	-0.4191293
-1.2413676	c x m	-0.4191293
-1.2927903	c x w	-0.4191293
-1.2263172	c x x	-0.4191293
-1.2649687	c x y	-0.4191293
-0.3219923	c y </s>	-0.6713865
-1.143109	c y b	-0.6713865
-0.8644278	c y c	-0.6713865
-1.6978512	c y f	-0.6713865
-1.7218499	c y g	-0.6713865
-1.7420518	c y h	-0.6713865
-1.7096848	c y j	-0.6713865
-1.6663362	c y l	-0.6713865
-1.6472211	c y n	-0.6713865
-1.4026214	c y p	-0.6713865
-1.4488629	c y s	-0.6713865
-1.3909489	c y t	-0.6713865
-1.7169429	c y w	-0.6713865
-0.5840193	c z </s>	-0.3424227
-1.0052598	c z f	-0.3424227
-1.0170697	c z g	-0.3424227
-0.9136854	c z o	-0.3424227
-0.955762	c z x	-0.3424227
-1.3567594	d + +	-0.4771213
-0.5026728	d + </s>	-0.4771213
-1.1195062	d + a	-0.4771213
-1.0474024	d + c	-0.4771213
-1.4738181	d + f	-0.4771213
-1.1195062	d + h	-0.4771213
-1.4183947	d + i	-0.4771213
-1.4044309	d + l	-0.4771213
-1.1077818	d + m	-0.4771213
-1.4427143	d + n	-0.4771213
-1.4328224	d + v	-0.4771213
-0.0	d </s> <s>	-2.9079485
-0.6325038	d a </s>	-1.083184
-2.4180753	d a a	-1.083184
-1.8451063	d a b	-1.083184
-1.6274669	d a c	-1.083184
-1.7196577	d a d	-1.083184
-1.8839269	d a e	-1.083184
-1.997449	d a f	-1.083184
-2.2709179	d a g	-1.083184
-1.8979824	d a h	-1.083184
-1.5722777	d a i	-1.083184
-2.1891155	d a j	-1.083184
-2.4251798	d a k	-1.083184
-1.3056636	d a l	-1.083184
-1.4969996	d a m	-1.083184
-1.2778956	d a n	-1.083184
-1.5973988	d a o	-1.083184
-1.5524908	d a p	-1.083184
-2.4819431	d a q	-1.083184
-1.1826223	d a r	-1.083184
-1.2642642	d a s	-1.083184
-0.6153011	d a t	-1.083184
-2.3641818	d a u	-1.083184
-2.262394	d a v	-1.083184
-2.1648501	d a w	-1.083184
-2.4061602	d a x	-1.083184
-1.3244436	d a y	-1.083184
-2.1879287	d a z	-1.083184
-2.0752624	d b +	-0.8519375
-0.405921	d b </s>	-0.8519375
-0.8423751	d b a	-0.8519375
-1.2295269	d b c	-0.8519375
-1.9466223	d b d	-0.8519375
-1.4241966	d b e	-0.8519375
-1.468084	d b g	-0.8519375
-1.573261	d b m	-0.8519375
-1.16836	d b o	-0.8519375
-1.7160279	d b p	-0.8519375
-1.6402716	d b r	-0.8519375
-1.4224128	d b s	-0.8519375
-1.7534157	d b t	-0.8519375
-1.2492431	d b u	-0.8519375
-2.0752624	d b v	-0.8519375
-2.0752624	d b w	-0.8519375
-2.0668692	d b x	-0.8519375
-2.0271768	d b y	-0.8519375
-0.4446357	d c </s>	-0.7738725
-1.0676849	d c a	-0.7738725
-1.3384138	d c c	-0.7738725
-1.4920715	d c d	-0.7738725
-1.9500596	d c f	-0.7738725
-1.9417997	d c g	-0.7738725
-1.4481481	d c h	-0.7738725
-1.5443738	d c i	-0.7738725
-1.5942306	d c l	-0.7738725
-1.4990259	d c n	-0.7738725
-0.8854524	d c o	-0.7738725
-1.6261557	d c p	-0.7738725
-1.7618533	d c r	-0.7738725
-1.3143664	d c s	-0.7738725
-1.3896808	d c t	-0.7738725
-1.6341398	d c u	-0.7738725
-1.6882392	d c v	-0.7738725
-0.5545355	d d </s>	-0.7201593
-1.5672308	d d a	-0.7201593
-1.7569462	d d b	-0.7201593
-1.3979588	d d c	-0.7201593
-1.8130033	d d d	-0.7201593
-0.8235487	d d e	-0.7201593
-1.8501653	d d h	-0.7201593
-0.8514287	d d i	-0.7201593
-1.0632008	d d l	-0.7201593
-1.5308284	d d m	-0.7201593
-1.8595782	d d n	-0.7201593
-1.3301297	d d o	-0.7201593
-1.2558205	d d r	-0.7201593
-1.7039667	d d s	-0.7201593
-1.8807009	d d x	-0.7201593
-1.5779288	d d y	-0.7201593
-2.3129553	d e +	-1.3918847
-0.8446498	d e </s>	-1.3918847
-1.4419173	d e a	-1.3918847
-1.7835515	d e b	-1.3918847
-1.3997066	d e c	-1.3918847
-1.7306195	d e d	-1.3918847
-1.8139342	d e e	-1.3918847
-1.8432471	d e f	-1.3918847
-2.6806386	d e g	-1.3918847
-2.4798615	d e h	-1.3918847
-2.1691375	d e i	-1.3918847
-2.3193147	d e j	-1.3918847
-2.3059969	d e k	-1.3918847
-1.0789488	d e l	-1.3918847
-1.4468539	d e m	-1.3918847
-1.0960469	d e n	-1.3918847
-1.5947509	d e o	-1.3918847
-1.493912	d e p	-1.3918847
-0.7020009	d e r	-1.3918847
-0.9746435	d e s	-1.3918847
-1.9425348	d e t	-1.3918847
-1.9494477	d e u	-1.3918847
-1.1405737	d e v	-1.3918847
-2.2887417	d e w	-1.3918847
-1.5876293	d e x	-1.3918847
-2.7908239	d e z	-1.3918847
-0.7991923	d f </s>	-0.5956259
-1.288074	d f a	-0.5956259
-1.650537	d f c	-0.5956259
-1.4527314	d f e	-0.5956259
-0.9001685	d f i	-0.5956259
-1.796522	d f j	-0.5956259
-1.792922	d f k	-0.5956259
-1.2331376	d f l	-0.5956259
-1.4656399	d f m	-0.5956259
-1.7893516	d f n	-0.5956259
-1.0482896	d f o	-0.5956259
-1.6997121	d f p	-0.5956259
-1.1242754	d f r	-0.5956259
-0.9470152	d f s	-0.5956259
-1.3122798	d f t	-0.5956259
-1.2502654	d f u	-0.5956259
-1.4846097	d f x	-0.5956259
-0.6462507	d g </s>	-0.8893017
-0.2605986	d g e	-0.8893017
-1.3649517	d g i	-0.8893017
-1.7000662	d g m	-0.8893017
-1.2358334	d g r	-0.8893017
-1.7529234	d g t	-0.8893017
-1.6776835	d g u	-0.8893017
-1.7762377	d g z	-0.8893017
-0.6775555	d h </s>	-0.6342447
-0.8607001	d h a	-0.6342447
-1.3856215	d h c	-0.6342447
-0.9388529	d h e	-0.6342447
-1.4287384	d h g	-0.6342447
-1.1281636	d h l	-0.6342447
-1.1946275	d h o	-0.6342447
-1.0868335	d h r	-0.6342447
-1.6231997	d h s	-0.6342447
-1.3111993	d h t	-0.6342447
-1.358228	d h u	-0.6342447
-1.7380021	d h x	-0.6342447
-1.3757022	d h y	-0.6342447
-2.6386235	d i +	-1.2600714
-1.1298704	d i </s>	-1.2600714
-0.9497514	d i a	-1.2600714
-2.1201903	d i b	-1.2600714
-1.3532706	d i c	-1.2600714
-1.6639773	d i d	-1.2600714
-1.585594	d i e	-1.2600714
-1.789981	d i f	-1.2600714
-1.5201857	d i g	-1.2600714
-2.6211667	d i h	-1.2600714
-2.3176404	d i i	-1.2600714
-2.1811282	d i l	-1.2600714
-1.826923	d i m	-1.2600714
-0.800075	d i n	-1.2600714
-1.037271	d i o	-1.2600714
-1.9740758	d i p	-1.2600714
-1.2324282	d i r	-1.2600714
-0.845712	d i s	-1.2600714
-1.0527364	d i t	-1.2600714
-1.8665616	d i u	-1.2600714
-1.2271671	d i v	-1.2600714
-2.6223906	d i w	-1.2600714
-2.5349828	d i x	-1.2600714
-2.6335638	d i y	-1.2600714
-2.3158215	d i z	-1.2600714
-0.7393587	d j </s>	-0.5698753
-0.496133	d j a	-0.5698753
-1.3473647	d j c	-0.5698753
-0.877918	d j e	-0.5698753
-1.2688113	d j i	-0.5698753
-0.9376809	d j s	-0.5698753
-1.3202996	d j u	-0.5698753
-0.1459871	d k </s>	-0.7781513
-1.5402095	d k g	-0.7781513
-1.5434119	d k h	-0.7781513
-1.5354499	d k j	-0.7781513
-1.5139028	d k m	-0.7781513
-1.235924	d k n	-0.7781513
-0.4662759	d l </s>	-0.7552884
-1.2356547	d l a	-0.7552884
-1.1488181	d l c	-0.7552884
-0.6119754	d l e	-0.7552884
-1.8348405	d l g	-0.7552884
-1.1916483	d l i	-0.7552884
-1.4054768	d l l	-0.7552884
-1.8489774	d l n	-0.7552884
-1.7940224	d l p	-0.7552884
-1.7021877	d l u	-0.7552884
-1.5456891	d l v	-0.7552884
-1.8511937	d l x	-0.7552884
-1.5573913	d l z	-0.7552884
-0.6076778	d m </s>	-0.876761
-0.5637123	d m a	-0.876761
-1.701753	d m c	-0.876761
-1.471059	d m e	-0.876761
-2.0646886	d m f	-0.876761
-1.7778872	d m g	-0.876761
-0.7743572	d m i	-0.876761
-1.9220265	d m l	-0.876761
-1.3687354	d m m	-0.876761
-1.7347197	d m o	-0.876761
-1.4023884	d m p	-0.876761
-2.04333	d m r	-0.876761
-1.2776417	d m s	-0.876761
-1.743719	d m t	-0.876761
-1.9683189	d m u	-0.876761
-2.088802	d m x	-0.876761
-2.0971468	d m z	-0.876761
-0.6267915	d n </s>	-0.5019448
-1.3786424	d n a	-0.5019448
-1.6770395	d n b	-0.5019448
-1.4670734	d n c	-0.5019448
-1.1186365	d n d	-0.5019448
-0.9765315	d n e	-0.5019448
-1.3794275	d n f	-0.5019448
-1.2187396	d n i	-0.5019448
-1.6961061	d n j	-0.5019448
-1.683967	d n m	-0.5019448
-1.1701566	d n o	-0.5019448
-1.7033471	d n r	-0.5019448
-1.1380629	d n s	-0.5019448
-1.6597173	d n v	-0.5019448
-1.700229	d n x	-0.5019448
-1.6625568	d n y	-0.5019448
-1.7085942	d n z	-0.5019448
-0.8475821	d o </s>	-0.9876663
-1.8528203	d o a	-0.9876663
-1.250669	d o b	-0.9876663
-0.9543915	d o c	-0.9876663
-2.1202988	d o d	-0.9876663
-2.0359774	d o e	-0.9876663
-1.9485079	d o f	-0.9876663
-1.9564462	d o g	-0.9876663
-2.3350168	d o h	-0.9876663
-1.6523891	d o i	-0.9876663
-2.3336507	d o j	-0.9876663
-2.2726725	d o k	-0.9876663
-1.4195056	d o l	-0.9876663
-1.3314915	d o m	-0.9876663
-1.0861299	d o n	-0.9876663
-0.9533107	d o o	-0.9876663
-2.0404815	d o p	-0.9876663
-1.1765812	d o r	-0.9876663
-1.4662269	d o s	-0.9876663
-1.3430436	d o t	-0.9876663
-1.4200044	d o u	-0.9876663
-1.8674898	d o v	-0.9876663
-1.0132554	d o w	-0.9876663
-1.8778703	d o x	-0.9876663
-2.3574788	d o z	-0.9876663
-0.547865	d p </s>	-0.6243364
-1.1352068	d p a	-0.6243364
-1.563608	d p b	-0.6243364
-1.7048703	d p c	-0.6243364
-1.5480815	d p d	-0.6243364
-1.3135518	d p e	-0.6243364
-1.8197073	d p g	-0.6243364
-1.4365961	d p h	-0.6243364
-1.4425361	d p i	-0.6243364
-1.8771975	d p j	-0.6243364
-1.4198789	d p l	-0.6243364
-1.3591616	d p m	-0.6243364
-1.2801495	d p o	-0.6243364
-1.4594755	d p p	-0.6243364
-1.0798408	d p r	-0.6243364
-1.0745925	d p s	-0.6243364
-1.6332969	d p t	-0.6243364
-1.856027	d p v	-0.6243364
-1.5852131	d p x	-0.6243364
-0.7521712	d q </s>	-0.3521825
-1.0901563	d q a	-0.3521825
-1.096607	d q c	-0.3521825
-0.8715573	d q e	-0.3521825
-1.2284751	d q q	-0.3521825
-1.1519826	d q s	-0.3521825
-0.7982713	d q u	-0.3521825
-1.2240951	d q v	-0.3521825
-1.0594187	d r </s>	-1.0050795
-0.5927376	d r a	-1.0050795
-2.1611341	d r b	-1.0050795
-2.0400428	d r c	-1.0050795
-1.8426173	d r d	-1.0050795
-0.7983007	d r e	-1.0050795
-1.8907844	d r g	-1.0050795
-2.1933339	d r h	-1.0050795
-0.8649874	d r i	-1.0050795
-2.0656478	d r m	-1.0050795
-0.6965309	d r o	-1.0050795
-2.2155179	d r q	-1.0050795
-1.9712043	d r t	-1.0050795
-1.5060433	d r u	-1.0050795
-2.2042842	d r w	-1.0050795
-1.5853449	d r y	-1.0050795
-2.2291798	d r z	-1.0050795
-2.1314064	d s +	-0.8726418
-0.3618017	d s </s>	-0.8726418
-1.3478008	d s a	-0.8726418
-1.9197103	d s b	-0.8726418
-1.3458108	d s c	-0.8726418
-1.8920754	d s d	-0.8726418
-1.4716728	d s e	-0.8726418
-1.9221986	d s f	-0.8726418
-1.5465246	d s h	-0.8726418
-1.6745913	d s i	-0.8726418
-1.6383164	d s j	-0.8726418
-1.7285627	d s k	-0.8726418
-1.6242687	d s l	-0.8726418
-1.8749559	d s m	-0.8726418
-1.331169	d s o	-0.8726418
-1.2974576	d s p	-0.8726418
-1.8777627	d s q	-0.8726418
-2.1782843	d s r	-0.8726418
-1.6004678	d s s	-0.8726418
-1.1479919	d s t	-0.8726418
-1.6802277	d s u	-0.8726418
-2.1638998	d s w	-0.8726418
-2.2308414	d s x	-0.8726418
-1.7148029	d s y	-0.8726418
-0.526247	d t </s>	-0.60206
-1.1703358	d t a	-0.60206
-1.2747413	d t c	-0.60206
-1.4753267	d t d	-0.60206
-0.9463987	d t e	-0.60206
-1.4850521	d t f	-0.60206
-1.6200092	d t h	-0.60206
-1.7082794	d t l	-0.60206
-1.4560675	d t p	-0.60206
-1.0261935	d t r	-0.60206
-1.5939669	d t s	-0.60206
-1.6722315	d t t	-0.60206
-1.6336404	d t u	-0.60206
-1.3111418	d t v	-0.60206
-1.7898755	d t x	-0.60206
-1.7823814	d t z	-0.60206
-1.1333494	d u </s>	-0.845098
-1.4105803	d u a	-0.845098
-1.03819	d u b	-0.845098
-0.6419653	d u c	-0.845098
-1.4922468	d u e	-0.845098
-1.7499928	d u g	-0.845098
-1.1902316	d u i	-0.845098
-1.7670205	d u k	-0.845098
-1.0937385	d u l	-0.845098
-1.6456055	d u m	-0.845098
-1.0128145	d u n	-0.845098
-2.0511305	d u o	-0.845098
-1.6242548	d u p	-0.845098
-2.0834841	d u q	-0.845098
-1.2224134	d u r	-0.845098
-1.2158557	d u s	-0.845098
-1.3610356	d u t	-0.845098
-1.709626	d u x	-0.845098
-0.8279733	d v </s>	-0.5336026
-0.8407478	d v a	-0.5336026
-1.1138427	d v b	-0.5336026
-1.5580444	d v d	-0.5336026
-0.8738518	d v e	-0.5336026
-1.5819464	d v f	-0.5336026
-0.653822	d v i	-0.5336026
-1.5256881	d v m	-0.5336026
-1.4409737	d v o	-0.5336026
-1.2686725	d v p	-0.5336026
-1.5256881	d v r	-0.5336026
-1.5606362	d v t	-0.5336026
-0.7918007	d w </s>	-0.6450946
-0.6920675	d w a	-0.6450946
-1.6571975	d w b	-0.6450946
-1.6241371	d w c	-0.6450946
-1.1082568	d w e	-0.6450946
-1.6299639	d w h	-0.6450946
-0.9752838	d w i	-0.6450946
-1.6666686	d w m	-0.6450946
-0.6349677	d w o	-0.6450946
-1.3735348	d w r	-0.6450946
-1.6896057	d w w	-0.6450946
-1.6763509	d w z	-0.6450946
-1.16743	d x +	-0.60206
-0.3280037	d x </s>	-0.60206
-0.9599605	d x c	-0.60206
-1.453323	d x d	-0.60206
-1.439889	d x l	-0.60206
-1.1269892	d x p	-0.60206
-1.1334732	d x s	-0.60206
-1.4478994	d x y	-0.60206
-0.2797715	d y </s>	-0.8239087
-1.6492078	d y a	-0.8239087
-1.7209306	d y d	-0.8239087
-1.6566166	d y e	-0.8239087
-0.6896895	d y n	-0.8239087
-1.618032	d y o	-0.8239087
-1.261417	d y p	-0.8239087
-1.1972234	d y s	-0.8239087
-1.7296832	d y w	-0.8239087
-0.3565492	d z </s>	-0.4259687
-0.8668443	d z b	-0.4259687
-0.8530872	d z l	-0.4259687
-0.2508124	e # x	-0.30103
-1.5695436	e + +	-0.5688916
-0.6967343	e + </s>	-0.5688916
-1.1197094	e + a	-0.5688916
-1.4045844	e + c	-0.5688916
-1.2597272	e + e	-0.5688916
-1.0372446	e + h	-0.5688916
-1.652998	e + i	-0.5688916
-1.4045844	e + j	-0.5688916
-1.6337156	e + l	-0.5688916
-1.0293563	e + m	-0.5688916
-1.6871691	e + n	-0.5688916
-1.6092693	e + p	-0.5688916
-1.7090417	e + q	-0.5688916
-0.8885781	e + s	-0.5688916
-1.6871691	e + t	-0.5688916
-1.4306631	e + v	-0.5688916
-1.4151863	e + w	-0.5688916
-0.0	e </s> <s>	-3.2678754
-1.1116985	e a </s>	-1.3635224
-2.1389335	e a b	-1.3635224
-1.0390404	e a c	-1.3635224
-0.853481	e a d	-1.3635224
-2.3410596	e a e	-1.3635224
-2.0599167	e a f	-1.3635224
-1.8671735	e a g	-1.3635224
-2.1935871	e a h	-1.3635224
-2.130957	e a i	-1.3635224
-2.3656149	e a j	-1.3635224
-1.7230076	e a k	-1.3635224
-1.0981113	e a l	-1.3635224
-0.9291172	e a m	-1.3635224
-1.1476263	e a n	-1.3635224
-1.7361141	e a p	-1.3635224
-0.930441	e a r	-1.3635224
-0.992053	e a s	-1.3635224
-1.1974008	e a t	-1.3635224
-1.7655251	e a u	-1.3635224
-1.5849507	e a v	-1.3635224
